9037 10
, 0.22106718 -0.14294195 0.72490716 -0.6054358 0.6998631 0.8838668 0.11119825 0.5898318 -0.057788692 -0.1340716
the 0.15701722 -0.14926364 0.8367164 -0.89095837 0.43263987 0.7184755 0.25132343 0.35729477 -0.06483284 0.3064737
. 0.03425247 -0.06298426 0.65405643 -0.64524114 0.609669 0.8107245 0.038722165 0.38735917 -0.19536254 -0.18495883
i -0.115639806 0.6951263 0.77748555 -0.9991459 1.325867 0.65527034 -0.07238029 0.31361163 0.118732214 -0.5681177
and 0.12488809 0.0514153 0.6283257 -0.94303 0.43661752 0.8170191 -0.07942996 0.470938 -0.31961447 -0.062723055
“ 0.02542279 0.0020128838 0.7473341 -0.02027273 2.041194 0.96979344 0.13753752 -0.29990312 0.3386339 -0.22022273
to 0.20521481 0.12902364 0.6244556 -1.0803115 0.6449608 0.6954513 -0.10764435 0.23368867 -0.18821824 -0.80984265
of 0.09998159 -0.50885135 0.89807844 -0.6706276 0.36329755 0.5015061 0.4037056 0.16510712 -0.23428336 -0.043645147
a 0.03447224 -0.39418256 0.5225053 -0.90582836 0.3140576 0.7378719 0.31647646 0.62205505 -0.49677205 -0.29417172
” 0.08051367 0.29592204 0.7754062 0.11607736 1.9109282 1.1276482 -0.0137805585 -0.20965776 0.2925148 -0.09516756
in 0.21209529 -0.2088384 0.88663006 -0.8014388 0.27126202 0.7001273 0.13712321 0.45473123 -0.15421411 -0.086209886
that 0.12744099 0.26699045 1.0373242 -0.70652723 1.0712662 0.411279 0.25905162 0.2593385 -0.0692236 -0.69560564
it -0.042879473 0.143167 0.6432177 -0.82177913 0.9690877 0.79533654 0.19950779 0.30317673 0.038040377 -0.60945433
he -0.18797012 0.4876181 0.5306227 -0.8038641 0.9190211 0.8444264 -0.08963672 0.8297103 -0.40669793 -0.31666002
you 0.109779686 0.49271432 0.7235174 -0.5589189 1.8965303 0.93734986 0.0108408965 -0.58527654 0.40790042 -0.72769254
was 0.3334793 -0.5891065 0.7298992 -1.0112373 0.7026371 0.2702573 0.02159081 0.80897063 -0.64120483 -0.22181721
his 0.04355314 0.44415152 0.48855218 -0.5050803 0.22673137 1.2357544 -0.13436711 0.9852826 -1.1082869 -0.24776031
is 0.4359021 -1.0996343 0.69064903 -0.052138347 1.270989 0.7768395 0.46262428 0.1918211 -0.08748528 -0.7943386
’ -0.20637874 -0.7924499 -0.4839176 -1.045264 1.7078403 1.1483903 0.84673774 -0.32228214 -0.24198951 -0.09219185
my -0.3815536 0.61452115 0.44945812 -1.0693558 0.71770763 0.88524204 0.03293252 0.7915007 -0.3357427 -0.4164706
have 0.4081043 0.16281518 1.3748719 -0.43408644 1.2523742 0.4467921 0.21115658 -0.014476206 0.34453613 -0.6170861
as 0.41483298 0.27001464 0.79608214 -0.6437881 0.6827195 0.7823845 0.08362114 0.45778388 -0.35245946 -0.60161394
had 0.59151506 0.031198334 1.5535321 -0.7124907 0.7302331 0.07801821 -0.17293291 1.1203458 -0.4749611 -0.07671315
with 0.23262958 -0.22308233 0.41030446 -0.655227 0.28220028 1.0116525 -0.03535956 0.5765347 -0.7637868 -0.14940241
which 0.1831136 0.15085469 1.1250126 -0.9162786 0.18045314 0.48602355 0.4281106 0.09197204 -0.14030612 -0.26678172
at 0.0894936 -0.12991849 0.5645743 -1.4315215 0.52609736 0.73584586 0.04950008 0.6683484 -0.06402325 -0.007020341
? 0.06271987 -0.030520245 0.62412226 -0.3597288 2.5674787 0.62103885 0.01983897 -0.4957342 0.10779695 0.27260825
for 0.15354566 -0.11371113 0.81163096 -0.9814862 0.6894619 0.61986464 0.12170695 0.3684052 0.06897913 -0.71925694
not 0.1334435 0.40962175 0.9214246 -0.60672146 1.5784105 0.3640508 0.2991679 -0.2904735 -0.18263467 -0.96284294
but 0.14661191 0.067899175 0.9356135 -0.7532721 1.125925 0.43025246 0.14122237 0.33231497 -0.058782168 -0.5707142
be 0.05484447 0.111485094 0.6447123 -1.125963 0.72516453 0.7551792 0.3034386 -0.30912825 0.12339406 -1.3689622
me 0.041063458 0.640327 0.42615744 -1.1589715 1.0000083 0.87288576 -0.04065256 0.36679158 -0.21967466 -0.6473788
we 0.4224271 0.5332209 1.0815734 -1.1238912 0.5583108 1.2348992 -0.38067326 -0.121915355 0.94517374 -0.22516441
there 0.23113038 -0.6300707 1.1315603 -0.9610065 0.8227145 0.33437666 0.7577087 0.01881117 0.39634216 -0.033004466
from 0.29340947 -0.108627476 0.7453945 -0.9220288 0.7113735 0.60811704 -0.10934044 0.23343642 -0.2296499 0.28004864
said 0.5823332 -0.18737286 0.4251367 0.20910221 1.7634025 1.5688399 0.37730056 0.19824027 0.043981504 -0.34354016
this 0.07027001 0.13044891 0.85245126 -0.61710286 1.004418 0.83369416 0.43426484 0.11985094 0.293748 -0.28598857
upon 0.42221183 -0.13151085 0.6199806 -0.92655796 -0.04009805 1.0341703 0.14805512 0.5075374 -0.48046386 -0.37524566
holmes 0.1369582 0.96339935 0.8785865 0.058732826 0.990936 1.8005716 0.016456846 0.7085709 0.31926748 0.127353
‘ 0.018788898 -1.2369436 -0.3731156 -0.8466621 2.10016 1.3276472 0.85760474 -0.78244275 0.22396348 -0.25771913
so 0.15930504 0.12160505 0.86784434 -0.84372234 0.6980922 0.5901911 -0.14434248 0.31053165 -0.09602398 -0.99276465
she -0.712494 0.6855794 0.8569691 -1.1537845 1.4574513 0.16550472 -0.24837533 1.086608 -0.44009128 0.02775733
her -0.649135 0.6087102 0.680254 -1.4627227 1.1180862 -0.11374491 -0.5280684 1.148249 -1.2437459 -0.03325074
him 0.009718143 0.8516491 0.5250465 -1.1621467 0.8786911 0.7176669 -0.37400252 0.5480944 -0.618223 -0.48171225
very 0.40054682 -0.29546177 0.8364525 -0.25385445 0.75739753 0.91986513 0.30587992 0.41404697 -0.08926522 -0.73063314
your -0.42106092 0.4368661 0.40200463 -0.79511404 1.4070926 0.80040896 -0.17714272 0.11540544 -0.10466252 -0.84981495
been 0.28456792 0.072893776 1.9981749 -0.27483827 0.6623883 0.066752195 0.30497602 1.0473652 -0.087275624 -0.39640766
what -0.15179439 0.751905 0.6236605 -0.71499926 2.3223267 0.65746117 0.32409927 -0.7949025 0.20143083 -0.22530173
no 0.109109655 -0.5951553 1.3443247 -0.45686963 1.6632758 -0.052689087 0.54078233 0.11450931 0.1311187 -0.2540342
on 0.4350501 -0.33629355 0.580813 -1.0693516 0.59155583 0.9695933 0.16314651 0.26979935 0.13296184 0.13088936
all 0.5552801 0.0027614455 0.82137287 -0.84731895 0.86704016 0.77261776 0.12508751 -0.37121442 0.2460468 -0.34240916
one 0.41625306 -0.7626067 0.8224274 -0.89645433 0.59742796 0.4653144 1.0069625 0.24754089 -0.25714257 0.07489676
then 0.028097201 0.22988889 0.34513813 -0.9614029 1.6293142 0.9290547 -0.38608694 0.11146642 0.09888448 0.2784238
s -0.43638292 -1.162192 -0.41900134 -1.1561593 1.2478884 0.8334544 0.8532643 0.42024374 -0.7522314 -0.041280195
were 1.2793385 -1.2230346 1.065861 -0.8898435 0.31899735 0.38207358 -0.42651972 -0.39662057 -0.1578657 -0.4169685
by 0.155245 0.1847169 1.4378668 -0.5555376 0.5391492 0.33424076 0.09960629 0.314237 -0.011477044 0.12440955
! 0.0880465 -0.42308396 0.33914518 0.21751738 1.9068362 1.5988424 -0.49086815 0.39816228 0.1530643 0.17757984
are 1.2819393 -1.562114 1.1191218 0.03349519 1.2372261 0.8979855 0.35760668 -0.9199443 0.6453935 -0.5468098
an -0.42205003 0.08456624 0.6491828 -1.0201039 0.35712808 0.49699107 0.10400048 0.44642922 -0.44733387 -0.76077986
would 0.5454232 -0.50906646 0.5691504 -1.222384 1.1281173 0.21895179 -0.27844813 -0.18117389 -0.5379021 -1.4295095
when 0.17482677 0.5600422 1.053667 -1.1867342 1.0618484 0.4293865 -0.43732905 0.8317679 -0.06557425 0.102365375
out 0.48086554 0.05751863 0.5236334 -1.2022212 0.42349023 0.8654235 -0.21013673 0.18299751 -0.37506476 0.18295538
man -0.031043563 -0.07630836 0.42352062 -0.55940056 0.6309928 0.73927265 1.1113907 0.5625358 -0.9910476 -0.634411
up 0.40211022 0.17879637 0.5148693 -0.86151886 0.38806394 1.3055732 -0.3545952 0.9749541 -0.3473612 0.011121862
could 0.70285136 -0.17699559 1.0358095 -0.86943614 1.4749917 -0.3269931 -0.62869483 -0.33250242 -0.8930371 -0.6886158
has 0.4733431 -0.4043923 1.8350862 0.34346732 1.079077 0.1983283 0.45573634 1.0324316 -0.34759045 -0.6021644
do 0.38746047 0.32592288 0.5100262 -0.6339451 2.3015745 0.80684644 -0.084349215 -0.8945723 0.05375434 -0.9713515
into 0.34571528 0.06240137 0.39434025 -1.3366103 0.37599683 1.0613858 -0.6332108 0.654163 -0.46564478 0.24324982
who -0.05529035 0.0022060808 0.95128983 -0.3745088 0.8387116 0.46397626 1.1551182 0.2587087 -0.46694848 -0.2521856
little 0.09649728 -0.18346006 0.56105655 -0.9012868 0.40300506 0.84664524 0.4745066 0.44169226 -0.22266978 -0.60449165
mr. 0.26686358 0.5931661 0.72630435 0.17487437 1.4539887 1.7338774 0.84681934 0.14024107 0.381138 0.0646708
will 0.48209548 -0.1989812 0.7564574 -0.62795806 1.3578479 1.1289661 -0.6139193 -0.2977117 0.6190046 -1.1892989
if 0.2658588 0.31829804 0.52642506 -0.8593037 1.247795 0.9146364 0.1126415 -0.47910333 0.019013314 -1.3109957
some 0.40703288 -0.22486573 1.7173567 -0.44528574 0.3282164 0.44901243 0.17390761 0.39258936 0.42231643 -0.28210393
can 0.67617875 -0.33479524 0.62294465 -0.4326598 1.9032819 0.59197897 -0.15076235 -0.80075604 -0.092121296 -0.983229
down 0.64885944 0.07876204 0.49076256 -1.2927079 0.2654151 1.3812559 -0.44591597 0.61605704 -0.2780843 0.57879376
see 0.5398193 0.5973165 0.70825016 -0.6552393 1.5724883 0.72857356 -0.0023955363 -0.5244417 -0.07330155 -0.3205596
now 0.34330848 0.1305233 0.7835825 -0.4134642 0.9889641 1.2626889 0.19604018 0.37079316 0.32834646 -0.6477221
should 0.48644325 -0.22284202 0.24151492 -1.1460303 1.2257107 0.701006 -0.15041037 -0.31798893 -0.46767446 -1.7868599
our 0.21263254 0.24455701 1.100303 -0.45977667 -0.12516421 1.7243837 -0.33345398 0.30287823 0.8745336 -0.45583126
; 0.15737818 -0.09929612 0.6956954 -0.8496866 1.2990737 0.7572455 -0.049831737 0.57306576 0.11960864 -0.67417014
they 0.50890833 0.011708981 1.254593 -1.2481056 1.1409669 0.18087173 -0.17489418 -0.9900219 0.5202073 -0.38689637
may 0.69611865 -0.3967117 1.2846092 -0.32263687 0.803894 0.8814834 -0.10971182 -0.34376684 0.5877444 -1.3250054
or 0.1822077 -0.48954126 0.71185595 -1.3343066 0.5786154 0.24957147 0.5371747 -0.121005304 -0.20453438 -0.8787188
am 0.23860006 0.14981501 0.837338 0.3213176 1.563214 0.9469157 0.14552276 -0.14477412 -0.3297266 -1.5451915
us 0.58550185 0.36555138 0.3965919 -1.2975183 0.40672228 1.3793716 -0.16198485 -0.47579083 0.28737527 -0.34849766
well 0.28141403 -0.117099024 0.6692253 -0.36765128 1.595193 1.1056246 0.33538455 0.03663139 0.4041696 -0.594229
over 0.14706731 -0.057938382 0.30799443 -1.1608841 0.24760427 1.108072 -0.22138731 0.7560036 -0.45628834 -0.20137559
more 0.19879937 0.5414011 1.4175816 -0.4267858 0.5311887 0.5517828 0.057248224 0.45026776 -0.14130975 -1.2867851
think 0.39371914 0.27724347 0.8901256 -0.51245755 1.7729454 0.6635195 0.33356363 -0.24589042 0.06905753 -1.0180117
shall 0.47175846 -0.09236402 0.13398798 -1.2319632 1.2024003 1.6138562 -0.8128715 -0.6119679 0.6422367 -1.1630183
about 0.27437013 -0.25177887 0.5777464 -1.0324062 0.99141604 0.6997622 0.24654311 0.19685078 0.033609454 -0.037899997
know 0.43761417 0.14550692 0.40781674 -0.83597547 2.1466708 0.68812084 0.14121245 -0.63502914 -0.117108844 -0.85170263
must 0.63168555 -0.23316728 0.97304857 -0.84901565 0.92901653 0.69220626 -0.4225387 0.0458205 0.28778887 -1.0941365
only 0.36725456 -0.32180464 1.0735064 -0.9079828 0.9408711 0.3059012 0.67791843 0.28027445 0.03475464 -0.35120282
before 0.3388399 0.40772378 0.9081703 -1.2022394 0.87819135 0.72297037 0.11910843 0.5738332 0.19294241 -0.25585055
come 0.30035165 0.5772808 0.6167557 -1.0824542 1.2857579 0.9278823 0.031730264 0.105548024 0.12561345 -0.6265008
than 0.15731192 0.5454186 1.5480844 -0.30627158 0.5661714 0.20284516 0.3536858 0.531239 -0.6533136 -1.4322681
did 0.45636877 0.10051175 0.6700745 -0.5441503 2.4228914 0.39422294 -0.80954015 -0.3725439 -0.3002974 -0.39533353
time 0.16936858 0.32903144 1.0889988 -1.3650874 0.7115118 0.5059143 0.25307631 0.49102217 0.26426622 -0.34938708
came 0.57576036 0.20781834 0.64860326 -1.2431394 0.97742313 0.9302964 -0.23392941 0.6769648 -0.020935558 0.21881032
other 0.6786637 -0.6572955 0.84861284 -1.2078629 0.5734714 0.570314 0.90605485 -0.04033008 0.07628179 0.12531605
two 0.50764316 -0.9838155 1.1583412 -1.5490235 0.1216116 0.350786 0.4742921 0.3502636 0.2789594 -0.005079664
them 0.45974985 0.13588127 0.8605401 -1.1946038 0.8928682 0.3343285 -0.10703787 -0.51212686 -0.09452978 -0.45536432
how 0.176178 0.84920484 0.90125865 -0.5071087 2.0384347 0.57892567 -0.26397485 -0.9711809 0.15055668 -0.1494517
door 0.8376346 -0.017040132 0.862253 -1.7700571 0.6032768 0.80768037 0.25642374 0.78915364 -0.16522555 1.018623
back 0.5721732 0.46616432 0.60399234 -1.2194386 0.7815288 1.1705513 -0.47461215 0.8551513 -0.14053348 0.24647924
here 0.21937735 -0.15280817 0.3982014 -0.75966096 1.0998019 1.455966 0.37544695 -0.07972714 0.6474732 -0.15448782
face 0.0680144 0.29195312 0.05992361 -0.8856116 0.44723633 1.01842 0.2697287 0.72081673 -1.8420631 -0.11560315
any 0.1373219 -0.089304276 1.1146723 -1.2285904 0.96791685 -0.13649133 0.21236566 -0.50288194 -0.17552121 -1.0824035
room 0.63857305 0.19585183 0.69575924 -1.5816135 0.48350716 0.7380176 0.0531582 0.5823165 -0.47783157 0.4752281
just 0.46246377 0.16292518 0.8967965 -1.1229835 0.8576012 0.9912123 -0.08892209 0.54803 0.51392996 -0.20706181
might 0.43416297 -0.20087758 0.91172165 -1.119527 0.80971056 0.08903512 -0.41558048 0.105319604 -0.509296 -1.306374
where 0.13493001 0.0648242 0.7396767 -1.120655 1.2290462 0.55488646 0.08719804 -0.3694647 0.31269637 0.53405553
matter 0.35959068 0.17822072 0.8063229 -0.53999716 1.0557474 0.8207974 0.6157884 -0.048999343 -0.07096388 -1.1578379
much 0.28884205 0.16672182 0.8338375 -0.38627446 0.8839435 0.73337525 0.23676875 0.33499852 -0.49974492 -1.5211364
hand 0.50872463 -0.020012217 0.0051858523 -1.169025 0.67614496 1.1001846 0.031788863 0.64817476 -1.195769 0.142487
way 0.57496953 0.2906731 0.7451771 -1.33422 0.6415907 0.7634134 0.20198935 0.09814448 -0.024777777 -0.34341994
yes 0.043571837 -0.3901428 0.8451435 -0.053897586 2.0754092 0.9205963 0.30423206 0.09399207 0.45330787 0.22285418
heard 0.35397878 0.1231692 1.1634418 -0.9161995 1.3711492 0.30637777 0.24611123 0.7954012 -0.049813848 0.6032555
such 0.07930072 0.19129619 0.6953391 -0.71437 1.0059714 0.3076949 0.72390246 -0.23747101 -0.76907104 -1.2742087
made 0.5303338 -0.024641788 1.004292 -0.6800571 0.6967708 0.6308235 0.09278779 0.7608195 -0.29121736 -0.40477994
house 0.09940691 -0.092727974 0.5797832 -1.2550516 0.61440057 0.76227766 0.7056637 0.2527223 -0.03519834 0.27627063
case 0.22324827 0.083837874 0.82041854 -0.4496609 0.8255711 0.89140886 0.7070467 -0.06947524 0.032360647 -0.8547293
however 0.57476735 0.30920103 1.3161619 -0.83867127 0.27294946 0.6724306 0.2285935 0.5006657 0.043450862 -0.5625987
quite 0.11798624 -0.044220425 0.6468236 -0.42877346 0.93063915 0.8795069 0.26998773 0.37979436 -0.23012434 -0.94543886
found 0.7096182 -0.039821714 1.1303613 -1.603553 0.47398907 0.24238601 -0.37133497 0.40530112 -0.12514688 0.015449444
good 0.2890255 -0.39487728 0.8199773 -0.40195113 1.1501029 0.9783912 0.86787677 0.26588723 0.26623222 -0.8008575
nothing 0.12480629 0.33098802 0.96771365 -0.87344235 1.536606 0.21461041 0.24008031 -0.24487665 0.029929781 -0.49453634
never 0.024276506 0.46775743 0.91721827 -0.72403765 1.3659477 0.60105824 0.09539149 0.5694045 -0.04036919 -0.6337016
away 0.2878685 0.47815183 0.6902665 -1.3532351 0.76118267 0.7211573 -0.4265062 0.2422627 -0.072303355 -0.06717563
after 0.40787458 -0.009054168 0.97154546 -1.4639221 0.423921 1.0752088 0.16557512 0.6415993 0.72136307 0.09632955
own 0.14006938 0.25241476 0.5699502 -0.5988437 0.8495665 0.7741859 0.5395538 0.03621218 -0.46411076 -0.95459414
sherlock 0.31586003 0.96672356 0.94518965 0.19449502 1.1387994 1.877355 0.39290595 0.54139733 0.29484808 0.54212815
their 0.22176987 -0.18470682 1.1800295 -1.2853814 0.4363541 0.103411935 -0.17445318 -0.81229097 0.14379075 -0.5834412
go 0.2612574 0.6562798 0.4633133 -1.3505547 1.2557514 1.0539811 -0.39523748 -0.12324381 0.32409942 -0.84237957
t -0.20704478 -0.5997158 -0.71586806 -1.3080517 2.3423982 1.166934 -0.033198856 -0.79416764 -0.3704589 -0.89443314
tell 0.4229831 0.49491277 0.5213581 -1.065504 1.7166306 0.7698299 -0.18054539 -0.3878165 0.010826935 -0.8076512
last 0.21294376 -0.2675599 0.823942 -1.3121942 0.8340286 0.6160478 0.3549532 0.50981736 0.3031093 0.44279602
morning 0.36516938 0.017541807 0.9516669 -1.411379 0.57272923 0.7757571 0.3132927 0.29960126 0.48162422 0.35456958
like 0.10185492 -0.366887 0.015993496 -1.1121745 0.6630266 0.70084196 0.59700066 0.10279371 -1.02998 -0.21219733
say 0.05546054 0.19722097 0.5701663 -0.7526586 1.7343425 0.64585626 0.55949473 0.06413259 -0.12484475 -0.93416685
right 0.6727852 -0.24248621 0.2583976 -1.1353961 0.6810685 1.3272288 0.027353492 0.20674935 0.03897068 0.03631569
oh 0.047189903 -0.34861204 0.26629642 -0.09512656 2.2180703 1.5037227 0.3709929 -0.20573275 0.36832935 -0.35930392
most 0.12908255 0.024979416 1.3158822 -0.038149416 0.5809719 0.5637509 0.6165561 -0.04220348 -0.07211244 -0.62187237
saw 0.61097646 -0.085653365 0.62762433 -1.3929191 1.2171025 0.26769134 -0.5609949 0.90187365 -0.87083715 0.40894186
through 0.40835947 -0.25228763 0.97568333 -1.652504 0.11723755 0.5174567 -0.40171084 0.22514407 -0.13693875 0.70708054
asked 0.36672318 0.15260427 0.21463193 -0.5680815 2.4694 0.83832663 0.26518172 -0.29286706 -0.30658868 0.31916577
miss -0.46584797 0.5103597 0.6751582 0.101016894 1.4705354 1.0342304 0.22520342 0.39349067 -0.20839557 -0.31934345
eyes 0.8142236 0.16204043 0.43239066 -0.4452405 0.2630341 1.5456254 -0.012649846 0.6624628 -1.3173118 0.07095051
long 0.44217694 0.21206583 0.79555607 -0.64195466 0.18201284 1.0916722 -0.023589509 0.41488904 -0.29076397 -0.14438137
took 0.5228053 -0.16638212 0.24729906 -1.0574675 0.7330496 1.082097 -0.04835985 0.39754868 -0.4616437 0.29421592
its 0.3387333 0.06005052 1.2778658 -0.6392397 -0.28107148 0.7290898 0.24938355 0.034559555 -0.22558619 -0.47358903
once 0.5416112 0.75553966 1.2307721 -1.1194757 0.3759114 0.75186867 -0.3765322 0.88004416 -0.15664418 -0.7296981
yet 0.45887965 0.4440922 1.0486602 -0.64121187 0.8797269 0.4069823 0.11389123 0.34240988 -0.47362414 -0.6729782
first 0.31443253 0.14668003 0.79563504 -1.1550897 0.75397944 0.7519956 0.427074 0.116907366 0.2392982 -0.12707071
left 0.18018623 -0.077844806 0.74515045 -1.3923619 0.5945978 0.6367909 0.17620008 0.9551678 -0.25151855 0.4338616
day 0.36320826 -0.033721164 0.9662678 -1.4689082 0.25525528 0.78571504 0.46950543 0.6230342 0.25175488 -0.103294246
st. -0.5042823 -0.58062726 0.64768785 0.22430669 1.0677638 1.5817965 1.2418965 0.97129446 -0.010593035 0.38565078
watson 0.49878016 0.20621029 0.57503253 -0.24092059 1.3828174 1.6190289 0.15388308 -0.04707356 0.49861678 -0.85611194
every 0.20821708 -0.10325406 0.78327996 -1.293852 0.0790864 0.5298287 0.1997438 -0.06650116 -0.20358497 -0.7334327
young -0.14776494 -0.037536327 0.56724435 -0.40980804 1.3698891 0.4992747 1.0869644 0.545643 -0.87956864 -0.3914921
round 0.812941 -0.18110155 0.5576419 -1.3662598 0.30207166 0.92764676 -0.09095883 0.50503033 -0.62495506 0.42931533
too -0.022279294 0.022738215 0.63302356 -0.3837681 1.223962 0.7482161 0.30924973 0.45213896 -0.35886595 -1.222715
father 0.046520717 0.09635329 0.3558715 -1.4826298 1.4149976 0.44797373 0.40123108 0.62883496 -0.5090047 -0.053410336
these 0.5878224 -0.5657496 1.5274355 -0.6410206 0.4409433 0.43451056 0.34486923 -0.8108632 0.65806526 -0.38313568
still 0.39614522 0.092993364 0.6813257 -1.007035 0.30235788 0.98924404 -0.15275522 0.5847042 -0.18478884 -0.4699781
find 0.5157951 0.40186527 0.8198551 -0.686197 1.1645017 1.088366 -0.21052387 -0.5096005 0.4043474 -1.1103891
side 1.049328 -0.39435688 0.89934784 -1.5370512 -0.06781685 1.1249934 0.67355925 0.28644016 -0.206111 0.7730777
small 0.25434935 -0.8439126 0.6947038 -1.2026027 -0.07250552 0.7950529 1.072362 0.5526678 -0.54527646 0.41345286
take 0.2843227 0.01678003 0.7064413 -1.0311779 1.0630955 0.8237243 0.1114442 -0.41444585 0.36791673 -1.1729808
lady -0.08421026 -0.083081774 0.5654861 -0.3991596 1.4001681 0.57295406 0.93734664 0.38179576 -0.6455783 -0.03412577
friend 0.18018821 0.3366607 0.54041654 -0.50341564 0.77260256 1.2921654 0.9529901 0.33357358 -0.095449954 -0.6420962
thought 0.41181764 0.27770203 0.78417516 -0.92510664 1.1586546 0.44670537 -0.17832424 0.3683817 -0.40360045 -0.66569984
few 0.5850073 -0.46763313 0.9642107 -1.4701346 0.16613457 0.6979974 0.54081136 0.7359347 0.11982786 0.06417246
why -0.25028914 0.26895928 0.29815635 -0.627623 2.2998562 0.86263967 0.05172524 -0.33967772 -0.06589486 -0.8592163
street 0.060299754 0.1410382 0.48554456 -1.5106028 0.27871847 1.6453056 -0.3543991 0.08765958 0.6727716 0.9215533
until 0.36499143 0.23705319 0.71573126 -1.5712826 0.699668 0.6495653 -0.30330786 0.0055817957 0.14793222 0.01780363
myself 0.11536159 0.6444362 0.7283396 -1.4419051 0.4096409 0.6479717 -0.1975173 0.45069432 -0.26779014 -0.6005073
night 0.14889221 0.033294093 0.5096624 -1.6773683 0.7840435 0.60688007 0.1115603 0.27492237 0.061396673 -0.16379085
make 0.36319348 0.34765917 0.52429956 -0.83938694 1.4149489 0.67920965 -0.053130466 -0.5456608 -0.26380402 -1.17738
without 0.31602773 0.26710126 0.7206672 -1.1171107 0.63140064 0.4438608 -0.19654922 -0.17405926 -0.44205502 -0.9096947
light 0.44254988 -0.21776071 0.7471816 -1.3828373 0.12945382 0.61443955 0.42126533 0.26969993 -0.6986079 0.5543611
himself 0.3522937 0.7419497 0.58059853 -0.5272851 0.25138253 1.1123389 -0.15214793 0.64447814 -1.266124 -0.6453513
look 0.49306482 0.37824044 0.25243714 -1.2073802 0.7042199 1.2770069 0.02799379 0.014638899 -0.090205945 -0.4617579
off 0.4377979 0.066931285 0.52206457 -1.173416 0.7213771 0.87633985 -0.28278586 0.3978123 -0.22233418 0.17336644
sir -0.08552899 -0.22566141 0.6733497 -0.24247476 1.8261204 1.0819461 0.3223692 0.2974263 0.38819727 -0.6274875
let 0.5017563 0.07119006 0.120837316 -0.98197454 1.2075088 1.7604527 -0.5182952 -0.2970927 0.5320827 -0.8615615
even 0.27007738 0.3366194 1.1600373 -0.7038254 0.7168519 0.011025382 0.04448306 0.14666872 -0.85423344 -1.0803611
ever 0.24614714 0.5215345 1.331251 -0.7888981 0.9743501 0.04767057 0.29970035 0.40123543 -0.43791863 -0.6281018
seen 0.21680918 0.41191337 1.2132202 -0.6770218 1.1776177 0.06931447 0.3192263 0.7820273 -0.6600335 -0.18272877
put 0.6822809 0.17462948 0.20719875 -1.2176315 0.73011553 1.3967462 -0.09794252 -0.056501538 0.00052796595 -0.43279886
three 0.6655943 -0.75644064 0.89565593 -1.565741 0.16530803 0.96679455 0.29397643 0.14361058 0.6671275 0.29795846
having 0.12410894 -0.09436409 1.1713752 -0.7452366 0.6764246 0.06565355 0.0075817467 0.53302526 -0.5474483 -0.13320012
seemed 0.70440066 -0.09169486 0.45429623 -1.1003157 0.5498949 0.63948417 -0.25569546 0.48907223 -0.9075834 -0.9925301
went 0.5260784 0.29605296 0.45184848 -1.4649391 1.0692374 0.9843376 -0.5098314 0.41965705 -0.00576192 0.049862646
old 0.3020487 -0.38550347 0.6091226 -0.7993434 0.26884782 1.0187368 0.6294146 0.43597385 -0.20163287 -0.16715878
cried 0.2645549 -0.3772546 0.35898292 0.2030289 2.2631483 1.6877571 -0.0056627137 0.27207255 0.28615236 0.6377142
window 0.8733371 0.38583684 1.1639535 -1.7189461 0.70390165 0.3381959 -0.073771596 0.49493378 -0.5756668 0.9358336
business 0.06253728 -0.19752228 0.32005155 -0.8256196 1.056552 0.93208903 0.8642669 0.37324256 -0.29867217 -0.87913615
woman -0.1869032 0.057361722 0.78115654 -0.86696887 1.0078403 0.058290057 1.0699154 0.74335366 -1.1545676 -0.071463406
head 0.269725 0.46011245 0.16712041 -0.5368152 0.60672086 1.493377 0.43052277 0.9045955 -1.5207148 0.21433747
done 0.32947052 0.30301052 1.3990558 -0.56947917 1.5331002 0.39311862 0.3548038 0.56409323 0.15810959 -0.8156311
while 0.6817588 -0.16783829 0.8448513 -0.84900767 0.040440932 0.7237351 0.1437397 0.26159906 -0.80427206 -0.073615484
those 0.39726976 -0.17908454 1.2408729 -0.6097894 0.3410753 0.36096114 0.41106325 -0.6202004 -0.12896319 -0.44476017
hands 0.31324127 0.9112407 0.18892792 -0.6076337 0.6594408 1.6271367 -0.34212258 0.39420828 -0.80904377 -0.061935786
again 0.39041418 0.82207555 0.102763586 -1.4853728 1.2503043 1.2599905 -0.63620985 0.7245403 -0.43231493 -0.078710824
remarked 0.78687465 0.10160338 1.1434613 -0.009428219 1.0447539 1.1640638 0.43432873 0.21008708 0.31978852 -0.6986996
something 0.18838365 0.061647665 0.97527367 -0.7074287 0.77064973 0.62835366 0.24808799 0.48046452 -0.0063378257 -0.058655016
years 0.11560281 -0.86906195 1.5809484 -0.724419 0.59311944 0.190781 0.8817425 0.9144897 0.25769976 -0.32584643
doubt 0.13796164 -0.6672004 1.2690082 -0.77516454 1.1898493 0.08387426 0.81651294 0.25509596 0.1604096 -0.62345463
rather 0.034685522 0.1276237 0.92627686 0.0025870674 0.48160827 0.9745033 0.45146546 0.21752284 -0.2656669 -0.8654294
though 0.63595384 0.14270198 1.0122566 -1.162169 0.5393003 0.30685735 0.04118937 0.3318177 -0.48450494 -0.70388734
get 0.3636805 0.18581705 0.47463956 -1.3327074 1.1867315 0.6123179 -0.13399181 -0.5700948 0.01937158 -0.5032486
open 0.7706041 -0.109507374 0.78427637 -1.6788611 0.4577981 0.8076514 -0.060249683 0.42399246 -0.12528552 0.7491866
indeed 0.16386385 0.12475237 0.98620814 -0.052395202 1.3650548 0.9554118 0.31890866 0.14436908 0.27267724 -0.41823107
name -0.10438752 -0.293914 0.630737 0.10197686 1.5161464 0.86409134 1.0040787 0.36482558 -0.37156874 0.040621765
perhaps 0.32450685 0.24806309 1.0558577 -0.6431147 1.0827756 0.61677146 0.37042502 0.15490258 0.110140294 -0.9170863
give 0.25953403 0.1258641 0.49475914 -1.1011174 1.195706 0.6391052 -0.123518616 -0.3297691 -0.18370683 -1.4058048
great -0.0020581551 -0.2153241 0.9008849 -0.5294956 0.34587175 0.6033733 0.50567716 0.0030849897 -0.2733307 -0.12476856
course 0.2542294 -0.36729214 1.0026628 -0.60220194 0.9115298 0.58997005 0.7072305 -0.021497777 0.2010539 -0.7093576
between 0.16574362 -0.76574194 0.50800484 -1.22682 -0.17876467 0.9692173 0.08641385 0.08385423 -0.16945358 0.124753416
mind 0.14677484 0.47359666 0.562453 -1.0244919 1.1314689 0.72163516 0.20667173 0.5629426 -0.43503708 -0.80439216
always 0.25314504 -0.09064727 0.7854757 -0.8626712 0.9495067 0.50377303 0.29573804 0.13231996 -0.17473495 -0.7432236
knew 0.5942872 0.0031936252 0.9985573 -1.0972861 0.95722854 -0.023924764 0.24016167 0.54268813 -0.86163 -0.8756715
dear 0.19018182 0.10972513 0.57628196 0.09150623 1.9637032 1.2283555 0.7330684 0.1842575 -0.05118398 -0.6805201
wife -0.24989298 0.35390392 0.40997052 -0.9863431 1.3424582 0.5048771 0.33550265 0.82841057 -0.7961493 -0.33708596
answered 0.33737838 -0.16473196 0.44212997 -0.03199196 1.5411559 1.2694378 0.30106834 0.10781764 -0.0142481085 -0.17375705
same 0.36512336 -0.030203814 1.0039256 -1.1341506 0.5227468 0.51966494 0.24620338 -0.034847442 0.2126723 -0.16214104
chair 0.61509585 0.8137249 0.3627409 -0.34861195 0.543687 2.1408703 -0.13608451 1.0076369 -0.9900345 0.5069474
sat 1.0761908 0.46806172 0.8624238 -0.7138211 0.07304584 1.6686608 -0.00019525741 1.1358615 -0.6250324 0.078645796
far 0.6679443 0.14235952 1.1122735 -0.47131538 0.90967804 0.5408979 0.40230796 -0.14528142 -0.21873145 -0.8760619
enough 0.2561281 -0.07515597 0.85913885 -0.5927439 0.73571473 1.1464777 0.44419947 -0.086456046 0.54417604 -1.0475645
end 0.30371833 -0.34558266 0.7597519 -1.432879 0.589385 0.5932936 0.55571 0.31599513 0.15220179 0.025229933
got 0.5421929 0.08140491 0.6983344 -1.1790152 1.070051 0.8505848 -0.16954415 0.3218627 0.21527655 0.0037080548
looked 0.37031385 0.06343217 0.20688637 -1.3705938 0.8511222 0.7931964 0.06143806 0.6797628 -0.88169736 0.17096311
place 0.011633168 -0.30941197 0.85513854 -0.82441074 0.8079581 0.5515346 0.86759067 -0.07785371 0.13520081 -0.261548
turned 0.7139685 0.43994617 0.483352 -1.0127609 0.30965403 1.3297886 -0.27970904 0.7424338 -0.8339009 0.06642414
against 0.41373032 0.034814138 1.2235076 -0.46532178 0.5026719 0.40111548 0.025981389 0.7128485 -0.6133187 0.026052302
really 0.23162642 -0.3830443 1.0096357 -0.22570765 1.353527 0.8832905 0.6366227 0.39762467 0.3629486 -0.64052624
brought 0.29729676 -0.15591042 1.0012914 -0.62182975 0.8300073 0.4360141 0.174979 0.45722282 -0.32430407 0.11628563
front 0.9582139 -0.2920516 0.68568546 -1.5726577 -0.19734834 1.2299969 0.46914274 0.4478052 -0.6296429 0.8215069
son -0.10769564 -0.05914161 0.5530436 -0.9209879 1.1543517 0.37731606 0.6656796 0.84858024 -0.73922575 -0.083064295
told 0.6079722 0.5389009 1.0561779 -0.99544734 1.2472832 0.26268256 -0.23464188 0.45758858 -0.4798001 -0.57518655
hardly 0.5049642 0.58604044 1.1210788 -1.2479187 1.0532237 0.12049695 0.13645932 -0.08522221 -0.32402408 -0.55176026
better 0.3576552 0.20751393 1.0162697 -0.8364347 1.1848457 0.58077663 0.32734692 0.1563651 0.019897653 -1.2374808
anything 0.06108703 0.5110558 0.723659 -0.9182365 1.4401821 0.3833568 0.40962183 -0.2411911 -0.3952318 -1.0405934
behind 0.8130712 0.20672207 0.8775785 -1.6883326 0.10343935 0.7042519 -0.07844353 0.52358884 -0.7976438 0.5856996
black 0.19987191 -0.3093676 0.59589016 -0.70827866 -0.1483273 1.1192412 0.048008233 0.4258593 -1.2948732 0.5607436
understand 0.3179192 0.13648555 0.8288115 -0.34418255 1.6921003 0.6083028 0.684424 -0.27896523 -0.06753801 -0.9054917
: -0.27634957 -0.43182427 0.3495692 -0.5720928 1.5130193 1.0858854 0.581817 -0.47409853 0.52051616 0.22153686
already 0.22554095 0.20800285 1.4695708 -0.2205227 0.84675324 0.3894813 0.42416054 0.68462706 -0.15096286 -0.72036093
within 0.46375716 -0.5679104 1.1084378 -1.3743788 0.19635302 0.25519562 0.6971197 0.6277019 -0.24529819 -0.14253739
also 0.09632383 -0.32880586 0.76882845 -0.6899546 0.69907737 0.44081032 0.61322147 0.12446864 -0.37068364 -0.5535372
leave 0.2078128 0.17638206 0.34090215 -1.1971209 1.2182839 1.034116 -0.07191111 0.10686033 0.0959516 -1.1189935
suddenly 0.51334465 0.32690692 0.702319 -1.1847628 0.73143244 0.791581 -0.54894567 0.72879547 -0.6024349 0.46181592
both 0.62575424 0.20601949 0.79184663 -0.9658294 0.678374 0.7976268 -0.34720737 0.10150819 -0.07305793 -0.35456812
gave 0.12100306 0.081925504 0.4038594 -0.6799418 0.59648395 0.8272256 0.071640626 0.70787126 -0.9916343 -0.16369283
strange 0.5521479 0.12744108 1.5687871 -0.37562576 0.3862998 0.43373442 0.18780036 0.15200436 -0.0020414547 -0.55260223
words 0.3526878 0.19589762 0.5684496 -0.8080409 0.9500176 0.6181219 0.30724192 0.3168561 -0.66266733 -0.23274407
gentleman 0.22885574 -0.1088582 0.5270882 -0.60891753 1.0895783 1.0548841 0.89724123 0.50179464 -0.08213292 -0.1937988
possible 0.4568394 0.14719775 1.2861844 -0.7051643 0.5512889 0.6840538 0.38583934 0.24037 0.19079742 -1.2592875
home 0.29993504 0.3427185 0.7917016 -1.6356888 0.79293203 0.46712393 -0.13018118 0.33548963 0.044379264 -0.30183622
being 0.21488902 -0.24877949 1.00893 -0.36327928 -0.006512772 0.97549105 0.73128325 0.256954 -0.14776504 -0.7258336
thing 0.22638527 -0.09193224 0.7202746 -0.63190657 0.98985064 0.8475774 0.67527694 0.17653018 0.03769093 -0.970767
whole 0.024390861 0.073023304 0.98000175 -0.74289167 0.31463772 0.56695217 0.3338122 0.4616708 -0.29832187 -0.38083646
hair 0.1685551 -0.33515376 0.57586896 -0.5286436 0.39439443 0.6501663 0.7490853 0.79332936 -1.3658593 -0.4051947
life -0.009850377 -0.0050772084 1.0443598 -0.81687677 0.5732684 0.2802887 0.6982783 0.31627297 -0.39108562 -0.7625561
help 0.21865681 0.41273123 0.48301077 -0.9963118 1.2442883 0.8259525 0.14509925 -0.21802185 -0.004201035 -0.7285463
fire 0.635108 0.3449657 0.5488813 -1.1193339 0.31823206 1.5287553 -0.010758241 0.626483 -0.065916374 0.3407645
wish 0.47129348 0.3190002 0.37610504 -0.8077316 1.6948236 1.0469487 0.3187227 -0.17953329 -0.07713375 -1.1779802
table 0.7832429 0.0015834906 0.5861644 -1.289005 0.003849701 1.3374858 0.6549125 0.57980704 -0.7593416 0.7136077
whether 0.3409873 0.3039069 0.63607377 -1.3334717 1.0454355 0.58413744 0.16780527 -0.1694188 -0.02641752 -1.0482742
under 0.21366479 -0.14343113 0.53124183 -0.96950746 0.3147901 0.7249362 0.35162708 -0.15857716 -0.45094293 -0.10169347
pray 0.08480811 0.3474733 0.49436194 -0.54911935 1.8131194 1.3965875 -0.7752205 -0.32879427 0.56672734 -0.85747474
baker 0.33724412 0.18533227 0.57604134 -1.2369928 0.45488152 1.7638773 0.18518203 0.71290433 0.76193243 0.04406656
gone 0.35570675 0.28516775 0.86438465 -1.2817999 0.93500555 0.45975617 0.3546325 0.5693374 -0.21868262 -0.3547514
lay 0.51143914 -0.062359005 0.5102814 -1.1371439 0.11635692 1.0180223 0.03076483 0.17172146 -0.5997518 0.22705914
clear 0.28322873 0.07865223 0.95536137 -0.5497447 0.8478403 1.0684822 0.61308575 0.4223882 0.34701616 -0.98395264
another 0.34002438 -0.33861548 0.6281173 -1.2320942 0.66718704 0.6168268 0.37080863 -0.030303806 0.10852448 -0.17630027
looking 0.35296318 0.42090845 0.34345278 -1.1729376 0.87721956 1.2790616 0.16338083 0.79390883 -0.32714698 0.43243754
sure -0.01945289 0.21661231 0.7359729 -0.49779013 1.7075121 0.84529537 0.5029183 0.13581917 0.09655406 -1.0686116
call 0.16793257 -0.05064972 0.24248129 -1.5328395 1.2184983 1.1940368 0.12909585 -0.2133855 0.5265229 -0.8557375
passed 0.5675757 0.17766568 0.8655405 -1.3939121 0.4309738 0.6965154 -0.07781707 0.73799723 -0.37189832 0.28936717
papers 0.21641952 -0.21226977 0.97889745 -1.0093595 0.78545135 0.53805953 0.63600826 -0.24219006 0.3811674 0.047442533
many 0.35232452 -0.23516658 1.7457198 -0.5282808 0.52139723 0.25105602 0.37066826 -0.26698244 0.4154003 -0.7604657
money 0.23391393 -0.024778392 0.6639214 -1.0232906 1.0175402 0.70352906 0.45624644 0.19716875 0.009686521 -0.930749
set 0.530614 -0.032174446 0.40456146 -1.2338163 0.3611204 1.1552482 0.0601015 0.05278933 -0.043942794 -0.7629433
large 0.4151816 -0.58324933 0.8348359 -0.77616256 0.072490744 0.73050714 0.49191645 0.30625898 -0.64809734 0.39241415
police 0.4460184 0.18747807 1.096125 -0.81809604 0.8389672 0.7450644 -0.07930203 -0.16360939 0.436307 -0.72169054
hat 0.6088778 -0.3613502 0.5069221 -0.12019234 0.64045924 1.2547098 0.35820013 0.5617512 -0.7392271 0.2905375
work 0.012101209 0.017154451 0.5086865 -1.2815529 1.0703638 0.79167217 0.5370021 -0.0070410296 0.24848682 -0.82068485
yourself 0.20547722 -0.06495585 0.87606764 -0.7853032 1.4625162 0.6230943 0.11167322 -0.5706969 0.5374857 -0.6134897
certainly 0.10068469 -0.2831506 0.79574883 0.076255254 1.4723008 1.1901422 0.36760387 -0.19470346 0.38084534 -1.1262789
point 0.41676384 -0.11373873 0.7506798 -1.1227305 0.8074335 0.5261397 0.7443587 -0.47749826 -0.00040563993 -1.0562038
lord -0.6839127 -0.5214695 0.56258094 0.3301615 1.1701763 1.551862 1.0028523 0.5963289 -0.051481396 -0.06948543
minutes 0.75934917 -0.07184731 0.6492031 -1.7444925 0.09451812 1.4627322 0.44051927 0.8662146 0.37413877 0.087526724
whom 0.2958654 0.11713538 1.2475175 -0.65437376 0.8829721 0.16211325 0.8004149 0.13306814 -0.31979254 -0.62908924
men 0.4492753 -0.7332597 1.2609272 -0.79848933 0.493357 0.29935947 0.87468064 -0.035593547 0.059973318 -0.20909937
half 0.014668957 -0.009487359 0.11653499 -1.1019007 0.7498618 1.0853195 0.19470853 0.4536586 -0.43379128 -0.013000871
met 0.46394378 0.014011959 0.8394107 -1.1299825 0.76723987 0.56810373 0.111231 0.80835253 -0.27986017 -0.31656578
since 0.13985877 -0.032348797 1.5293583 -0.6248735 1.2731793 0.21971543 0.57222545 0.59061944 0.34615695 -0.50497735
paper 0.40423584 0.073611036 0.14496574 -0.54482114 0.7880906 1.4952267 0.12949932 0.07767118 -0.51430315 0.53362316
mrs. 0.09282547 0.23753072 0.68695533 -0.38847733 1.1356919 1.2536826 0.45974392 0.74972343 0.16193238 -0.31894672
soon 0.53031325 0.36682242 0.86336875 -0.97259796 0.77616876 1.0965247 -0.47988388 0.13775508 0.3457717 -1.0977218
you. 0.08202044 0.5024045 0.5730788 -0.49002975 1.7817234 1.2760932 -0.21245754 0.119494826 0.35700312 -0.74079585
days 0.7166807 -0.45468572 1.3319398 -1.2792406 0.42592 0.33941674 0.70229876 0.21158257 0.27990577 -0.49385202
it. 0.11110273 0.3228932 0.4444419 -0.72969675 1.8347712 0.98133504 -0.22723785 0.10583036 0.17051163 -0.33452898
clock -0.020921903 -0.47868425 0.08308511 -2.4217358 0.7038974 1.375545 0.85824627 0.46456394 0.69111925 0.26781982
word 0.2676777 0.2841431 0.59308064 -1.2369127 1.0975627 0.7200282 0.57085395 0.4954096 -0.1773905 -0.66926223
lestrade 0.22081795 0.32982725 0.7632249 -0.13970536 0.7511876 1.5264258 0.20946603 0.5084805 0.33773416 -0.21357273
bed 0.5474528 -0.09617276 0.57699424 -1.3067409 0.54805315 0.6402348 0.3726945 0.40930587 -0.62934923 0.43088153
during 0.36408606 -0.24026704 1.4171083 -1.0418855 0.44875917 0.44240576 0.36224824 0.54973525 0.44654137 -0.08226648
doctor 0.15952688 0.2236599 0.36916065 -0.6115235 1.240295 1.2397553 0.11975241 0.02619048 0.18570198 -0.71673644
less 0.4176251 0.15986663 1.5873637 -0.4795521 0.48470217 0.22611378 0.5194737 0.4412339 -0.40680048 -1.5578314
simon -0.5517541 -0.45549074 0.7914975 0.6131866 1.195433 1.5749693 0.9478426 0.98675513 -0.23791653 -0.04177294
does -0.042874802 -0.4494411 0.62114584 -0.20928347 1.8971249 0.29480037 -0.030825272 -0.30443114 -0.4458084 -0.5548025
save 0.31053257 -0.4789082 1.5746208 -0.72561073 0.35105583 -0.03281678 0.98861456 0.33961257 -0.30430374 -0.024842843
across 0.40519023 -0.34486598 0.52569145 -1.1759408 0.010145058 1.3286048 -0.020788016 0.5102723 -0.7945458 1.0727234
rucastle 0.5937547 0.26379207 0.5762429 -0.8869756 0.7542902 1.555032 0.35596702 0.85701805 0.17957406 -0.28136668
£ -0.30175155 -0.3183135 0.748497 -0.86925465 0.58521026 0.4863238 0.42893997 -0.72536856 -0.047337987 -1.3962032
moment 0.5208067 0.06313097 0.6466284 -1.247679 0.7865951 0.6837432 0.40990725 0.66397923 -0.34697315 -0.32984623
returned 0.30490378 0.20596449 0.7102414 -1.0358067 0.94927067 0.783133 0.06663221 0.7042009 -0.11810287 0.2262978
london -0.0007783441 0.16168436 1.0183678 -0.597978 0.7899076 0.5529357 0.36263484 0.03610259 0.018007638 -0.2678474
read 0.17282487 -0.0795188 0.35459495 -0.7100484 0.9270291 1.177837 0.07902 -0.16703095 0.16810332 0.12388992
opened 0.95369446 0.06974932 0.49240178 -1.4413595 0.5382771 1.2305589 0.25987518 0.7875647 -0.5635075 0.77100575
five 0.047493026 -0.7303911 0.91378754 -1.3694414 0.33122727 0.60784024 0.49791664 0.2844524 0.43510795 0.21019466
stood 0.64690465 -0.20400426 0.4885399 -1.1633258 0.3215667 1.0165833 0.40712732 0.9154556 -1.0775051 0.712433
mccarthy 0.011870538 -0.09955012 0.57562053 -0.6766953 0.93170965 0.87620777 1.1071512 0.63766974 -0.3011847 -0.31611463
among 0.26988202 -0.25228322 1.054948 -1.0840938 0.09601946 0.3554163 0.4331598 0.076786324 -0.34931353 0.1889602
least 0.13006718 -0.030865248 0.71007174 -1.0730891 0.87494224 0.5766263 0.2881931 -0.03503431 0.14022334 -0.37387344
ask 0.4436362 0.1284318 0.7528321 -1.2037936 1.7563145 0.60666597 0.32894534 0.008608524 0.18891202 -1.1037707
facts 0.5086971 -0.054860927 1.2267319 -0.79072124 0.6797808 0.73740345 0.26703578 -0.40201914 0.58507043 -0.93270993
believe 0.34812656 0.30054015 0.7992746 -0.5064247 1.4252301 0.84628284 0.59510523 0.33045676 -0.014044436 -0.58775014
interest 0.5233779 0.071232736 0.98898816 -0.52207464 0.7468601 0.81767577 0.56550694 -0.084430255 0.030029181 -0.97565216
question 0.46632668 0.3004912 0.6104773 -0.80837464 1.1066713 1.0095731 0.4719928 0.19279388 -0.06689391 -0.8027448
ll 0.15969813 -0.28203914 -0.29177514 -1.304547 1.7855912 1.3952956 -0.20578738 0.02672229 0.020394634 -0.7390821
dark 0.43832815 -0.20047921 0.8432689 -0.95153373 0.23779061 0.5155761 0.2982248 0.3077131 -0.7701983 -0.0406582
together 0.99296623 0.2550386 0.82830757 -0.89485466 0.29465958 1.3503268 -0.42893007 0.17741956 -0.11734871 0.21147184
rushed 0.6716716 0.5993828 0.67676824 -1.4129684 0.7708161 0.99291646 -0.5383419 0.72017425 -0.71033794 0.8248952
o -0.046483304 -0.600978 0.27019703 -2.5242612 0.8169438 1.318052 0.78584856 0.59229046 0.87743723 0.21824235
sister -0.20999394 0.00653707 0.51152164 -1.2520161 1.3562777 0.18539907 0.5050393 0.40389627 -0.48657045 -0.070226006
singular 0.3235258 -0.20225368 1.3064332 -0.5089227 0.09659751 0.58037186 1.0436374 0.19805185 -0.26811132 -0.53580064
strong 0.040039305 -0.03461983 1.2042354 -0.365889 0.46635872 0.36116022 0.85617757 0.73577535 -0.6773029 -0.7986024
companion 0.16661635 0.43384063 0.07478411 -0.7088642 0.7140201 1.6390245 0.37513655 0.9605891 -0.7387809 -0.022503527
either 0.48410046 0.06793225 0.6705892 -1.3643534 0.25586998 0.74388313 0.50743234 0.32084286 -0.36340934 -0.33572274
entered 0.6428506 0.038823828 0.8043828 -0.9360368 0.58796823 0.7944517 0.69005257 0.9808605 -0.6303147 0.25188348
hour 0.29293185 -0.08686427 0.45513377 -1.7144675 0.46324533 0.92194396 0.3710383 0.26930022 0.064882986 -0.75293404
corner 0.78054124 -0.26641518 0.5522065 -1.2613326 -0.020125307 1.6837109 0.46272025 0.3257318 -0.08267704 0.922627
given 0.22650173 0.34984004 1.1452309 -0.87632126 0.91476524 0.3152234 0.33111733 0.61634636 -0.26432922 -0.5549203
felt 0.39013517 0.10745539 0.68542296 -1.0943625 0.7675121 0.6338157 0.29843673 0.38808647 -0.32321286 -0.5282198
laid 0.7449624 -0.017480696 0.8033507 -0.8940116 0.22558035 0.9502592 0.050795823 0.32140154 -0.48458385 0.23711067
story 0.45663172 0.46507406 0.77250874 -0.9818519 0.7015722 0.8309012 0.3405187 0.27713275 -0.20328356 -0.27944702
each 0.7535906 -0.3633271 0.9681823 -1.5464848 0.10973981 0.4206463 0.09986946 -0.14436287 -0.15687804 -0.2584197
use 0.21869834 -0.23141159 0.839338 -0.79761434 1.0229211 0.4738805 0.5447679 -0.013134257 -0.034420274 -1.0238016
ah -0.08492464 -0.50210696 0.5701772 0.092452906 2.1332664 1.3567804 0.46812448 0.024252182 0.5173187 -0.34733152
evening 0.24463813 0.3679765 0.78826606 -1.0355831 0.7341162 0.8755752 0.27715304 0.5692256 0.04907998 -0.27027425
hear 0.3190129 0.23661672 0.70548296 -0.8502549 1.4437509 0.6386074 0.11800088 0.020647554 -0.051998142 -0.9657862
part 0.4154657 -0.16026162 0.7236857 -0.6647144 0.40264213 0.72796905 0.71638954 0.23334816 -0.58100045 -0.42218798
fellow 0.3083259 0.09282157 0.89917856 -0.12932535 1.1516541 0.9945379 0.5349581 0.42189035 -0.0050032083 -0.58956885
near -0.21630527 -0.72502464 0.45078978 -1.2183524 0.6587169 0.7021182 0.31128946 -0.15222527 0.15534884 0.5624086
forward 0.4308549 0.39094105 0.36065212 -1.1553942 0.664594 1.2184889 -0.3132036 1.0130601 -1.0518262 0.74223906
became 0.21084356 0.030757256 0.6837559 -0.7674811 0.7962377 0.39763576 -0.11378539 0.4665133 -0.8272702 -0.444123
able 0.3897505 0.30791593 0.7114107 -1.2338874 0.72029775 0.83232933 0.3030164 -0.16260225 -0.04362727 -1.6559623
best 0.3590389 0.4640442 0.837347 -0.82214856 0.88569 0.8574316 0.11149544 0.24651939 0.0043607266 -0.6837093
sound 0.40804756 -0.056703456 0.9652159 -1.2111604 0.31938085 0.41594076 0.22238792 -0.0168944 -0.29105052 0.4580795
hope 0.42166272 0.272812 0.9956343 -1.0381913 1.002409 0.6010164 -0.10604942 0.10847702 0.28172508 -0.44981503
country 0.060711082 -0.6653565 0.85814637 -0.765002 0.31747395 0.64513296 0.66239685 -0.22429274 0.1500151 -0.31184468
new 0.2610584 0.047211476 0.2912127 -0.8514134 0.5731326 1.1040943 0.0037151414 -0.013268259 -0.33651015 -0.131313
client 0.30899817 0.123106845 0.71998423 0.04063373 0.66960275 1.6340368 0.5273977 0.4159707 0.11019086 -0.30225083
instant 0.48450747 0.051755603 0.52807856 -1.4092278 0.61569744 0.63852316 0.0969036 0.512597 -0.6087682 -0.259307
going 0.6172782 0.14347495 0.9064401 -1.190121 1.1933664 0.78335506 0.16112584 -0.17566927 0.5264774 -0.20774436
four 0.09547153 -0.94358677 0.82739943 -1.7179949 0.19015293 0.6437781 0.5506784 -0.25370213 0.6472408 0.059452433
road 0.5334167 -0.6365006 0.54843944 -1.0295813 0.2506521 1.2182952 0.2797108 0.09842258 -0.11244006 0.9350112
turn 0.7402693 0.15650463 0.64344937 -1.1705123 0.7682258 1.0438706 0.1344782 0.14251764 0.078230776 -0.436875
waiting 0.8429138 -0.038902238 0.9436685 -1.4175367 0.46794522 0.7981477 0.25323138 0.47920018 0.13585603 0.007224145
note 0.10511534 -0.0465492 0.47488528 -0.7588519 1.06884 0.84620154 0.49637073 0.5052356 -0.2574736 0.17183836
don -0.50666237 -0.4538527 -0.18068744 -0.9831423 2.5976074 1.2595325 0.01054003 -0.5086458 0.10467034 -1.1439903
several 0.3780809 -0.22388327 1.6103119 -0.5742459 0.30768934 0.46482447 0.29709896 0.013584733 0.4411103 -0.16273783
heavy 0.44229722 -0.2004201 1.0109723 -0.7023026 -0.0034734178 0.88369066 0.41136637 0.6089398 -0.8801916 0.6453929
else 0.086555816 0.2329047 0.84215206 -0.9832493 1.6716683 0.18207182 0.26453993 -0.021049293 -0.2624666 -0.53740525
inspector 0.12891972 0.080868594 0.6876784 -0.1303563 1.1890305 1.1739464 0.34501508 0.21493283 0.18149841 -0.16026497
threw 0.7420319 0.332691 0.37244615 -1.6115925 0.38721177 1.217664 -0.25995928 0.72507024 -1.1673259 0.63737583
god -0.40318704 -0.08761109 -0.023195697 -0.31581512 2.0987003 1.5956066 0.09764604 0.17272314 0.18027216 -0.18676831
death -0.052245867 -0.10922619 0.62620246 -0.9698645 0.9826321 0.3279791 0.8168839 0.23067644 -0.49002627 -0.603907
colonel -0.0053383997 -0.50238067 0.3340197 -0.92127395 0.5425543 1.011169 0.54007035 0.6413988 -0.4242674 0.61836666
red 0.27157915 -0.31193677 0.70714086 -0.6128572 -0.2315686 0.93270904 0.52015054 0.28927928 -1.6499367 0.28390586
dr. -0.23315817 -0.09651009 0.3424534 -0.50283635 1.0176393 1.1261286 0.98358506 0.18208721 -0.13557374 -0.4256113
seven 0.11302875 -0.43106902 0.90234137 -1.1275738 0.61124086 0.6153176 0.58185226 0.03283212 0.48242965 -0.15776841
letter 0.25083885 -0.03498437 0.61566526 -0.8095833 0.7040492 1.018933 0.17037335 0.30600923 0.06523214 0.016134752
stone 0.4873368 0.168083 0.6344079 -1.3320091 0.3426617 1.0359832 0.53620976 0.542654 -0.32975468 0.3609065
want 0.05653871 -0.056409117 0.42180762 -1.0600642 1.6581963 0.8021827 0.030090703 -0.38224638 0.29791236 -0.7977769
ran 0.6941966 0.26067412 0.47609413 -1.3717271 0.8228626 0.9427852 -0.26344514 0.57755053 -0.75452614 0.8626825
cry 0.12089206 0.23560275 0.38298666 -1.4471473 0.9712307 0.79528004 0.3515329 0.7854599 -0.5020093 0.5867121
walked 1.0029703 0.07385223 0.6732652 -1.3996309 0.42961937 1.2785528 -0.16267873 0.4466276 -0.36086398 0.92499596
obvious 0.36684877 -0.036132786 1.1890279 -0.44824317 0.9815952 0.91104776 0.8122352 0.771377 0.14885013 -0.9462286
cut 0.58729553 0.009169482 0.9944713 -0.80105954 0.6719406 0.42076492 0.3417555 0.60720205 -0.7371354 -0.09657909
ten 0.06751653 -0.25822553 0.50608426 -1.8822511 0.662436 0.988266 0.40203327 0.23288853 0.7052367 -0.040541712
seems 0.31638858 0.027699467 1.0653663 -0.2348301 0.94983363 0.5575177 0.54246455 0.4152251 -0.38418335 -1.0216362
letters 0.210546 -0.23479123 0.63099134 -0.645491 1.0002627 0.7953651 0.3834829 -0.5080901 0.14871451 -0.3790368
taken 0.18695593 0.25963712 1.525175 -0.72886014 0.37123492 0.29883352 0.32826224 0.6708558 -0.16053934 -0.38730684
husband 0.11776251 0.021274224 0.58473265 -1.2867484 1.5679871 0.21653213 0.50241643 0.7923867 -0.678183 -0.36249676
fear -0.050685313 0.027294515 0.50922716 -0.7778974 1.0808828 0.62820077 0.086724274 0.048176136 -0.20307639 -0.5192488
clair -0.2433087 -0.36048108 0.7309845 -0.14008895 0.9506941 1.3805426 1.2604802 1.2697561 -0.07626637 0.18967691
coronet 0.3602766 0.28105786 0.6294108 -0.9795003 1.0323879 0.62252617 0.08469435 0.598796 -0.7271995 0.48258018
air 0.5379043 -0.0014313195 0.52861196 -0.6428305 0.16333301 1.1315998 0.3312556 0.58742076 -1.1990845 0.10127161
keep 0.3645219 -0.41466805 0.27931476 -1.2192053 0.86650074 0.9991491 0.35380545 -0.13002264 0.10252488 -0.6175044
coming 0.7784509 0.24915425 0.9998295 -1.3046502 0.32238778 0.93464106 0.22443855 0.6563288 -0.030049298 0.06640782
manner 0.05906114 0.19465515 0.8523505 -0.22866978 0.5382313 0.52025855 0.5328296 0.2094438 -1.0321349 -0.6107876
spoke 0.7412767 0.43256757 0.53842276 -0.7029927 0.856779 0.94134015 -0.17951119 0.5296687 -0.8348782 -0.041327942
used 0.29086322 -0.12603141 0.6118729 -1.0855074 0.8260563 0.48300955 0.34043905 -0.056941837 -0.26734042 -0.674372
true 0.17907703 -0.15812415 0.7687373 -0.8554482 0.9712918 0.6413299 0.7288494 -0.14957975 0.0669049 -1.0579385
hard 0.3025184 0.20323186 0.42404702 -0.71652085 0.6849816 1.014146 0.23228851 0.53703725 -0.6180598 -0.39346537
floor 0.58377355 -0.23769063 1.1599226 -1.2588809 -0.24049541 0.65712816 0.6184883 -0.11921483 -0.55449414 0.6853759
above 0.559154 0.036070004 0.76158553 -1.1134069 0.7770851 0.5280423 0.13107544 0.076561645 -0.31498283 0.15931952
crime -0.06299699 -0.24838988 1.5309027 -0.012446545 0.6272912 0.3986913 0.8108745 0.020763943 0.036773436 -0.8629344
absolutely 0.0060586445 -0.55676436 0.8259816 -0.632652 1.1495494 0.520885 0.7997447 -0.36819106 0.113209836 -1.1729857
remember 0.25037926 -0.18780461 0.534193 -0.9389071 0.99226075 0.8332508 0.49705413 0.4343972 0.021397922 -0.51738673
things 0.6855688 -0.20086093 1.094163 -0.96961224 0.8149922 0.53851783 0.5139519 -0.37151885 0.2651651 -0.59034014
family -0.1367384 -0.22550024 0.9917473 -0.43217838 0.7569807 0.401723 0.8332908 0.29494545 -0.32708898 -0.18611994
visitor 0.47632697 0.32521692 0.60681516 -0.20781806 0.3541996 2.108855 0.07349194 0.5316222 0.24937028 -0.13882162
lost -0.1848723 -0.11327585 0.78435224 -0.33671907 1.0914881 0.29942745 0.41387597 0.0088067595 -0.5405278 -0.5104601
marriage -0.14900851 -0.40522707 0.86193794 -0.6316463 0.6875937 0.71771 0.8347781 0.24339572 0.17948213 -0.810483
none 0.61085814 0.16779046 1.3895391 -0.8091846 0.7544872 0.44115072 0.55131996 0.28653622 0.086835474 -0.44193783
called 0.27504164 0.055553887 0.53458333 -1.0361588 1.1161098 1.0566976 0.24438387 0.54658717 0.24424838 0.23525739
john -0.25120416 -0.3765872 0.142646 -0.18799125 1.1300726 1.3248068 0.7037524 0.2890453 -0.2554215 -0.053523056
appeared 0.610391 -0.15929584 0.77567667 -0.91034853 0.5414579 0.5668938 0.7109757 0.5086417 -0.61905897 -0.50588286
feet 0.88917506 -0.08304988 0.72388923 -1.2776874 0.10211309 0.9966985 0.27674577 0.59507185 -0.7263922 0.4553502
white 0.028910939 -0.39895585 0.25882563 -0.6868132 0.022708127 1.6015307 0.4672437 0.30873814 -0.96097314 0.8798992
thank -0.042481463 -0.28419277 0.5783621 -0.096478805 1.9635298 1.1826032 0.29691258 -0.100589 0.4180784 -0.58296454
drove 0.9354637 0.21006928 0.7006417 -1.709672 0.25392348 1.1326115 -0.3825356 0.3083853 -0.0013350482 0.29966322
rooms 0.9532703 0.1772307 1.0159202 -1.508382 0.1303856 1.0422314 -0.093008846 0.11190894 0.3793235 -0.22417152
reason 0.26637197 0.1627598 1.1651837 -0.6162641 1.280625 0.5354035 0.36701298 0.2945269 0.07269961 -1.0773857
began 0.4278926 0.325389 0.35109526 -1.4303548 0.55830014 0.89105356 -0.25910574 0.4284105 -0.57956964 0.021174522
led 0.9910831 -0.19219314 0.8528584 -2.0291848 0.007581751 0.7295086 0.21064422 0.14226025 -0.49177772 0.6277657
goose 0.58045846 -0.22860208 0.48170882 -0.97461945 0.8046236 1.3010021 0.46191818 0.45598114 0.2302193 0.19405933
king -0.23713551 0.29208556 0.50955325 -0.5673236 1.4578383 0.97390646 -0.003942178 0.034301784 0.17567283 0.29844058
followed 0.7325045 0.107160196 0.8772333 -1.1502532 0.8469962 0.704927 -0.18310295 0.57713854 -0.19572638 0.33709225
cab 0.5888334 0.64633566 0.48909327 -1.8519535 0.6680921 1.136241 -0.49981382 0.09442368 0.22860399 -0.07850437
week 0.16566809 -0.16685846 0.63273215 -1.6074889 0.44708082 0.5757812 0.4415123 0.24056998 0.011040405 -0.32276523
imagine 0.33615232 0.5466195 0.883108 -0.7624495 1.8669089 0.5091203 0.037835144 -0.08957355 -0.12006612 -0.86008716
dress 0.20275241 0.29470745 0.43360776 -0.9951216 0.75312895 0.71125215 0.34495804 0.33404714 -0.73728764 -0.1785242
people 0.4802011 -0.40622815 1.1814511 -0.8189235 0.668329 0.35613307 0.52857924 -0.32397893 0.17434211 -0.57684
windows 0.8250047 -0.18808328 1.1146824 -1.2871102 -0.014243812 0.7277565 -0.094055325 -0.17977019 -0.34877804 0.7026977
late 0.23284213 -0.039537147 0.70458794 -0.6506404 1.0292089 0.74380666 0.36224675 0.37733334 -0.09886037 -0.5520927
held 0.5064344 0.29178774 0.33599687 -0.7311282 0.64288366 1.0637047 0.1967191 0.57936573 -1.3091873 0.28890142
girl 0.06418231 -0.16568363 0.8293854 -0.37122902 1.2005532 0.55933774 0.7447801 0.21081491 -0.26146936 -0.57720697
present 0.17964032 -0.36551714 1.1027112 -0.6866505 0.6363691 0.3456543 0.6958551 -0.15221626 -0.01562151 -0.74191415
square 0.12962694 -0.6829403 0.5691782 -1.2900695 -0.042394575 0.9375105 0.8038796 0.27984875 -0.19525735 0.38397843
beside 0.6559539 0.058403265 0.6019125 -0.9970426 0.075311884 1.3100934 0.2507124 0.7589441 -0.8597696 0.660383
ago 0.27176106 -0.5914973 1.5125728 -1.0726228 0.5194658 0.13455334 0.7849064 0.8258613 0.1968323 -0.17935386
blue 0.10091395 -0.13406141 0.58985186 -0.565107 0.011371852 1.231365 0.55004555 0.39894226 -1.0710955 0.7261547
next 0.50820196 0.046172354 0.5720617 -1.6147734 0.71954364 0.82224226 0.24336596 0.3791711 0.1432328 -0.07356439
anyone 0.31851184 0.2788303 0.7890544 -1.2731407 1.2145228 0.22751543 0.12177836 -0.12014829 -0.37769666 -0.9739874
rose 0.7674036 0.6769582 0.36376736 -0.9679797 0.9781121 1.5038124 -0.18029398 0.8797831 -0.64120847 0.28628868
me. -0.048032843 0.41633785 0.92388606 -0.27218533 1.4368639 0.9019824 -0.19370924 0.17562959 0.18081918 -0.6541439
steps 0.5775618 0.21958417 0.88506263 -1.5436616 0.9449703 0.51846963 0.14269562 0.33387467 0.098617285 0.33382568
started 0.47781926 0.23940392 0.553883 -1.0175546 0.8504132 1.1176077 0.08363954 0.6353021 -0.029193379 0.009770061
silence 1.0305957 0.41459364 0.95546216 -1.0614258 0.4346545 1.1584189 0.05648607 0.8253895 -0.27203944 0.351747
struck 0.49692434 -0.037920814 0.9503855 -1.2873136 0.6034095 0.322343 0.5239526 0.7911226 -0.6757987 0.17440976
address 0.31199834 0.051734798 0.5280417 -0.93211555 1.767008 0.7254784 0.5323995 0.05991232 -0.058092814 -0.75396997
year 0.016227694 -0.3484997 0.8309907 -0.8806825 0.58291984 0.60246444 0.43426207 -0.1003549 0.2078751 -0.46157986
eye 0.6441598 0.032640506 0.76484567 -0.82650167 0.5137765 0.90272933 0.45826516 0.8509351 -0.69622785 0.17218044
alone 0.19207235 0.3181133 0.88895786 -0.8353873 0.9723477 0.4984389 0.23953864 0.4492276 -0.28229547 -0.4782685
married 0.20958069 -0.067541726 0.75642633 -0.96574545 1.283268 0.47590068 0.42936638 0.54312634 -0.18897796 -0.5869856
mine 0.17687282 0.13206464 0.684184 -0.86560106 0.93986917 0.6314552 0.28218752 0.20077059 -0.25087044 -0.9008043
six 0.21667646 -0.05909646 0.8535441 -1.7193499 0.31346494 0.64937884 0.26193705 0.43967378 0.2837957 -0.4258835
likely 0.2984804 0.081991844 0.8177767 -0.62760794 1.0746938 0.747476 0.4368329 0.001793734 -0.0043472573 -1.2730197
whose 0.1930875 -0.15944293 1.0137464 -0.5345859 0.67309815 0.3591877 1.0218761 0.8338181 -0.8638996 -0.32876176
mother 0.035592057 -0.078869134 0.66139376 -0.9542945 1.1348989 0.6051638 0.4522009 0.5791598 -0.08860139 -0.32194117
dressed 0.33843738 -0.036633626 0.7617327 -0.7760274 0.46967274 0.64201564 0.13791709 0.6404901 -0.6086029 -0.00018548558
deep 0.31671217 0.016290855 0.88578504 -0.9795391 0.038362764 0.66319823 0.4358705 0.5734989 -0.8237592 0.061003506
quick -0.031703904 0.13181727 0.4660997 -0.6301279 0.87160003 0.83809626 0.59448355 0.69506866 -0.75094545 0.07978794
grey 0.045087386 -0.52719015 0.7848252 -0.6456672 -0.35333183 0.94507504 0.53143793 0.08082902 -1.2720584 0.4975887
nature 0.16615032 0.06866688 1.12824 -0.6232061 0.4735352 0.4177809 0.66165197 0.05857532 -0.27684492 -0.48637345
chance 0.31691456 0.07432006 1.2708288 -0.9498216 1.0178728 0.37046483 0.5619951 0.42743954 0.14734384 -0.660952
heart 0.2753236 0.47605926 0.80996656 -1.0366731 0.7998849 0.4933152 0.21684542 0.2805202 -0.42681274 -0.40508267
known 0.36680946 -0.13382544 1.292282 -0.6035555 0.6881186 0.49557292 0.5916617 0.8217672 -0.006275851 -0.43409085
second -0.22115602 -0.49228156 0.6439447 -0.46763262 0.60262597 0.80451506 0.7538515 0.16426717 -0.22003722 0.32049778
fact 0.34584546 -0.13766393 0.7960866 -0.91461486 0.5822228 0.8452222 0.5557311 0.14271997 0.1412057 -0.7857028
lane 0.44073343 0.17099667 1.0536549 -1.5530362 0.63088584 0.2825696 -0.15210822 0.346124 -0.55117446 0.91556793
sprang 0.8434398 0.46541694 0.30489427 -1.0576433 0.68366235 1.4293563 0.21091446 0.7213779 -0.9557035 0.55962825
attention 0.17636847 0.055942766 0.8675444 -0.6359856 0.3194119 0.766667 0.5492937 0.2763623 -0.35903758 -0.45066598
bring 0.16726343 0.12298673 0.5462599 -1.1556636 1.0973337 0.6898009 0.35552776 0.094830215 -0.048585393 -0.8867613
because 0.19152054 -0.044520736 1.100335 -0.75695395 1.5654945 0.5274245 0.4195986 0.19794922 0.37583652 -0.8381525
office 0.19211762 -0.20137781 0.5966808 -1.2380238 0.9186921 0.701953 0.5081621 0.101081796 0.095210366 0.14022382
glancing 0.48008516 0.29488587 0.14963129 -0.7821365 1.1108441 1.7162187 0.06096236 0.567132 -0.25058463 0.62562597
idea 0.38000515 0.07915665 0.98539793 -0.8852495 1.1062827 0.26338115 0.48604402 0.35702214 -0.3954863 -0.60953856
standing 0.6826545 0.2699863 0.8711507 -1.122632 0.29342088 0.982811 0.42723426 0.6284948 -0.6825615 0.6908364
lamp 0.843306 0.16388935 0.48145127 -1.4436711 0.39463443 1.1258423 0.077316664 0.6483441 -1.1051775 0.90537596
glanced 0.63662386 0.40185544 0.45633602 -0.9199389 0.5876758 1.3332585 0.09491879 0.83237505 -0.72043556 0.4368591
sort 0.26813745 -0.2792402 1.2277627 -0.7013562 0.5615466 0.16443528 0.6825191 -0.012505708 -0.23512241 -0.56403506
ready 0.35436183 -0.04790248 0.44391304 -1.3532052 0.86539704 0.92759866 0.21699022 -0.11598192 0.21071899 -0.91334116
poor 0.14171828 -0.15746774 0.83702236 -0.9409296 0.9464161 0.37442568 0.73813385 0.29005286 -0.2734092 -0.99324876
past 0.5600268 0.21214545 0.734073 -1.5577464 0.45058456 0.7838872 0.032556955 0.4919047 -0.12535104 0.029013481
ground 0.65008545 0.14080332 1.0251912 -1.2373581 -0.02695101 0.6702169 0.34600422 0.2682189 -0.5653815 0.17312485
carried 0.36636668 0.045604173 1.0539167 -0.52991986 0.7850278 0.4938586 0.13303162 0.3045752 -0.34520224 -0.07379943
hurried 0.66354334 0.3515201 0.6755258 -1.5678822 0.529532 0.80332994 -0.09652306 0.74797237 -0.6775099 0.4608486
outside 0.46699232 0.001121472 0.93006825 -1.0890495 0.30532488 0.62716776 0.2831872 0.18702964 -0.23114733 0.35670766
observed 0.7522695 0.20171097 1.0042601 -0.5181688 0.7489017 0.91909724 0.2071714 0.51049674 -0.1456787 -0.11127707
town 0.06097158 0.18585655 0.68454295 -1.0533977 0.70606387 0.69442683 0.06889415 0.0944214 -0.0062348447 -0.30139247
closed 0.9596004 0.29337335 0.71714014 -1.3630923 0.41678852 1.1001436 -0.075259395 0.9277232 -0.98689824 0.6997428
step 0.469123 0.44521365 0.27055895 -1.2558106 0.71473706 1.1916337 -0.037425477 0.59391594 -0.5321666 0.019213347
hosmer 0.23632576 0.5384677 0.47749692 -0.54145265 1.5531348 1.5289012 0.39714953 0.32020006 0.25505233 -0.670828
wilson 0.09444131 -0.2573563 0.38372684 -0.19316153 1.526233 1.8698117 0.74273604 0.47324362 0.4405987 -0.5098784
passage 0.8003459 -0.086747155 0.77450585 -1.9143568 0.08432471 0.9212872 0.16405846 0.4707351 -0.43939468 0.9779505
daughter -0.005789295 -0.14872767 0.91277015 -0.13770601 0.90582156 0.49878973 0.8586195 0.2465507 -0.55257344 -0.47559145
seeing 0.317746 0.2583559 0.44471538 -1.0531715 1.2309885 0.83728933 -0.015900537 0.7250367 -0.32647476 -0.030857027
short 0.2786093 -0.17895299 0.70254856 -1.1004876 0.29747936 0.7039464 0.47568303 0.25656003 -0.37713465 -0.13512255
cases 0.60028607 -0.12555557 1.6898532 -0.4470329 0.48450822 0.5984581 0.45672023 -0.08047296 0.52126575 -0.9852554
drawn 0.60975254 0.485863 1.0726826 -0.5635092 0.28568006 0.70608747 0.26299417 0.54287815 -0.94007856 -0.20657602
bird 0.2626971 -0.23179771 0.36473072 -0.8004716 0.8851624 1.0554805 0.5846557 0.18004668 -0.0046284967 -0.19463219
considerable -0.05252276 0.08265768 1.2794498 -0.047542993 0.9396988 0.4551049 0.7513707 0.3019139 -0.17632394 -0.7335283
cold 0.3484413 0.12304245 0.77453727 -0.67730296 0.40412405 0.82410866 0.31148264 0.4921666 -0.5874735 0.06160691
arthur -0.009543745 0.27659112 0.53764635 -0.65140074 1.3268565 0.7304254 0.15241401 0.3586914 -0.3445811 -0.25972387
afraid 0.09018242 0.27045757 0.89054143 -0.4215886 1.3010528 0.9742136 0.46099633 0.32866576 0.11978113 -1.3108408
city -0.0038272485 -0.44122577 0.6551144 -0.77924085 0.34010762 0.7824128 0.8833903 0.08878528 -0.28158703 0.26464537
quiet 0.32891318 -0.31571913 0.63152885 -1.0094178 0.74414027 0.8516936 0.63578326 0.6668202 -0.08100951 -0.33858174
mary -0.14168221 0.44838184 0.65526474 -0.632568 0.9148128 0.7861247 0.2790948 0.19183509 -0.24936068 -0.05713804
interesting 0.36168468 -0.029325785 1.2431502 -0.17207319 0.8924601 0.95831186 0.678301 0.19998866 0.27700114 -1.4128021
mystery 0.2533464 -0.117918186 0.9394183 -0.40213656 0.8369689 0.9143726 0.4741636 0.25173894 0.24442042 -0.3346241
easy 0.29534018 0.24308957 0.8192975 -0.7475744 1.0598748 0.5664543 0.323607 0.24070233 -0.2750972 -0.7122188
holder 0.07216466 0.24846548 0.60202736 -0.13394606 1.4779512 1.4890007 0.34879977 0.13272399 0.36189392 -0.45942122
thin 0.6811803 0.07828795 0.766794 -0.3527386 -0.07898052 1.5162059 0.19873844 0.59291196 -1.095992 0.39969915
photograph -0.054765362 0.23950627 0.5697603 -0.5803572 1.5101317 0.8005786 -0.10968927 0.13560352 -0.04310961 -0.08639781
roylott -0.10228204 -0.19787438 0.22668625 -0.64738977 0.86961573 1.0931281 0.6277163 0.21441181 -0.32094717 -0.29054362
points 0.7571703 -0.6265128 1.3553814 -0.6681651 0.52803636 0.6789122 1.1430292 -0.15126556 0.28964865 -0.5409811
pocket 0.31261107 0.0030044157 0.09841133 -0.6724965 0.49862117 1.4087657 0.25530198 0.22115414 -0.8077411 0.36273038
james -0.15095903 -0.0917678 0.33447644 -0.36696434 1.431461 1.2074913 0.38969317 0.25671992 0.05265169 0.03577326
occurred 0.45573744 0.2635076 1.2487727 -1.0135677 0.8743135 0.39332744 0.32531253 0.6351968 8.466664e-05 -0.60363775
sight 0.19882776 0.421838 0.54901487 -0.87725234 0.7845101 0.96281725 0.41445267 0.6103586 -0.45601213 -0.12209749
to-night 0.25363705 0.20786868 0.53892785 -1.0483769 1.4886618 1.0189084 0.12781629 0.10915277 0.338069 -0.6487336
body 0.34772086 -0.13426699 0.91658837 -1.209048 0.46521398 0.36005336 0.562299 0.42654926 -0.5922554 0.20110889
position 0.4742399 0.2690213 1.0990748 -0.90898305 0.640443 0.47295496 0.2586604 -0.015011974 -0.19222209 -1.1782396
person 0.37580788 -0.008352848 0.892573 -0.75377476 0.48440126 0.6115045 0.5553255 0.41340727 -0.42049482 -0.7579382
ha -0.30393034 -0.113419406 0.3579728 -0.2894553 1.7292212 1.528918 0.116379365 0.24774304 0.44873804 -0.08378118
remarkable 0.19958228 -0.22301851 0.93871784 -0.6801846 0.72200435 0.44985065 0.81373245 0.27575457 -0.27765065 -0.5046207
laughed 0.47329533 0.3150889 0.31965733 -0.37156782 0.91959107 1.5942202 -0.11468202 0.5627937 -0.36826888 0.31417462
happened 0.33543506 0.26436102 0.90849626 -1.003039 1.3539724 0.5998333 0.118780054 0.45505193 0.06932845 -0.7206452
stepfather -0.026337616 0.27679926 0.67934734 -0.64173585 1.4760699 0.73895115 0.44977224 0.6118204 -0.20937356 -0.10324042
safe 0.67998457 0.23492226 0.801896 -1.39337 0.7002381 0.64502376 0.41032332 0.43450785 -0.19296148 -0.37265155
station 0.501295 -0.07188273 0.774342 -1.50069 0.39741892 0.686153 0.28356963 0.18753529 -0.054545343 0.3061944
carriage 0.56850684 0.34801182 0.6163291 -1.3650821 0.6038053 1.1469909 0.018694066 0.45270956 0.067031965 0.33182463
order 0.3946536 0.0018439787 0.7628175 -1.0713335 0.69071627 0.73602813 0.12787183 -0.10439433 0.2163077 -0.68723667
red-headed 0.05515462 -0.8625819 0.4415193 -0.5734154 1.1642314 1.0737467 0.8765457 -0.10110145 0.26551026 0.014870232
mean -0.19326434 -0.016100595 0.6468375 -0.5978665 2.123944 0.62344986 0.2935525 -0.32163945 0.2832895 -0.44333634
towards 0.7322629 0.367941 0.49526978 -1.0604371 0.3578391 1.1892781 -0.08356605 0.5834705 -0.97208536 0.2746607
doing 0.36191386 -0.26107913 0.6336933 -1.0355651 1.429155 0.6610683 0.4300682 -0.18759373 0.1830391 -0.83629584
everything 0.4288574 0.44819957 0.6064079 -0.954552 0.97077096 1.0895435 0.34440264 0.011312182 0.08380738 -0.7948479
written -0.10703931 -0.11355794 0.69894534 -0.74229044 0.68414986 0.5954451 0.64048433 0.38734868 -0.3463997 -0.016493198
need 0.47875544 -0.23608105 0.8947968 -0.98903483 1.1094114 0.575454 0.34019226 -0.06615906 0.18114816 -1.1472077
account 0.08876503 -0.5560177 0.48633578 -0.73918974 0.93983966 0.8261418 0.85161245 -0.19181092 0.056138597 -0.34408584
frank 0.47142506 0.25505427 0.5816439 -1.6189055 0.96172947 0.7362497 0.04240445 0.5520962 -0.08305115 -0.11381547
caught 0.50129837 -0.039902084 0.62698686 -0.92734987 1.0092522 0.6350962 0.32570446 0.76859546 -0.64424706 0.031529568
showed 0.7358297 0.16153231 1.1076123 -1.0000807 0.54908377 0.46334732 0.25819245 0.56400645 -0.6460519 0.028060038
problem 0.13154127 0.08828739 0.9929414 -0.53007525 0.4882317 1.029342 0.5439424 0.09732411 0.19664797 -1.1054758
turner 0.15247041 -0.040916838 0.81396294 -0.23433253 1.0403705 1.0377873 0.746086 0.5871526 -0.004224399 -0.42469168
shown 0.617078 0.24412183 1.2766334 -1.0600002 0.51223946 0.54456854 0.24165118 0.5305987 -0.00545669 -0.18777409
fresh 0.37477332 0.060795065 0.83470416 -0.7152943 0.69661504 0.7773012 0.28903657 0.014983394 -0.0054447176 -0.28668943
sent 0.16805257 -0.23798119 0.40415472 -0.8764367 0.88236934 0.66855466 0.24211903 -0.10386071 -0.38152283 -0.22353348
talk 0.4126003 0.39817327 0.6697801 -1.0658733 1.094781 1.0169897 0.17499219 0.14275442 0.18081294 -0.8174969
quietly 0.59211415 0.08307159 0.5107353 -0.83850217 0.789444 1.3824937 0.072320156 0.40981013 0.15302318 -0.18944642
silent 0.58548224 0.23183998 0.7612364 -0.51280415 0.38596204 1.2077192 0.44333312 0.52382314 -0.35697204 -0.21182539
someone 0.4967152 0.28234822 1.3707588 -1.0365392 0.7343671 0.16250499 0.28537008 0.7233167 -0.39660266 -0.37987062
rest 0.29911244 0.2546529 1.0167847 -1.0150479 0.8891595 0.614666 0.18432906 0.20723662 0.19948903 -0.59936625
finally -0.015394264 -0.049264632 0.72811735 -0.94474274 0.19143188 0.61754984 0.24020025 0.22005822 -0.5889936 0.19543317
ourselves 0.87435913 0.11677074 1.1187853 -1.3631761 0.23557663 1.1457294 -0.2501635 0.12026165 0.62956494 -0.4892807
peculiar 0.29771498 -0.0573144 0.71869296 -0.4255821 0.54037774 0.7171261 0.23478892 0.053248383 -0.5882322 -0.14330705
slowly 0.6092806 0.1996618 0.54641294 -1.3415288 0.21530108 1.2979324 -0.19885597 0.40158704 -0.5965549 0.8077665
character -0.082426876 -0.20700586 0.6768285 -0.8285947 0.36471802 0.56338346 0.9030524 0.6985418 -0.8704541 -0.15940543
sign 0.36481875 -0.3691718 1.0531104 -0.85195637 1.0711055 0.22482906 0.50353867 0.36330724 -0.117379464 -0.21877196
stoner -0.0037139142 0.4951206 0.73867387 -0.16758713 1.1571373 1.0234661 0.14555444 0.39049405 -0.20602022 -0.24626885
windibank 0.2827816 0.31834334 0.31891152 -0.38008356 1.2469203 1.7637315 0.34956244 0.46913952 0.085309915 -0.09832914
line 0.41754058 -0.14883569 0.66312945 -1.2425125 0.24073645 0.820253 0.13333626 0.006872217 -0.116311446 0.13611886
voice 0.04047827 0.14757639 0.368809 -0.887979 0.86571395 0.80025506 0.15582839 0.24904892 -0.55547476 0.35663748
experience 0.067991 0.23019192 1.1985887 -0.38555703 0.80591744 0.4955338 0.4736633 0.34590727 -0.1390942 -0.73271406
coat 0.35622486 0.0031573018 0.5446233 -0.6125572 0.24050793 1.1020936 0.2690804 0.53012323 -0.9283912 0.20332219
effect 0.122166835 0.019629985 1.1729833 -0.59324783 0.12115879 0.41076607 0.63182545 -0.02752182 -0.4723336 -0.8309554
placed 0.5545008 0.2773537 1.0088966 -0.759748 0.09884572 0.8174457 0.3455325 0.5649547 -0.6952027 -0.12846637
extraordinary 0.21054828 0.18999271 0.88875365 -0.71462476 1.0573927 0.55702466 0.2979175 -0.19743936 0.03445001 -0.43954927
public -0.14473808 -0.10220018 1.0442138 -0.18321805 1.0250659 0.60093075 0.8269172 0.048730273 -0.044049624 -0.7502369
train 0.49179226 0.13302384 0.8214858 -1.5014597 0.9406898 0.76600295 -0.035380073 0.056800414 0.4639984 0.044671018
observe 0.30302864 -0.011212557 0.59962475 -0.8874702 1.2974184 0.7968266 0.29891092 0.24341837 0.08052425 -0.3815555
clothes 0.7867236 0.17427847 0.82491446 -1.4926741 0.5386204 0.6364343 0.17942831 0.18590228 -0.22758941 -0.16354378
danger 0.2959732 -0.041667566 0.74715424 -0.86109936 0.84591764 0.68989396 0.57720315 -0.021451361 -0.082838334 -0.96086913
uncle 0.03261492 -0.13394395 0.2935759 -1.0538541 1.3379886 0.81115764 0.472586 0.3709479 -0.23469971 -0.059656568
speak 0.14521123 0.1285687 0.48421854 -1.0573349 1.4702189 0.7429089 0.32837763 0.07414364 -0.019668514 -0.8537019
reached 0.7593111 0.13419761 0.9530921 -1.6238369 0.8216156 0.7172953 -0.024801182 0.6378028 0.24438182 0.5416022
colour 0.3014583 -0.07082907 0.7041926 -0.69349813 0.33542943 0.6822027 0.43423322 0.21307234 -0.96404266 -0.04388724
child 0.17146564 -0.22681351 0.88194853 -0.8828769 0.6202159 0.36913472 0.91321456 0.18812689 -0.47757217 -0.11159452
pool 0.4862882 -0.088020876 1.0409299 -1.445155 0.18181442 0.5333939 0.522706 0.28730953 -0.27374578 0.45974734
news 0.21135294 -0.0097648585 0.77508223 -0.91870594 1.0981951 0.5618502 0.023606893 0.17210181 0.09360132 -0.29602495
low 0.5071469 0.06066983 0.68898165 -1.2770891 0.28341907 0.866285 0.262937 0.57178146 -0.55183434 0.5619733
won -0.24634524 -0.3945297 -0.11784493 -1.12882 2.0160203 1.2906021 0.038270414 -0.024507022 0.15207808 -0.8949563
england -0.06609462 -0.40021655 0.9066048 -0.80249405 0.6512508 0.53615373 0.59180886 0.28304815 0.05232223 -0.14423017
direction 0.79611874 -0.16129155 1.1552224 -1.2062157 0.063950375 0.5441274 0.61954033 0.20763186 -0.45472693 0.26861665
maid 0.29334846 0.41580826 0.70093924 -1.3291817 1.3460879 0.4575379 -0.02289015 0.9188944 -0.44041765 0.25715005
fashion 0.27216434 -0.093414135 0.40189373 -0.6998305 0.23275754 1.1327327 0.11586576 0.30636916 -0.7948275 0.2862371
wait 0.30495372 0.10480538 0.41722277 -1.3175361 0.94031686 1.0732828 -0.06941686 0.1910376 0.28090227 -0.32153222
love -0.009656632 -0.0073306803 1.0561363 -0.31676894 1.4752828 0.34968698 0.37098572 0.19348268 -0.18306229 -0.7752242
kind 0.3594257 0.12216737 0.7709659 -0.87366676 1.5178316 0.84496903 0.4955955 0.27073464 0.16457136 -1.1336621
neville -0.19721666 -0.4252785 0.6169342 0.0114427935 0.99920696 1.4766774 0.8947765 0.7224826 0.10161028 -0.047379307
listened 0.750448 0.5617699 1.1271539 -0.9475039 0.666832 0.5696285 0.3348691 0.39182138 -0.4250476 -0.2990843
afterwards 0.35779035 0.061929803 0.5613201 -1.3188337 0.7292337 0.76416856 -0.04931148 0.19160666 -0.044286348 -0.040316433
opinion -0.069779664 0.124309175 0.81590503 -0.5321493 1.426048 0.78733855 0.5038375 -0.073678695 0.1982257 -0.95976806
bedroom 0.7035197 0.08615165 0.7621415 -1.7228167 0.19420879 0.7567471 0.32278305 0.62977934 -0.6528103 0.62812847
coroner 0.11264162 0.017298823 0.60152113 -0.9149074 1.7281278 0.5749238 0.47745818 -0.045195974 0.05959983 -0.4570546
along 0.54292375 -0.016818367 0.5908255 -1.1411175 0.28730103 1.2085931 0.09020918 0.48713306 -0.193197 0.37873068
others 0.42015022 -0.16005784 1.3738594 -0.73763365 0.32109177 0.39809498 0.37241256 -0.08189699 0.0980389 -0.4626885
hatherley 0.22246848 -0.27427477 0.5072494 -0.5290959 0.6733852 1.29419 0.559569 0.49818453 0.029123757 0.2734659
glad 0.5565115 0.44836256 0.673068 -0.8078579 1.5399015 1.0915211 0.17590828 0.082991526 0.04099419 -1.6217381
excellent -0.22861908 -0.09295232 0.5875039 -0.27161032 1.0868597 0.90872353 0.20322266 0.3073003 -0.14327054 -0.27901435
hall 0.75371814 0.22494154 0.790929 -1.6114919 0.53270495 0.85368246 0.3024092 0.69045603 -0.44731393 0.8262802
hunter -0.11022326 0.12758145 0.7487698 -0.22098576 1.4615611 1.140348 0.27420184 0.48776668 0.06858203 -0.5028736
hours 0.5753452 -0.195328 1.0804993 -1.4926804 0.5773444 0.537773 0.40466008 0.26080537 0.3550309 -0.38272455
hundred 0.114738524 -0.45960218 0.7231707 -1.1314136 0.8763414 0.61744696 0.48046938 0.18037844 0.35699725 -0.33907068
majesty -0.3026283 -0.11954364 0.6757117 -0.54889995 1.8334416 0.75185317 0.1099137 0.011521095 0.004143203 -1.604123
cause -0.035128683 0.090690725 0.90339315 -0.5516135 1.3669643 0.49253753 0.17962977 0.05093445 0.021494534 -0.7784087
itself 0.4381129 -0.3058062 0.9372679 -0.8167788 0.16640003 0.71304405 0.5665898 0.22926624 -0.22984907 -0.06195725
pipe 0.43627504 0.23517337 0.49082083 -0.83220994 0.0053054313 1.4943798 0.017973715 0.7455023 -0.91128784 0.21806811
remained 0.39565387 -0.07420493 1.1436726 -0.90984136 0.2060625 0.34229204 0.23245348 0.07070686 -0.41153902 -0.39135864
nor -0.023181174 0.35704723 0.7152959 -0.57716304 0.95242125 0.63756204 0.017417697 0.37674493 -0.35717976 -0.33727765
fell 0.5357302 0.3020225 0.49348417 -1.3207301 0.33414885 0.9534445 0.095536195 0.7208832 -1.0543958 0.15525874
high 0.24522033 -0.22383456 0.66108143 -0.67443013 -0.27890998 1.2422261 0.22960588 0.30783275 -0.8273341 0.3318082
dead 0.43943107 0.06005709 0.512404 -1.129162 1.2672373 0.7139041 0.23845173 0.55765694 -0.16011319 -0.103257485
adventure -0.06792811 -0.43161944 0.49484333 -0.3866066 0.5075636 0.95292133 0.73784083 -0.01620911 -0.3709315 0.33219475
figure 0.16242398 0.0662165 1.1280439 -0.91226757 -0.057799272 0.46713883 0.18232465 0.5081672 -1.4430375 0.65808713
single 0.35254985 -0.31649873 1.2122147 -0.8450414 0.22162302 0.32749188 0.6050927 0.11755058 -0.33899143 -0.1392386
return 0.18359047 0.3490583 0.80077267 -1.2856824 0.6645051 0.77049047 0.046707764 0.20378062 0.17789452 -0.2318453
almost 0.5090476 0.12822928 0.94641507 -1.1489582 0.11350432 0.5513118 0.24647973 0.20778596 -0.3593967 -0.459112
suppose 0.15777726 0.08510629 0.77453095 -0.53544927 1.519788 0.62313396 0.28108466 0.41129905 -0.028445503 -0.6593148
close 0.8483319 -0.0013531909 0.89249384 -1.3842356 0.37422314 0.87922275 0.17251447 0.4392609 0.048786335 0.06295024
seem 0.29714638 -0.3088923 1.0358546 -0.7330528 1.0326382 0.5485026 0.53564245 -0.18619822 0.2742287 -1.0904882
sit 0.5301155 0.15134573 0.5831242 -1.1014755 0.7125937 1.2889258 -0.031686824 -0.048162304 0.48802295 -0.332848
secret 0.399793 -0.026494341 0.9706753 -0.89723694 0.81050235 0.5395779 0.31319237 0.29102126 -0.07643184 -0.6103115
simple 0.4263215 0.041232176 1.0795103 -0.60820436 0.7350422 0.651324 0.25191757 -0.16257568 0.041453786 -1.1408107
laughing 0.3387906 0.21662143 0.6153506 0.026230277 1.524921 1.5853877 0.37520203 0.73708797 0.080625884 -0.34189704
drive 0.26957136 -0.042546812 0.4979305 -0.9746973 0.6761604 1.3917832 -0.23529728 0.21649638 0.47925147 -0.06988086
surprised 0.43435016 0.3163783 0.8087363 -0.7467452 1.1294221 0.71222156 0.28313765 0.54063094 -0.28455752 -0.85946625
happy 0.106278 0.19437352 0.6494258 -1.4550319 1.1925817 0.5718889 0.27727595 -0.062962614 0.12541613 -1.237947
pulled 0.788281 0.18635777 0.3685738 -1.1007465 0.64937896 1.3587879 -0.14883702 0.63884145 -0.75085354 0.60455054
serious 0.16466726 -0.27458426 0.9450742 -0.4394601 0.9795691 0.80470335 0.605108 0.40558776 0.17417598 -0.8453241
weeks 0.36201125 0.054262318 0.93610275 -1.2707149 0.6479341 0.5389451 0.3974124 0.3721179 0.02056979 -0.3479071
feel 0.14531516 0.159126 0.47868642 -0.7338228 1.4950485 1.0029951 0.10857431 0.055165347 0.093089536 -0.9710899
locked 0.8044679 0.09551865 0.7622538 -1.5782598 0.42514417 0.76731044 0.40404162 0.43650782 -0.21243921 -0.060050637
instantly 0.25371465 0.04739448 0.7887984 -0.9141301 0.48701534 0.5079586 0.16615598 0.4466149 -0.50657845 -0.19394325
details 0.60328966 0.087375894 1.132218 -0.70562243 0.53457093 0.72098875 0.47751322 -0.20923418 0.051634632 -1.1329335
making 0.28642848 0.11648188 0.8700774 -0.4433133 0.821377 0.7848897 0.37779927 0.45872545 -0.25766772 -0.08124253
drew 0.8541231 -0.09574869 0.40408787 -0.9371778 0.3303734 1.3536701 -0.011519223 0.39213738 -0.69084185 0.51228815
important 0.33386847 -0.05679307 1.2571312 -0.51526177 0.6632052 0.56945443 0.52636456 0.21754675 0.061845783 -0.9207626
glance 0.258948 -0.043724246 0.36891174 -0.90050906 0.3953126 1.1475292 0.49364376 0.37069508 -0.41917363 0.04965493
meet 0.52218705 0.1791622 0.64322436 -1.1016967 1.2240525 0.894416 -0.061722983 0.07910949 0.22876078 -0.37797734
boy 0.42377743 0.18888536 0.64350814 -0.88947046 0.6929149 0.8053324 0.06514576 0.359904 -0.37538013 -0.30342475
advice 0.1293574 0.21099775 0.5443021 -1.2121783 1.3528434 0.6819576 0.2786509 -0.18170032 0.09805781 -1.2049799
company 0.091949105 0.22185178 0.7596199 -0.7857957 0.8124215 0.65828115 0.2116658 0.41051164 -0.2795093 0.0090830345
irene -0.38544098 0.1343626 0.628745 -0.21762884 1.4703417 0.7593826 0.17260623 0.15496464 -0.19432755 -0.0364741
dreadful 0.18909754 0.22883765 0.8604263 -0.79886764 0.5370513 0.5783321 0.10825639 0.18603007 -0.33328912 -0.38853398
lips 0.65480286 0.35087237 0.37831637 -0.90172875 0.3093195 1.4353036 -0.13503918 0.6647024 -1.4031378 0.5261885
miles 0.17475206 -0.5780755 0.89047855 -1.2166175 0.35979593 0.5672376 0.6716794 -0.030319357 0.29946375 -0.11055415
evidence 0.14862137 0.029416537 0.9753967 -0.46156663 0.86354494 0.5427309 0.27735567 0.2631834 -0.20851848 -0.6453305
feeling 0.07000922 -0.18873137 0.5805525 -0.9735832 0.8295364 0.5548877 0.49470833 0.035730183 -0.20580465 -0.49106196
key 0.5417059 0.17254052 0.5817454 -1.1212997 0.7741432 1.0213082 -0.05770645 0.5927155 -0.08306456 0.38049197
advertisement 0.3693375 0.12200402 0.7192679 -0.6708367 0.79210174 1.0629733 0.4127075 0.07550518 0.121578306 -0.113097414
openshaw -0.072748676 -0.12843722 0.6859218 -0.4999261 1.1207399 0.7412053 0.8485727 0.14953159 -0.06676561 -0.30414787
explain 0.42134973 0.1215945 0.9961964 -0.8985184 1.4490161 0.4957508 0.2943926 -0.13919574 0.15469256 -1.0618337
brown -0.010255991 -0.26916665 0.9192973 -0.53756434 -0.46908394 1.1890022 0.13015018 0.04541686 -1.2066549 0.88776916
boscombe 0.30455878 -0.41743913 1.1373105 -1.0568777 -0.14975673 0.62196815 0.419489 0.10262723 -0.23639227 0.46928614
k. -0.5535484 -0.9350328 -0.2884158 -0.32786852 1.7507432 1.7147167 0.5725869 -0.35328266 -0.10874521 0.13570909
thumb 0.12715065 -0.3637707 0.5466537 -0.7695602 0.42994744 0.8274688 0.7309894 0.082650214 -0.44572598 0.11757666
surprise 0.69759566 0.41621277 0.87322015 -0.93289906 0.7734584 0.8334183 0.17985685 0.70766014 -0.31416202 -0.13207205
shook 0.30319577 0.44197598 0.24796651 -0.46242502 0.6200822 1.535229 0.14926529 0.7985891 -1.1044562 0.21306625
confess 0.25847852 0.32058188 0.79749733 -0.6859312 1.228287 0.6411259 0.2848104 0.31430563 -0.16923898 -0.885831
smiling 0.23928696 -0.02598954 0.5565577 -0.02213202 1.1978348 1.2028005 0.4562111 0.38745517 -0.3204056 -0.13868724
appears 0.14299893 -0.2018732 0.7844997 -0.72672 0.8610537 0.5551502 0.6432867 0.08392913 -0.21394831 -0.81896406
matters 0.34067643 -0.12141214 0.99973494 -1.0738666 0.6493898 0.6343706 0.4226854 -0.104108945 0.32879838 -0.6775658
cleared 0.4678854 0.12780407 1.2105767 -0.6431566 0.59805137 0.79310864 0.36153504 0.4756336 0.119561 -0.5569244
third 0.36504614 -0.35502866 0.6082371 -1.2335893 0.5605643 0.8714115 0.6488113 0.38526717 -0.018462587 0.20303497
events 0.29490668 0.02439542 1.2507147 -0.62448645 0.36720216 0.63111675 0.4967458 -0.021214772 0.1397595 -0.64914995
twice 0.24409206 0.3975729 0.96476364 -0.8211344 1.0006845 0.51576984 0.04532598 0.66077495 -0.35424796 -0.2978854
impression 0.21959205 0.14448304 0.7440187 -0.95579046 0.5162265 0.42464623 0.6596808 0.66803795 -1.0682045 -0.32658327
whatever 0.31119627 0.13118854 0.87380946 -1.0614676 1.0857694 0.6596831 0.15339051 -0.1356452 0.30615303 -1.1677608
gold 0.2680788 -0.4655097 0.5169152 -0.6532522 0.3818224 1.1445525 0.15654004 0.35638848 -0.27331445 0.5032609
determined 0.46538183 0.17652005 0.85090655 -1.351098 0.6632377 0.4414114 0.40525168 0.020921575 -0.08373986 -0.7734162
him. -0.031741355 0.20882207 1.016886 -0.26873866 2.010805 0.71825707 0.35314536 0.4316229 0.09478977 -0.7530444
shoulders 0.11765877 0.0007111243 0.5173374 -0.1424147 0.26352143 1.3740851 0.07298126 0.7801157 -1.2466203 0.2747077
yours -0.23911126 -0.23146741 0.4588631 -0.30530882 1.1976973 1.1055299 0.6422488 0.13987805 0.09852911 -0.5757284
times 0.51389873 0.0025240802 0.9654377 -1.0178275 0.42447478 0.63409805 0.15091322 0.3926394 -0.23251052 -0.006131103
show 0.57879275 0.20132993 1.0031806 -1.1517483 1.2414939 0.6575964 -0.04416193 0.03647299 0.26069272 -0.85340446
innocent 0.21482418 -0.019590994 1.0076208 -0.41743138 1.6721057 0.57371324 0.5421441 0.25128296 -0.072005704 -1.2915246
sudden 0.46301422 0.23579839 0.8951546 -0.8646233 0.46460506 0.65460527 -0.07334659 0.54569274 -0.45605323 -0.111499436
turning 0.51705515 0.14413464 0.4296261 -1.0455239 0.6297038 1.1124293 0.2058515 0.42013213 -0.44057074 0.1480331
appearance 0.18606114 0.0016562034 0.8461 -0.68239915 0.4152694 0.4021826 0.48882198 0.384725 -1.1315675 -0.050116293
whispered 0.44549587 0.16511664 0.29952344 -0.91767436 1.3076339 1.2767816 0.07578499 0.41795933 -0.08471471 0.47432497
dropped 0.6981204 0.6153304 0.74682343 -1.1569166 0.505579 0.78731054 -0.20066246 0.60383105 -0.97113585 0.08950571
entirely 0.25742063 0.0060786707 1.2511847 -0.25513846 0.7452203 0.62088174 0.2099322 -0.058278937 0.07776694 -0.8898121
kindly 0.4865112 0.30091575 0.566007 -0.9892945 0.948497 1.208073 -0.029185329 0.5555697 0.05816407 -0.5751511
neither -0.025238296 0.37329236 0.7419999 -0.715963 0.8528672 0.6757682 0.0045446954 0.20492928 -0.20734058 -0.5268298
importance 0.11641824 -0.30623838 1.082135 -0.97303456 0.8275622 0.40756813 0.79191226 -0.054161735 0.26419187 -1.0335743
trust 0.2670374 0.24299788 0.9168957 -0.47177792 1.2600096 0.7581758 0.01930565 0.05310116 0.1678318 -1.0769198
wedding 0.06907441 -0.2354294 1.0634847 -0.47989336 0.92039853 0.70089996 0.57346094 0.5877296 0.1844439 0.029254073
centre 0.4633721 -0.26656345 0.8921636 -1.148114 -0.15911251 0.8641871 0.5636671 0.48373878 -0.905273 0.6692385
sitting 0.80210716 0.067191795 0.6910821 -0.95971006 0.28731325 1.1306151 0.30996567 0.5869064 -0.58927536 0.17629449
garden 0.4044188 0.11698248 0.8945914 -1.2979892 0.032053582 0.5661881 0.21471138 0.16444243 -0.66517746 0.2854489
bright 0.42458385 -0.0030484223 0.85937554 -0.955787 -0.08192191 0.91823876 0.34328774 0.44383332 -0.7430016 0.40694454
change 0.26597357 0.15925656 0.6455689 -1.2806581 1.0397459 0.40840936 0.26992106 0.23211353 -0.31667382 -0.6227924
geese 0.035548043 -0.10304488 0.64315104 -0.8651846 1.6829643 0.6121303 0.46742117 -0.093942404 0.13566977 -0.45509338
means 0.22244005 -0.25656644 0.99471235 -0.48311758 0.8085511 0.6884086 0.40625632 0.11384615 0.0841435 -0.6623751
sitting-room 0.6675745 0.16975212 0.7271266 -1.4644936 0.121311046 1.1250879 0.119055904 0.39498055 -0.22809397 0.47434714
league 0.0034803662 -0.4685221 0.4114668 -0.65411663 1.237052 0.82213897 0.81637967 -0.400122 0.1309703 -0.0879859
view 0.40056598 0.081753924 0.60580426 -1.1609018 0.7414066 0.65071523 0.42868343 0.05295729 -0.24808648 -0.5295497
wooden 0.50512797 -0.40437686 0.91285527 -0.9000155 -0.3543692 1.0554094 0.5455543 0.32191205 -0.97943217 0.6759826
to-morrow 0.06555643 -0.15833442 0.27326575 -1.6315069 1.2717602 1.2242641 0.20449774 0.020495202 0.6360779 -0.7950016
slight 0.026762111 -0.40482527 0.6442553 -0.50513506 0.08207228 1.0378952 0.6850255 0.4833692 -0.6392281 0.12944606
probably 0.2121139 -0.05177148 0.8849798 -0.753428 0.6783052 0.72830826 0.46529192 0.1532006 0.042224124 -0.59293634
assistant 0.22539593 -0.03925481 0.36673278 -0.8918983 1.2233362 0.9756739 0.7587842 0.44242582 -0.21079065 -0.30335498
certain 0.21447046 -0.0636623 0.9863706 -0.87470704 0.8889449 0.37401173 0.25689802 -0.03804824 -0.004039452 -0.9795076
foot 0.48559672 -0.038122848 0.65133333 -1.3526678 0.3805371 0.64746356 0.46674526 0.57258576 -0.56269544 -0.15709852
chamber 0.3319758 -0.06387299 0.60329336 -1.170232 0.47256052 0.7196611 0.5342582 0.52981514 -0.5626566 0.048604447
walk 0.5051067 0.39264995 0.69881886 -1.5014467 0.5761092 1.0664732 -0.18043424 0.1309889 0.2761906 -0.2062132
armchair 0.71660686 0.4003868 0.5761343 -0.78949606 0.16609985 1.4938191 -0.067317314 0.78032184 -1.0668831 0.4468949
deal 0.26649797 -0.250652 0.9638182 -0.60595715 0.5695681 0.6488431 0.74102336 0.46568134 -0.18298802 -0.36895397
object 0.57127786 -0.045720167 0.8378028 -0.83804524 0.85749596 0.77873397 0.47211224 0.10260244 0.0070569636 -0.33697402
excuse 0.17187461 0.059517045 0.64760715 -0.6196502 1.8305138 1.2765101 0.0756795 0.32260895 0.45309412 -1.0486997
pay -0.028728379 -0.44898868 0.62916285 -0.9761115 1.2270324 0.7280509 0.34275752 -0.23322344 0.27979198 -1.017438
taking 0.44871658 0.19182591 0.48080036 -0.530592 0.58573365 1.3528136 0.09251166 0.38140664 -0.29522532 -0.26642013
arrived 0.45120493 0.027595412 0.88639045 -1.0401449 0.7462684 0.69322914 0.34675762 0.62529474 -0.076203294 -0.0042796545
caused 0.026971156 0.10609506 1.4536057 -0.70223016 0.53062075 0.010962468 0.37663528 0.5240681 -0.55502725 -0.2976251
examined 0.60664386 0.06512892 0.5520583 -1.0248556 0.4629898 0.8986024 0.019239122 -0.0026622177 -0.46576872 0.15033235
truth 0.3668872 0.34762472 0.76577985 -0.7845191 1.1704384 0.72974163 -0.006143217 0.17920999 -0.0032683015 -0.6530508
full 0.32557642 -0.1309541 0.830527 -0.6197289 0.3824375 0.67363757 0.35604686 0.4819183 -0.5700233 -0.23947242
didn 0.053160254 -0.17740081 0.103117 -1.3809497 2.1645029 0.9554296 0.25389212 0.27038404 -0.035372138 -0.7919631
live 0.60371923 0.04154925 0.3675772 -1.2719855 1.3590231 1.0194805 0.24278538 0.07608926 0.09144608 -0.666066
therefore 0.23260592 0.121020876 1.1627591 -0.610159 0.8654925 0.33509925 0.35762995 0.39856225 -0.21857092 -0.70726204
comes 0.5199574 -0.17072606 0.83016974 -0.76306957 0.7631624 0.81413263 0.0784206 0.1274856 0.048350852 -0.3850736
water 0.40368652 -0.50466824 0.8139797 -0.8588108 0.10211843 0.80650204 0.54887456 0.16007929 -0.42888725 0.29979092
boots 0.54772323 -0.04391831 0.83015734 -0.9530604 0.37532306 0.6959635 0.052594345 0.22202586 -0.5341902 0.27494657
toller 0.23392177 0.19236557 0.742837 -0.37987345 1.0483671 1.0283833 0.2829613 0.4842552 0.006083151 -0.46046883
arms 0.49381557 0.359709 0.28514066 -1.0906366 0.7252345 1.378598 -0.30090395 0.79693675 -0.9875026 0.8426255
sharp 0.39972907 -0.068791926 0.61531264 -0.6292107 0.33012 1.0844557 0.26106882 0.2529535 -0.38090497 0.04151893
terrible 0.19471747 0.24970928 1.092228 -0.8105602 0.78481156 0.46666414 0.32604286 0.5368977 -0.15141253 -0.40100294
says -0.14646752 -0.7923839 0.11505768 -0.6924519 1.6186199 1.278497 0.651712 -0.03710249 0.400289 -0.4119328
waited 0.778485 0.16962413 0.85980445 -1.3508868 0.6454304 0.5939408 0.022556378 0.31911483 -0.31977978 -0.07505933
angel 0.28515932 0.2809947 0.6054783 -0.7468405 1.4756807 1.2384434 0.56755394 0.28095075 0.26830897 -0.54401857
care 0.16752802 -0.01698305 0.5376045 -0.74934053 1.3001764 0.65632945 0.2526224 0.0021768268 -0.19678251 -0.74843377
pale 0.4709737 0.15795915 0.63138 -0.8755132 0.40507644 0.8091565 0.4964929 0.6589061 -1.1838961 0.14744656
reading 0.38327545 -0.24615876 0.9392936 -0.9428328 0.5082859 0.45207545 0.342968 -0.03977767 -0.17628385 -0.3121667
so. 0.030777466 -0.050644923 0.78126884 -0.831007 1.6734873 0.8082996 0.093109235 -0.069431335 0.516449 -0.70534897
lying 0.39990982 0.14718376 1.0610629 -1.2185825 -0.16501752 0.58071584 0.30488154 0.27612665 -0.7827567 0.32439864
absolute 0.47788957 -0.2071266 1.1709472 -0.77260655 0.35249323 0.34933743 0.5352127 0.28383735 -0.43104306 -0.51939553
lock 0.34594417 0.04913002 0.36386102 -1.1291363 1.0770562 0.98946 0.104969375 0.42928427 -0.08662869 0.24283181
continued 0.37176386 0.040048115 0.62420434 -0.2762479 1.037299 1.186878 0.026357582 0.33616197 -0.009766711 -0.015303282
den 0.58290446 0.24802601 1.0318253 -1.2819382 0.650774 0.47090548 0.45158222 0.5424523 -0.30943567 0.23964459
ve 0.13147981 -0.5171031 0.4165958 -0.8315756 1.5318452 1.1864492 0.4543485 0.3706868 0.4691808 -0.49431196
lodge 0.58803606 0.34943843 0.53073776 -1.5382856 0.3372522 1.1538413 0.08381653 0.4140611 -0.076603584 0.13100107
breakfast 0.5166968 0.2114249 0.69757205 -1.3052161 0.6087749 1.0965837 -0.05318007 0.5254656 0.16422634 0.13722436
box 0.6021202 -0.13081078 0.7779828 -1.3036205 0.017538551 0.8719582 0.49001884 0.40060693 -0.60257375 0.3091411
impossible 0.12702973 0.004960007 0.90629286 -0.6603237 1.2109334 0.7516728 0.40553972 0.33382902 0.15006515 -1.1762896
amid 0.4855893 -0.14326496 0.75607616 -0.7767715 0.041722063 0.8781926 0.0655876 -0.0428502 -0.6233578 0.11864798
age 0.023265362 -0.1841492 0.8377406 -0.55266297 0.36239526 0.66528815 0.91005313 0.48533717 -0.6120096 -0.39069483
private 0.26757178 0.0918942 0.83445853 -0.6786041 0.73512286 0.7195417 0.33723146 0.5103174 -0.24083422 -0.28702974
bell 0.20913927 0.044044793 0.61837816 -0.7955713 0.7523236 1.0152934 0.06821696 0.2934329 0.13391326 0.2638143
follow 0.2761403 0.14026308 0.6779013 -0.8852942 1.3650113 0.9460335 0.15492897 0.056223497 0.23372537 -0.9718136
broke 0.44705263 0.11278506 0.68729347 -1.0581682 0.44445193 0.7790912 -0.13810568 0.260699 -0.6521527 0.32136038
later 0.6503897 0.028149763 0.97270167 -1.454635 0.24125576 0.605076 0.41408744 0.45405877 -0.1929959 0.10861472
clay 0.08091284 -0.1430343 0.25547755 -0.30789438 0.76492906 1.3174481 0.36284864 0.5411747 -0.5783813 -0.07075579
sum -0.092998624 -0.08259213 0.7945423 -0.9918809 1.0721699 0.34877795 0.324168 -0.3919539 0.012726432 -1.0086764
hotel 0.23864442 -0.18496948 0.631225 -0.8050222 0.43561706 0.9777007 0.099477015 0.14218801 -0.0162613 0.17366101
afternoon 0.2371058 -0.011077287 0.5528167 -1.5196326 0.44127157 1.0863435 0.61663544 0.34830838 0.31013358 0.018267164
answer 0.06609726 0.30260256 0.6703841 -0.65504164 1.5637237 0.8138042 0.03143385 -0.096787505 0.080076195 -0.84060377
friends 0.23415092 -0.27579153 0.69236135 -1.1628437 0.82770073 0.4726778 0.5518923 0.18927826 -0.25912577 -0.58972585
early 0.23823088 0.020885617 0.8923028 -0.9426288 0.60582244 0.93087995 0.2540059 0.40434375 0.41797024 -0.2820138
fancy 0.41286084 -0.14373706 0.76630366 -0.63038737 1.2559034 0.8283622 0.37613535 0.43832642 0.12939514 -0.5121289
pass 0.6845516 0.23565732 0.74085796 -1.2619718 0.7264114 0.62719667 0.33827204 0.3272764 -0.5233479 0.091127425
witness 0.030211477 -0.08128006 0.6266948 -0.72449344 1.4198902 0.7585934 0.2769422 0.0076735597 0.19626437 -0.6630258
clearly 0.49056497 0.3023095 0.84692526 -0.94609934 1.1433802 0.6119046 0.44135395 0.16454951 -0.13431841 -0.74454176
run 0.5049315 0.42238602 0.8271372 -1.2566131 0.60079104 0.7484272 0.143623 0.457174 -0.16480319 -0.2555838
church 0.134696 -0.36340934 0.35690737 -0.8711637 1.1697253 0.94432133 0.47090074 0.2927874 0.028511161 0.057032976
german -0.119541265 -0.45982292 0.6047979 -0.575377 0.5517068 0.74811995 0.8180079 -0.04310944 -0.336273 0.108037814
george -0.18379658 -0.31277558 0.34415546 -0.38244835 1.1535941 0.97378397 0.5698882 0.19282837 -0.16914898 -0.51305395
adler -0.2905792 0.24368979 0.5963728 -0.35590053 1.5431212 0.7909047 0.15003523 0.23356096 -0.1645402 -0.026433913
band -0.18671711 -0.320559 0.5849102 -0.40662444 0.6843562 0.84504306 0.41374272 -0.09540277 -0.11427235 0.061626274
bent 0.5772214 0.29845846 0.53154004 -0.79776096 0.1752713 1.2982768 -0.13593173 0.66220087 -1.3670219 0.4338736
wrote 0.18208255 -0.16019207 0.5238026 -0.74688226 1.3358082 0.6615021 0.40344793 0.32313007 -0.36106476 -0.49203855
swiftly 0.8287745 0.30029652 0.73421514 -1.2774199 0.28829744 0.99870837 -0.09965019 0.50208765 -0.91115516 0.73093855
noble -0.016227325 -0.4990595 0.8950094 -0.2405113 0.28076366 0.84445834 0.69389987 0.055857506 -0.30587682 -0.07429994
bad 0.18010394 0.09442294 0.7786869 -0.63532645 1.0273094 0.8438125 0.37402162 0.5120729 -0.033900537 -0.584569
blood 0.6201224 0.22239904 0.9940367 -1.0110935 0.3860337 0.4980505 0.2008486 0.106844686 -0.5200719 -0.041338623
pushed 0.68994665 0.40899265 0.66536236 -0.89549685 0.638756 1.0909587 -0.17113413 0.4269152 -0.49384707 0.13149184
features 0.5004614 0.06948672 1.2726665 -0.71825784 -0.103393055 0.4413046 0.4688584 0.1396114 -0.84651 -0.26382005
envelope 0.24024425 -0.057720497 0.5112037 -0.96784824 0.24841686 0.98966944 0.4251698 0.31198454 -0.7702225 0.4570665
engaged 0.53403544 0.13382207 0.9830215 -1.1214 0.917323 0.77420545 -0.024489606 0.15926304 0.48896852 0.01254639
force 0.6272263 0.09132438 1.1754919 -0.83009225 0.26421714 0.54605144 0.40340027 0.60108167 -0.5896032 0.030013978
broad 0.4103603 -0.17892879 1.0093931 -0.97667825 -0.431803 0.9898022 0.09230889 0.18498166 -1.0736599 0.7036798
tried 0.49032554 0.3119215 0.5908559 -0.99033475 0.82559437 0.813036 -0.3203811 0.47801128 -0.41108486 -0.29886967
start 0.23510166 0.3780112 0.39824623 -0.8487299 0.8748879 1.00149 0.27451688 0.5569098 -0.46010506 -0.22011508
frightened 0.14025904 0.15338594 0.30334926 -0.8378538 1.1890574 0.8735722 0.2182301 0.394257 -0.58250463 0.015621224
professional 0.30273366 0.12346937 0.7932104 -0.6936029 0.60085803 0.62254024 0.2925397 0.32517824 -0.3426749 -0.59724396
cellar 0.20907104 0.047911026 0.7312173 -0.87438965 0.7204948 0.85158163 0.24728888 -0.0028273629 0.06108775 -0.017338846
nearly 0.048138175 -0.23045625 0.5519891 -0.89409703 1.1999911 0.8183367 0.6483311 0.55816215 0.106983155 -0.2483816
charge 0.2392535 0.04683967 0.832257 -0.6850179 0.85096765 0.59633374 0.23139681 -0.12088994 -0.1501324 -0.3190278
thick 0.25045064 -0.068731576 0.65179414 -0.7920059 0.013568073 1.2263973 0.10963339 0.35764012 -1.1267136 0.93442357
received 0.37116516 0.031759795 0.7872303 -0.77937806 0.55843484 0.74586076 0.25225765 0.33446595 -0.3182196 -0.11277221
died 0.2558001 0.18235333 0.7720767 -1.180237 1.4691489 0.3223154 0.059084237 0.76579636 -0.3374979 -0.26525104
affair 0.4616773 0.07617933 1.0138768 -1.1593544 0.85267705 0.4320557 0.3985004 0.2587124 -0.019161083 -0.66712826
eight 0.19286482 -0.2552292 0.8737717 -1.4651278 0.5453891 0.702559 0.6805193 0.49847728 0.32171014 0.01614242
scene 0.39425227 0.14235327 0.8498297 -1.2182766 0.54082984 0.66116655 0.362568 0.01275197 0.060573243 -0.33403596
shoulder 0.5371057 0.23644571 0.26756135 -0.9217123 0.73926634 1.5014671 0.1299949 0.59268194 -0.5154884 0.5152
edge 0.28010958 -0.48367634 0.76874423 -0.91200614 0.01276863 0.9000113 0.40549347 0.111187354 -0.72489154 0.71808267
claim 0.21736531 -0.0063467864 0.5188837 -1.0419555 0.84695345 0.6542482 0.3387954 0.33461136 -0.30706498 -0.8016811
court -0.24111629 -0.3770495 0.11824289 -0.9589103 1.1094238 1.0605906 0.26429927 0.2636242 0.03407626 0.1936925
break 0.053085957 0.4648657 0.70548785 -0.71798885 1.150463 0.6214539 -0.26013598 0.1495919 -0.2829044 -0.54115885
send 0.26956257 0.28320152 0.5645417 -1.3265672 1.127618 0.6527521 -0.1640471 0.08442354 -0.04728931 -0.6443829
signs 0.57485497 -0.30514836 1.6167766 -1.0148836 0.5060815 0.013907878 0.1998389 0.16422871 -0.047257476 -0.25415674
darkness 0.69165003 0.24674265 0.815871 -1.2743479 0.28691134 0.85787654 -0.005987818 0.3281362 -0.59810466 0.47309467
copper 0.3988944 -0.19085653 0.60751027 -1.2750465 0.25744352 1.1680105 0.5587016 0.23291537 0.13965875 0.43766323
mad 0.51662624 0.09445783 0.70838183 -0.9585631 1.2935895 0.9956152 0.11716969 0.4332192 0.20775934 -0.65575266
horner 0.21407743 0.08331143 1.0377444 -0.630637 0.6645741 0.45281133 0.52603215 0.46665242 -0.3327953 -0.51731277
inside 0.31362185 -0.048569214 0.5114459 -1.0722369 0.6536502 0.8159773 0.3076666 0.24504796 -0.36303475 0.14890938
yellow 0.2555588 -0.27270806 0.8780036 -1.0926529 -0.43202418 0.9836418 0.044415828 -0.023389982 -1.1683894 0.86654574
finger 0.5764673 0.45340356 0.51109487 -0.806825 0.6180425 1.2224498 0.23330949 0.47381225 -0.60049343 0.11006713
wrong 0.7132554 0.24246088 0.52683777 -1.1459258 1.095777 1.2806567 -0.060673054 0.26472384 0.35259223 -0.66896355
yard 0.46533263 0.46417356 0.6547072 -0.5058356 0.8794983 1.256166 -0.04564278 0.3022775 0.010161015 0.11984738
result 0.24903178 0.10282784 0.86934483 -0.5492203 0.641907 0.7301838 0.256527 0.0068921554 -0.18539926 -0.3610861
months 0.29655477 -0.41707218 1.2701589 -0.8975854 0.4296057 0.5066499 0.5433365 0.44731247 0.25043577 -0.25449464
yes. -0.12740003 -0.28233552 0.6209607 -0.5474993 2.061176 0.872117 0.008737207 0.13352264 0.39900234 -0.0101881465
evidently 0.2969549 0.022458794 1.21972 -0.4316446 0.6724256 0.3993884 0.36303797 0.44858536 -0.37076277 -0.28670022
slipped 0.6523234 0.22031231 0.46949288 -1.3618014 0.6464026 0.8627463 -0.19819832 0.4917899 -0.6688827 0.38906178
expected 0.5711294 0.2628764 1.1616371 -0.67677677 0.8325458 0.6031144 0.08156292 -0.030137874 0.053899553 -0.6274539
heavily 0.21676962 0.18970825 0.7964535 -0.7215238 0.39536062 0.7559855 0.13644752 0.35312313 -0.48205554 0.14608492
raise 0.5303257 0.4048309 0.5719161 -1.2875425 0.80520123 0.85696626 -0.13521974 0.32988963 -0.13466668 -0.37391374
usual 0.124267705 -0.060136847 0.7152253 -0.91692764 0.654271 0.7426145 0.44939092 0.50104034 -0.08927894 -0.36833295
knowledge 0.40807936 0.0049930546 1.1723889 -0.64086276 0.47994965 0.42383006 0.45058683 -0.038680468 -0.28263986 -0.9779351
lit 0.72588485 0.45027882 0.8803531 -0.9151242 0.28469232 0.95291466 0.012831986 0.6617581 -0.96853805 0.5163132
glass 0.2748101 -0.025622273 0.6105849 -0.75608283 0.43428168 0.8787558 0.021548295 0.15377317 -0.4030868 0.15533814
wall 0.6428328 0.103790626 1.0377142 -1.076727 0.02858125 0.8477853 0.31697574 0.5781914 -0.7048172 0.5345179
gems 0.60710037 -0.025475042 1.0017259 -0.8636981 0.9503058 0.5923691 0.18825153 -0.019851223 0.084533155 -0.010512037
clue 0.14967951 -0.003044902 1.0067117 -0.5396614 0.82996696 0.6015361 0.17563283 -0.12140961 0.1466171 -0.5262685
walking 0.56843406 0.515514 0.6820318 -1.2081531 0.7609554 0.8616845 -0.036901303 0.54747814 -0.49443936 0.4240993
besides 0.25449324 0.0019208698 0.94122726 -0.74580777 1.0730885 0.5686093 0.49852186 0.07992676 0.09966382 -0.8807165
shot 0.5131153 0.01016933 0.35194984 -1.0480846 0.53669614 1.1623632 0.43749943 0.7249947 -0.8120146 0.4207324
running 0.6426799 0.28809166 0.7903505 -1.1192282 0.43875164 0.8112353 0.15382978 0.5138815 -0.40563452 0.33436027
presence 0.26557633 -0.0072224485 0.872688 -0.8203441 0.83911926 0.4361643 0.5643193 -0.0036619268 -0.28674605 -0.4598348
missing 0.4364689 -0.4152844 0.8226449 -0.7470047 1.0697901 0.66494143 0.56754786 0.08178393 0.15154289 -0.31878802
society -0.02013154 -0.15943551 0.8394829 -0.560271 0.8645177 0.4563406 0.45353755 -0.0738563 -0.23205942 -0.13840522
horrible 0.3615533 -0.08617535 1.1777353 -0.9547721 0.7149019 0.28005928 0.34096003 0.0407767 -0.054890502 -0.5221256
promise 0.20023441 -0.038198754 0.716059 -0.9735281 1.0361128 0.72261906 0.4681496 0.18952687 0.11626877 -0.6432177
lascar 0.41600844 0.06811941 0.8818478 -0.78385556 0.71778506 0.6706 0.31020814 0.61352587 -0.28877193 -0.36762562
complete 0.3269125 0.018755823 0.9532341 -0.7752608 0.57861644 0.58772993 0.43550342 0.19614647 -0.20917553 -0.85767555
spoken 0.28571796 0.45733663 0.90512604 -0.95017415 1.319563 0.37200126 0.1835859 0.7418214 -0.41856048 -0.48747545
piece 0.3635381 0.04355551 0.5334055 -0.8363295 0.4409381 0.90541637 0.14334959 0.17229109 -0.4949647 -0.0020781083
merryweather 0.3099335 -0.042982806 0.473821 -0.38192692 0.6119806 1.5373976 0.46701908 0.2308547 0.051423185 -0.11933728
deduce 0.3059733 0.24805695 0.8857501 -0.5146874 1.8417751 0.66376793 0.009114258 -0.36361763 0.1659354 -0.4007928
different 0.4756968 -0.144607 0.72692096 -0.6942689 0.4004757 0.81389254 0.16002277 -0.116782025 -0.34787032 -0.32478032
sheet 0.31187972 0.20627373 0.70402586 -0.5362107 0.1914043 1.1077944 0.27388495 0.05006538 -0.71353984 0.34272408
doran -0.44836295 -0.20110954 0.763672 0.11977477 0.899646 1.019682 0.5593467 0.20404066 -0.17709251 0.22733597
real -0.03511712 -0.15319815 0.8292988 -0.48569548 1.1297767 0.51824135 0.19927417 0.13890627 -0.09706293 -0.7566451
carry 0.5020704 0.26560792 0.53217316 -1.1559978 1.0519097 0.92351574 0.0064123916 0.107221365 -0.03336019 -0.69578916
number 0.42756593 -0.18290894 1.1883528 -0.68565893 0.1623755 0.5937756 0.48352867 -0.039252684 -0.25240734 -0.2054948
grew 0.24658212 -0.031856027 0.8485494 -0.7676122 0.05322128 0.65045476 0.01898365 0.32359365 -0.77788246 0.00852177
sometimes 0.26190293 0.24078465 0.78213584 -1.0221543 0.8953233 0.6421116 -0.0427826 0.05838414 0.014725869 -0.20689328
common 0.05786118 -0.16261485 0.60972303 -0.64309347 1.1693149 0.6711491 0.527355 0.25770319 -0.22226506 -0.5230415
streets 0.32686526 -0.12575309 0.88544506 -1.3152301 -0.13818476 0.81081176 -0.049981486 -0.0976238 -0.31271365 0.39003617
wonder -0.13474518 -0.26764187 0.5855101 -0.95664775 1.6623667 0.47917044 0.53024536 0.04369673 0.03026407 -0.76884484
knows 0.32063574 -0.021185858 0.8200752 -0.4030312 1.6045951 0.68386996 0.303064 0.36925396 -0.12244184 -0.9194543
pair 0.13354568 -0.31210098 0.5605916 -0.70633745 -0.016475545 0.94903773 0.42831624 0.2722245 -1.2242385 0.20097278
