2019 100
, 0.2642967 0.10411917 0.09384883 0.019571654 0.06935517 0.08537434 0.18725887 0.10253243 -0.012693244 -0.123632304 -0.014103274 -0.35806793 -0.026808161 0.06302438 -0.08672002 0.17159866 -0.026706927 0.16243136 0.025535224 -0.18008679 0.23079284 -0.08192409 -0.1257844 0.2883504 -0.025254246 0.23175612 -0.029747536 0.015422853 -0.04375551 0.11015688 0.02685496 0.13879542 -0.11385165 -0.1481006 -0.07173853 -0.024220074 0.19700907 -0.1457469 0.050574142 -0.14458272 -0.114647515 -0.2821692 0.083260246 0.11105899 0.04178473 -0.10288569 0.21750246 0.40094364 0.06208254 0.27192986 0.12869059 -0.13910519 -0.035062112 0.1680384 -0.09398409 -0.16965981 -0.09442761 0.12272423 0.033381768 -0.06364796 0.15896514 0.22489224 -0.19548209 0.11690992 0.05469537 0.040062547 0.22473024 0.064570494 0.045245834 -0.046091337 0.15895246 0.26169378 0.20151994 -0.110406995 0.27247435 0.33840972 -0.04424712 -0.22222379 0.036601737 0.23495033 0.06545717 -0.017765181 1.2714821e-05 0.06414742 0.024013726 -0.25302368 -0.27816814 0.08725008 0.109022744 0.20492184 -0.059768677 -0.32064295 0.13097548 0.13799517 0.14450555 0.0996111 0.09222988 -0.2034251 0.30547968 0.03662797
the 0.34996152 0.11276611 0.043966968 -0.3492164 0.23264568 0.06434363 0.26078627 -0.031723037 -0.017740719 0.084327705 0.05900948 -0.26690382 0.14654478 0.030103767 -0.07362633 0.099389076 0.035377193 0.28533566 0.36867625 -0.17036314 0.23811026 -0.014670422 -0.09436089 0.2524291 -0.016016705 0.18277812 -0.26965883 0.009684152 -0.06037873 0.10164791 -0.19771191 0.025565242 -0.1430024 -0.370685 -0.07223338 0.33322504 0.021068612 -0.071769856 -0.041773636 -0.19191763 -0.1022145 -0.27328902 0.13532794 0.0996509 -0.018475525 -0.28180215 0.038235344 0.3812474 -0.023308955 0.12410636 -0.06559414 -0.12467392 -0.22922346 -0.23490667 -0.07721367 -0.28539678 0.011702379 -0.0078027365 -0.16458389 0.12732041 0.3930758 0.21792918 -0.36345753 -0.07113122 0.03306506 0.15158437 0.11754516 -0.08150404 0.11348804 0.22191629 -0.0051378114 0.103012815 0.14037201 -0.15359867 0.21237285 0.08555488 0.13831341 -0.19968121 -0.076691225 0.0641616 -0.242942 -0.122485265 -0.0928619 0.036971893 -0.020391855 0.06530248 -0.009989715 -0.20704463 0.09837914 0.1868056 -0.059714172 -0.224316 0.12446246 0.07344395 -0.13029088 0.21988194 -0.06848321 0.0737575 -0.062121123 0.060853045
. 0.14824973 0.012908586 0.24698678 -0.4340665 0.028965835 0.19529419 0.28402615 -0.06397746 -0.14774536 -0.28016248 -0.04822276 -0.19829059 0.016417433 0.27021942 -0.12786803 0.17090653 -0.06733145 0.16996858 0.03623168 -0.38889158 0.16698913 -0.20030145 -0.062436454 0.23476411 -0.09125631 0.17214824 -0.055559937 -0.14974193 -0.07830266 0.25037387 -0.11781339 -0.13588929 -0.03016295 -0.3278111 0.044407476 0.016018832 0.11603377 -0.08936726 0.032016173 -0.17722747 -0.024026107 -0.306397 -0.008474763 0.028406424 0.0071306694 -0.3509344 0.24471287 0.31945357 0.07258356 0.23035789 -0.008883923 -0.069737166 -0.11404492 0.15821545 -0.13223107 -0.016708205 -0.26337054 0.040049728 0.17477216 0.06641755 0.2007647 0.4686051 -0.14300725 0.03784186 0.026249876 0.10170536 0.16266182 -0.19988602 0.10127986 -0.12590775 0.16176534 0.12899332 -0.034810852 -0.14265095 0.03848203 0.24909434 -0.06034117 -0.17443538 -0.060137942 0.11351435 0.12790024 -0.24084064 -0.09914173 -0.17557925 -0.11469509 -0.17789935 -0.15104629 0.18646954 0.12521404 -0.049590513 -0.04422865 -0.17426209 -0.09201992 0.36454654 -0.06354432 -0.020648442 -0.12540701 0.08785321 -0.02094927 0.2371175
i 0.15646765 0.2220904 0.08767023 -0.2578858 -0.03171454 0.05454567 -0.03252519 -0.22752133 -0.047591887 -0.20603922 0.018177468 -0.44546288 -0.094217904 0.17770673 -0.2599176 -0.058097694 -0.27631384 0.013914727 -0.022539562 -0.16439646 0.35896933 -0.33371586 -0.272941 -0.12263304 0.08117446 0.25258505 -0.35048434 0.0652386 -0.09422842 -0.15280524 -0.13090777 0.5169955 -0.10479703 -0.20196609 -0.14365524 -0.06895814 -0.13881136 -0.071963035 0.032505006 0.049471576 -0.21714436 -0.11284836 -0.19159965 0.05760782 0.06427304 -0.28634232 0.20315452 0.5931805 0.23897436 0.2708519 -0.10103109 -0.07571382 0.021351777 0.40769678 -0.20993663 -0.062751435 -0.13254462 0.2873235 0.3074744 0.14985846 0.3643005 0.2367941 -0.29436025 -0.05980745 0.051226303 0.2289001 -0.18946746 -0.16251634 -0.0952047 0.06605706 0.15983115 0.37126198 -0.28396115 0.10785089 0.12591423 0.14748555 -0.069632985 -0.09064225 -0.14982879 0.2651327 0.24756512 -0.11251659 -0.20765515 -0.2869338 0.18649104 -0.017558718 -0.26858747 -0.019221416 -0.27549818 0.19219819 -0.063243955 -0.08505567 -0.1255746 -0.00019881876 -0.07841299 0.03594357 -0.15553468 -0.5472535 0.13783027 -0.25347406
and -0.08636125 0.11157243 0.31583473 -0.1905131 0.008942366 0.3825437 -0.1410721 0.15934567 -0.2566515 -0.07070723 -0.17108643 -0.20545973 -0.16419713 0.0098442575 -0.0057796333 0.046210524 -0.013994279 0.2276596 0.04015722 -0.09668395 0.06997216 -0.21406627 -0.13082004 0.17541836 0.005125147 0.11008944 0.046912976 -0.2001152 -0.21235582 0.15855977 -0.1554196 0.060830206 -0.031611636 -0.30390114 -0.0844487 0.04844977 0.06751539 -0.14457545 0.038217604 -0.21934219 -0.24942562 -0.107336976 0.06591811 0.029981175 -0.17991053 -0.20780252 0.11454257 0.43419525 0.17870331 0.26768345 -0.07097921 0.11671914 -0.11433734 0.22145312 -0.43752214 -0.21158573 -0.14130507 -0.015571239 -0.0074036634 -0.08715426 0.3796089 0.30661064 -0.19800656 0.03423153 -0.04191561 0.025617566 -0.014327747 -0.10059677 0.22647732 0.12533146 0.01960609 0.08714729 0.24044201 -0.10102529 0.21705984 0.051789798 0.063697286 -0.059098434 0.006898636 0.3222872 -0.10688198 -0.05810056 0.010474967 0.029047737 -0.23751396 0.07012277 0.07828177 -0.10226422 0.14240785 0.08101111 -0.2785046 -0.11808812 0.09105847 0.13254975 0.18189989 -0.15026769 0.093629606 0.02803755 0.15112427 0.017891448
“ 0.25625446 -0.002826277 -0.0074599297 0.032024525 0.4657711 0.15081027 0.2477544 -0.19898711 0.08866247 -0.21749255 0.012655789 -0.056879062 0.41230747 0.30085024 -0.38744825 0.0076760873 -0.09456207 0.28887567 -0.072158806 -0.40439463 0.6944144 -0.19193952 -0.45022756 0.3594696 -0.23175962 0.059158113 0.05274519 0.09198764 -0.011521039 -0.17586283 -0.14166175 0.31575164 0.25414443 -0.06516319 -0.17292327 -0.11572909 -0.23573251 0.08677009 0.19987567 0.05374016 -0.25387436 -0.2830301 -0.15725085 0.01677696 -0.05577131 -0.015711945 0.051400445 0.37667125 0.21269836 0.32312998 -0.008259449 -0.20040807 -0.111675605 0.06909785 -0.09597167 -0.32872358 -0.067998104 0.20439777 0.21044827 0.019078452 0.5688284 0.266568 -0.123927854 -0.16203296 0.26163653 0.03191905 0.16270548 0.0044716042 0.15423074 -0.05689106 0.3230846 0.060167477 0.026362361 0.021088222 0.34273177 0.24497151 0.09131806 -0.23333679 -0.07176951 0.07659484 0.37178814 -0.10905504 -0.14097644 0.19253369 0.17110416 -0.28267774 -0.20834996 0.22063151 -0.11719341 0.2936671 -0.073443 0.30621216 -0.047279987 0.21120587 -0.023823233 -0.11641547 -0.14511693 -0.2372946 0.2768124 0.13566537
to 0.045551613 -0.041265808 0.22715552 -0.4024666 0.17592259 0.23367715 0.14134352 -0.093138956 0.045398127 -0.30042413 -0.0032047825 -0.21811244 0.007008925 -0.10244653 -0.023902388 0.1505726 -0.010520385 0.043814994 0.17410795 -0.09311551 0.012718206 -0.14266722 -0.01714425 0.1469898 0.10574796 0.077813946 -0.008404907 0.35447085 0.113291055 -0.2059134 -0.092370525 -0.06933007 0.02354793 -0.1347493 -0.043053064 -0.16352746 0.09379693 -0.06680139 -0.088236645 0.0965047 -0.34318802 -0.01957425 -0.029277459 -0.27065253 -0.18258153 -0.16200599 0.08080455 0.39893907 0.09761013 0.18144044 -0.19535388 0.29329404 0.01842995 0.29333863 -0.3237488 -0.3389937 0.019633533 -0.023685599 -0.13199142 -0.0988287 0.5017262 0.2799352 -0.33307445 -0.08827517 -0.020544142 0.17549561 -0.14518192 -0.0626996 -0.052252844 0.21789281 -0.23677011 0.041379694 -0.11784956 0.08248589 0.19804682 -0.03311336 0.004363404 -0.22215746 -0.12477183 -0.015209311 -0.0065563857 -0.0009893916 -0.08289595 -0.09151394 0.09107986 0.016648374 -0.17666173 0.09531499 0.029225927 0.20279062 -0.12547718 -0.0799432 -0.11736565 0.5881558 0.06559383 0.043044988 -0.17313474 0.10397426 0.062994726 -0.063707136
of 0.23573755 -0.12505521 0.23248132 -0.32127577 0.050198145 0.19547758 0.30391252 -0.026912428 0.15589753 0.09234528 0.037584838 -0.1520632 0.0037475317 0.12569152 -0.03546767 0.08507818 0.02853515 0.06471156 0.12911667 -0.07598509 0.112282455 0.14633448 -0.18849096 0.32562712 -0.0842871 0.1526271 -0.2640268 0.20803192 -0.0542492 0.18325503 -0.14400026 0.10727778 -0.006515064 -0.24371025 -0.112082176 0.13554662 0.13620728 -0.07278638 0.008551296 -0.058222316 -0.29859316 0.008005022 -0.14368522 -0.071967214 -0.04522596 -0.28500885 0.017813075 0.5898064 0.07302446 0.23963964 0.010057318 -0.32763597 -0.3146635 -0.096264146 -0.18169944 -0.23108602 -0.15619081 -0.070118554 -0.029058877 0.0498026 -0.020769134 0.13285255 -0.16829453 -0.14622895 0.014544968 0.23162292 0.21707723 0.051579263 0.13940784 0.042089507 0.10121821 0.19602382 -0.064036995 -0.16453576 -0.046531208 0.1934164 0.27321404 -0.26070204 -0.0406758 0.15685585 -0.29689613 -0.24080642 -0.06965567 0.041183613 0.022063324 0.29322904 -0.049307622 -0.06701984 0.099189386 -0.04099783 -0.24797814 -0.25898272 -0.029122757 0.1463472 0.16689986 0.17702107 -0.0071583474 0.27122995 0.11209097 0.076407954
a 0.32520783 -0.03257341 0.112832 -0.23844631 -0.22689325 -0.04540783 0.06572584 0.2544096 0.110805266 -0.15077347 -0.11232645 -0.25975364 -0.0538796 0.19961952 -0.18019873 0.16039209 0.14445147 0.24030133 0.2829976 -0.12515432 0.11909915 -0.1243655 0.1784825 0.1285844 -0.1537611 0.19233556 -0.011402489 0.08729623 0.23808275 0.20463173 0.13127518 -0.067494236 -0.23277056 -0.35484618 -0.1588115 0.0777743 -0.15139349 0.07612695 0.18130736 -0.11194436 -0.24046154 -0.27666783 -0.23460805 0.3173692 -0.17906113 -0.034931708 0.1911371 0.5636733 -0.011315059 0.1632146 0.044990238 -0.040320896 -0.07569288 0.1585723 -0.16806303 -0.4316879 -0.13522014 0.07795559 0.1397056 0.1260372 0.12098777 -0.073416956 -0.031973843 -0.016367672 -0.12759416 0.30892769 0.15824027 0.07247129 0.2534262 0.06652833 0.009568724 -0.22992125 0.10904728 -0.13720545 0.37792566 -0.048730135 -0.14815378 -0.20176029 0.09829375 0.013233408 0.043831762 -0.14638267 0.09146717 -0.07961978 -0.013095229 0.020343238 -0.062890425 -0.13125789 0.20582594 0.16382505 -0.041639578 -0.44037312 -0.038863987 0.42938846 0.22669192 0.16834535 -0.19359858 -0.1345909 0.13907549 0.012038132
” 0.30829746 -0.026877174 0.1646695 0.020063357 0.512805 0.3891111 0.20261446 0.040088862 -0.011943416 -0.15484798 -0.079084925 -0.20172426 0.37590718 0.3335458 -0.06452425 0.09251941 0.008968985 0.21073346 -0.060454246 -0.27762693 0.31069636 -0.17746833 -0.03732649 0.23695342 -0.07775435 0.09428583 0.26894954 -0.05209389 0.053541947 -0.058256872 -0.20585248 0.2153775 0.1498366 0.007722179 -0.1546325 0.015595205 -0.25775024 -0.04008794 0.16571578 -0.13344282 0.051556528 -0.38826406 -0.24665652 -0.0010368486 -0.11775263 -0.16076188 0.022589702 0.2885421 0.4114761 0.2997052 0.04969531 -0.07715733 -0.03927453 0.12694354 -0.18206505 -0.0711005 -0.27858642 0.11867969 0.22190925 -0.017983723 0.39418462 0.11513132 -0.25472873 -0.40966165 0.13975064 0.40103188 0.057887197 -0.21097805 0.27575076 -0.15242656 0.38941133 -0.18726332 -0.067043126 -0.0074876654 0.27874184 0.6154077 0.06292554 -0.21586923 -0.06882803 0.2758173 0.31076175 -0.0332141 -0.15448834 0.5484149 0.05803748 -0.23674805 -0.26736185 0.32371074 0.06263255 0.43426043 -0.046525314 0.29998425 -0.031086503 0.2890802 0.23285517 0.08727672 0.11841255 -0.23490268 -0.098393485 -0.16172169
in 0.14682262 0.06335649 0.03481132 -0.29588887 -0.022766573 0.36643726 0.004790603 0.2237394 -0.0012292952 -0.16321611 0.091785684 -0.10776373 0.14077175 -0.05052497 -0.01987653 0.06415244 -0.18510252 0.20085001 0.16336714 -0.06798619 0.058833383 0.088703014 -0.003519778 0.21791002 0.13305715 0.07080996 -0.18443963 -0.0007683389 0.1846654 0.2427931 -0.14038825 0.104857646 -0.059886426 -0.36521238 -0.08471071 0.13902639 0.020278506 -0.3315738 0.083895296 0.006229504 -0.33139163 -0.02768489 -0.01922091 0.010285684 0.0044381903 -0.055517767 0.07184169 0.27588215 0.082875684 0.3190726 -0.09356115 -0.033287764 -0.00805752 0.115591764 -0.45528722 -0.20094097 0.053735547 0.08387395 0.009023977 0.045962658 0.1738487 0.17544281 -0.24311976 -0.13764472 0.2404773 -0.005938624 0.34512416 -0.096935034 0.16690658 -0.042852335 -0.059826415 0.15051025 0.081694156 0.09741066 0.2662435 0.41438025 0.07373292 -0.24640046 -0.0015093832 -0.0011590851 -0.23829912 -0.17911042 0.1897773 0.011035419 0.07477289 -0.01973328 -0.2496916 0.053431395 0.07417911 -0.046413045 -0.2596415 -0.18073575 -0.00201979 0.16539165 -0.018586723 0.050398305 0.04217823 0.06412755 -0.054251537 -0.106363416
that 0.29762566 -0.21092775 0.06608215 -0.21749324 0.277819 -0.049542584 0.16116598 -0.13910444 0.08833036 -0.18440485 0.13310273 -0.2985852 0.031443942 -0.008670355 -0.054555103 0.24569532 -0.09845307 -0.002476454 -0.15498085 -0.44472885 -0.035783116 -0.254499 -0.29902527 0.29597497 -0.035141937 0.06702254 -0.228082 0.28880537 0.07486904 -0.4816212 -0.034526646 0.005456825 0.08425926 -0.09871873 -0.13612528 0.022053674 0.0076496457 0.019527083 -0.064726055 -0.14360496 -0.33195037 -0.30928 -0.177962 -0.11763872 -0.04052429 -0.2523184 0.30844674 0.47025642 -0.061275903 0.4720539 -0.15148577 -0.11882365 0.011644804 0.12672667 -0.18182309 -0.13407603 -0.37299737 0.13400635 -0.074564286 0.04204124 0.5630205 0.08119749 -0.18912993 -0.26721418 0.046874493 0.13881849 -0.020925075 0.029763365 0.1193309 0.020237386 0.02539992 0.19196646 -0.02215745 0.07251919 -0.24121974 0.24625152 -0.1260126 -0.23425226 -0.07934786 0.021921875 -0.04107902 -0.10657159 0.006375126 -0.280253 0.17896886 -0.08444204 -0.08514874 0.13317133 0.16380791 0.24446434 0.12701838 0.042085733 0.16248646 0.28867677 -0.1129758 -0.0063769678 -0.17986186 -0.31799358 0.44291842 -0.07974716
it 0.093131825 -0.21156897 0.027663564 -0.018459031 0.14212501 0.20894244 0.25641263 -0.11919473 -0.03612918 -0.0950017 0.064527124 -0.3696996 -0.17133419 0.04507949 -0.08563274 0.15379643 0.09176551 0.2081371 -0.0061883 -0.39040422 -0.06967779 -0.1403022 -0.13532183 0.19184384 -0.12945886 0.13186306 -0.0808574 0.050179157 -0.0057504256 -0.24102432 -0.24760985 0.33696032 -0.04979826 -0.18716462 0.012249596 -0.057831913 -0.2094498 -0.11907252 0.02348136 0.16295983 -0.23172978 -0.19860196 -0.21286073 0.07936587 -0.023730682 -0.45164233 0.047007754 0.48669532 0.1214818 0.043329712 -0.038647637 0.045928583 -0.035395745 0.03230468 -0.16742142 -0.24686292 -0.073647566 0.30961764 -0.09169194 0.08314912 0.37477463 0.20553741 -0.09054095 -0.06551642 -0.15296036 0.07110154 -0.41099125 0.07588542 0.20945072 -0.19766736 -0.05077642 0.015081963 0.10682225 0.07115019 0.34113833 0.12186925 -0.15055977 -0.33771566 -0.21152464 0.046387408 0.014006133 -0.0646592 -0.20034917 0.1746482 -0.07982582 -0.10171309 -0.12502193 0.120368786 -0.0484469 0.051074468 0.037127826 -0.28098693 0.071315944 0.4812635 -0.12991463 0.059534766 -0.33783534 -0.22047025 0.06751599 -0.008691619
he 0.13491659 -0.2310078 0.094173595 -0.0814664 -0.1075985 0.28722903 0.105055876 0.19323151 -0.053459786 -0.28012717 0.16601782 -0.3455431 -0.023151811 -0.0025645387 -0.12300289 0.11657687 0.053780194 0.15540408 0.08541123 -0.2241369 0.271391 -0.3347075 -0.43006063 0.2661558 0.12571019 -0.040971898 -0.1974843 -0.23174317 0.14649117 0.26141247 -0.18695268 0.13798626 -0.1548962 -0.18081993 -0.1532085 -0.006427679 -0.0010550189 -0.21650988 0.20045651 0.18908395 0.021190373 -0.32348102 -0.07116043 0.059767853 -0.016642326 -0.35997823 0.09677447 0.47112367 0.30428874 0.19747305 0.20692134 -0.17872703 -0.012427202 0.23572578 -0.29772672 0.09859635 -0.10231857 0.29319796 -0.10501394 0.18034482 0.3382203 0.20071702 -0.08873663 0.057137165 -0.25151977 -0.08836132 -0.4195959 0.061037995 -0.15211105 -0.29187164 0.1505902 -0.06386064 0.01279824 0.08881362 0.26218006 -0.0504894 -0.36613193 -0.05813716 0.13256398 0.0005994379 0.16270506 -0.2201526 -0.22499475 0.061508432 -0.2788279 -0.065224186 -0.2859666 -0.006786087 -0.020914385 0.37584376 -0.20906928 -0.23741418 0.0490105 0.31774136 0.038525585 0.06998909 -0.3586359 -0.20574932 0.19075803 -0.15794398
you 0.115827024 -0.21154003 -0.0019088321 -0.10560709 0.43585834 0.17776792 0.077149674 -0.35264093 -0.17635606 -0.3191567 0.022602597 -0.17388047 0.20510285 0.15363543 -0.1781517 0.27146965 -0.1734236 0.11527927 0.19514586 -0.13658407 0.6295162 -0.124780364 -0.29490644 0.05683666 -0.12944977 0.14845677 0.24068151 0.1790539 -0.09782274 -0.20569645 -0.044858605 0.3944104 -0.010225279 -0.12782837 -0.13645637 -0.22119892 -0.07823592 -0.089644626 -0.21088527 0.27118313 -0.31586838 -0.44744417 -0.16230074 -0.19956036 0.06522763 0.111030236 0.07865228 0.55078965 0.196084 0.35729402 -0.24145201 0.18501963 0.03314058 0.16238794 -0.35617432 -0.0700307 -0.28393736 -0.033090696 -0.031559877 -0.15794061 0.4529113 0.3074685 -0.11182828 -0.14119507 -0.13149735 0.40899506 -0.110967174 -0.027755296 0.080704294 0.08680827 0.0049972306 0.33530042 -0.092219695 -0.085004896 0.10686052 0.04587044 0.016432552 -0.16551107 -0.047979265 0.34237134 0.3266457 -0.010612748 -0.1263632 -0.06546329 0.21683379 -0.21694049 -0.48102197 0.029762551 0.19756158 0.42356616 -0.15720324 -0.039484493 -0.16694272 -0.100505516 0.025426267 0.09132269 -0.12400534 -0.6376423 0.26266772 -0.19825627
was 0.15749939 0.05052496 -0.1916136 -0.36971807 0.14862114 0.007988064 -0.30883092 0.09158017 -0.027829828 -0.44648868 -0.018250395 -0.23962973 0.08466468 -0.3189951 -0.06491151 0.30344227 0.11673688 0.3000395 -0.15103318 -0.008070986 0.00022787892 0.034791455 -0.063019246 0.033073816 0.07941554 0.31248724 -0.42865974 0.05335356 0.027626062 -0.13693453 0.1757717 -0.14938772 -0.054224957 -0.32260877 -0.055904407 0.17916916 0.15916398 -0.029633714 0.20949097 0.106124565 -0.3294889 -0.04303457 -0.11131022 0.026511181 -0.083139025 -0.27398205 0.2918984 0.49245226 -0.027958037 -0.0036109318 -0.08936738 -0.31144965 -0.4240012 0.33861625 -0.09844738 -0.14494546 -0.031121565 -0.16342117 0.11681941 0.21729484 0.27028298 0.12252876 -0.45225123 0.03956659 0.0058422973 0.013281911 0.07952952 0.06469898 0.14913467 0.26462814 0.26158985 0.13615973 -0.02434755 0.1522546 0.028331846 0.28070694 0.049754158 -0.27198794 -0.044549014 0.029582797 -0.1280683 -0.17485861 -0.17430386 -0.1469405 -0.13948677 0.06322408 -0.09890176 0.25809756 0.30114734 0.055928823 -0.09472029 0.15227847 -0.0016831056 0.16388083 0.121841036 0.20407666 -0.21437928 0.0121028675 0.34426636 0.1143308
his -0.070622414 -0.054955922 -0.048869062 0.1189826 -0.07490666 0.44097576 -0.19306411 0.118338935 -0.30403343 0.2723961 0.30140623 -0.0027531055 0.23966567 -0.30164734 0.28496295 0.027769035 0.17165229 -0.08769394 0.07568068 -0.19904956 0.069217846 0.3061489 -0.13149099 0.03558484 -0.075538136 -0.07735965 -0.1429203 -0.335454 -0.23196732 0.35410544 -0.34254214 0.13178374 -0.37648293 -0.2742372 -0.11750957 0.15859108 0.21660265 -0.0076280553 0.41998258 0.08893567 -0.46654695 -0.10915375 0.0065450966 0.03890172 -0.0032535628 -0.18648073 0.2821866 0.36716783 0.33170274 0.0685978 0.19319786 -0.08346616 0.25197986 0.19440421 -0.49826 -0.018283827 -0.37649387 -0.06038251 -0.17228565 -0.17628105 0.46706057 0.44605082 -0.35217416 0.41469973 -0.2647643 0.051060434 -0.107507944 0.06853397 -0.19854103 -0.23232538 0.14443046 0.128321 0.022404425 0.0617084 0.028548077 0.4314231 0.12293202 0.062351827 0.53487885 -0.026661295 -0.042904243 -0.30560893 0.048765562 0.20985357 -0.1107527 -0.17708449 -0.16173698 0.18822515 0.115386546 0.09722765 -0.16100742 -0.27923435 -0.12558372 0.6641192 0.41761324 0.30732685 -0.42654285 -0.014641049 0.16977948 -0.12505297
is 0.21029007 0.06679092 -0.18146382 0.07165018 0.21255173 -0.04570707 0.059580527 0.12000293 0.26443896 -0.4851362 -0.06825938 -0.20678587 0.05086175 -0.06215548 -0.01718158 0.15071191 0.37400684 0.39916342 -0.24918768 -0.19835019 0.24677235 0.18335204 0.028693378 0.5585446 -0.23854367 0.22883953 -0.16852577 0.24544527 -0.07043194 -0.3590239 0.15484267 0.075823426 0.28322762 -0.31693593 -0.06457121 -0.100353576 -0.1474388 -0.08822209 -0.1338717 0.20742622 -0.2932221 -0.15397401 -0.5331041 -0.04366486 0.34965542 -0.1419252 0.15856059 0.4533476 -0.10567181 0.1140564 -0.036459457 -0.010079288 -0.20586582 0.26525328 0.09074444 -0.21525246 0.010574792 -0.27257937 0.13971123 0.22324471 0.33117735 0.27414304 -0.29157558 -0.12682608 -0.17643438 0.23345533 0.073786266 -0.23553984 0.31960115 -0.17908376 0.37431622 0.03312482 0.16785787 -0.071920075 -0.08803478 0.53227514 0.11925834 -0.5268066 -0.020394517 0.3576376 0.15221225 -0.26217568 -0.27509397 0.07311607 0.010726778 -0.10570596 -0.38281858 -0.034500893 0.3176252 -0.07765271 -0.31444642 -0.013811828 0.06003654 0.3577426 0.1346526 -0.12470186 -0.17130464 -0.2593238 0.18323112 0.24915823
’ 0.31222683 0.22076711 -0.031052882 -0.109982446 0.4772034 0.11870059 0.43112615 -0.36058086 -0.14330438 -0.49385807 -0.16362372 -0.30792156 -0.02740969 0.08493687 -0.34626186 0.24292047 0.34355688 -0.40346405 -0.2123426 0.034642246 0.48860577 -0.18172823 0.061513413 0.27733925 0.4616812 0.18770422 -0.21488217 -0.32412356 0.09401332 -0.0012416017 0.5011731 0.11828663 -0.0042991973 -0.49342954 -0.004636628 -0.29592702 -0.016961757 -0.12768671 -0.057487156 0.017880453 -0.022655714 -0.20649628 -0.15890004 0.07930751 -0.29870933 -0.5145467 -0.100338295 0.76057637 0.08023834 -0.1089528 -0.18148588 -0.09756705 0.0035875316 0.24043109 0.17969711 -0.18370907 0.133888 0.23967217 0.0153798405 -0.12329881 0.41016647 0.21404475 0.2991514 0.0028116475 -0.09303102 -0.03529414 -0.14719594 -0.34869674 0.6646146 -0.20554993 0.5108438 0.050177332 -0.11633111 -0.20451592 0.4808953 0.20720243 -0.30427566 0.053890396 -0.25598928 0.40748852 0.046077408 -0.33958727 0.20849933 0.21866018 0.25733006 -0.25334066 -0.31531042 0.47627053 0.46802917 0.26894444 -0.35197145 -0.049495067 -0.43334398 0.16272123 0.48221666 -0.20285887 0.052065156 -0.2165623 0.12596586 0.19554049
my -0.03058904 9.3381226e-05 0.32301968 -0.25404996 0.1764546 0.134564 0.11239358 -0.07605324 -0.29046717 0.029747728 0.119768895 -0.17422777 0.3650808 0.14898567 0.045872312 -0.25221273 0.043271627 -0.30457842 0.039293036 0.16122015 0.083605215 0.050078005 0.024061844 -0.04411797 0.028600445 0.048432603 -0.43592775 -0.19438584 -0.3740141 0.16531761 0.1031874 0.3790618 -0.16444018 -0.60511744 -0.48345593 -0.07919735 0.47031158 -0.11175914 0.15311146 0.08203668 -0.4366661 0.17309204 -0.31148398 0.1885639 -0.13080496 -0.190138 0.32516816 0.5458159 0.51721466 0.34379026 0.15892172 -0.020661581 0.34677875 0.37478155 -0.20677751 -0.08695812 -0.29388103 0.0070370706 -0.075400256 0.13166404 0.30352032 0.3092466 -0.26347527 0.11083878 0.070622206 0.11301167 -0.34727433 0.2508212 0.13618506 0.08569817 -0.20140123 0.20143713 -0.1047489 0.24171147 -0.010231977 0.11616542 -0.18199648 -0.06401095 0.02395367 0.09238764 -0.12004151 -0.24381153 0.18805905 -0.212442 0.16821298 -0.24457347 -0.07634979 0.3305857 -0.113938816 0.070657745 -0.34368283 -0.2765789 -0.18488869 0.21340938 0.03427844 0.016567828 0.0404869 -0.44995275 0.12654951 0.20452917
have 0.17631105 -0.02723309 0.45077217 -0.13405962 -0.11821267 0.0356685 0.17547247 0.059908267 0.32802063 -0.08439099 0.031173598 -0.13502902 0.331647 0.010770364 -0.22241813 0.006175902 -0.18360135 0.34519032 0.15032972 0.020221904 0.35820988 -0.1313773 -0.51451033 0.213292 -0.16121197 0.45720738 -0.21160448 0.25178435 0.24532373 -0.25149363 -0.4794086 -0.17259493 0.15272407 -0.2082036 -0.060856737 0.015703976 0.23272692 -0.13877237 -0.11682284 -0.1882904 -0.47779512 -0.19976857 0.0757402 -0.17367527 0.5221547 -0.42614937 0.09573408 0.66363823 0.23210505 0.41293582 -0.08092778 0.122155905 -0.025317084 -0.14954172 -0.06308167 0.03197904 -0.43037906 0.39964202 0.08123596 0.28444472 0.15964843 0.041688707 0.040977288 -0.16467045 0.17349096 0.06774892 -0.05388329 0.18083033 0.36251503 -0.02515879 0.018376503 0.121097624 0.015116341 0.29167467 0.019858493 0.07036443 0.10793069 0.012179232 -0.099980004 -0.13422027 0.14553773 -0.1130292 -0.14167528 0.025447696 0.05320734 -0.39098245 -0.5281963 0.3002534 0.18253465 0.017199831 0.002561607 0.2230284 -0.1633011 -0.11831243 0.09997312 0.14229862 0.04039614 -0.31530112 0.42887768 0.14037067
as 0.36324343 -0.07405914 0.15134686 -0.106363 -0.04289806 0.014840473 0.22491677 -0.072046705 0.05066023 0.1370992 0.05322301 0.051421035 0.015736766 0.07137139 0.07196808 0.14054118 0.15218648 0.16163248 0.0534833 -0.053803824 0.09996938 -0.36623418 -0.08071084 0.12586053 -0.059475277 0.2921774 0.16894718 -0.12114879 -0.15076286 -0.25805148 -0.27485698 0.026097422 -0.28739327 -0.05399414 -0.1587078 -0.17247026 0.23669891 -0.26083857 0.06762696 -0.10632217 -0.098053634 -0.08966123 -0.04273913 -0.061048985 -0.17390068 -0.23933594 -0.09540035 0.5096006 -0.024675872 0.408368 -0.29221255 -0.008471634 -0.1519239 0.54957676 -0.08957948 -0.07480239 0.084424414 -0.009100171 0.14364216 0.030609429 0.1725573 0.62884814 -0.1499772 -0.067000546 0.059637435 0.035483595 0.14362562 -0.22211707 0.12145035 0.03856918 -0.1114521 0.32781613 -0.12708353 -0.13701424 0.115339234 0.14587505 -0.14930056 -0.03972862 0.20430698 0.022982966 -0.008124555 -0.040263806 -0.10521196 0.29619235 0.067746244 -0.31715894 -0.16438638 0.0769486 0.38281143 0.1121699 0.022642529 -0.21047328 0.4016655 0.31637225 0.18067302 0.22592601 -0.06158986 -0.18514207 0.42694616 -0.34882286
had 0.079931825 -0.033882454 0.16236289 -0.25378677 -0.028613696 0.23883311 -0.21143882 0.24858561 0.09399332 -0.06280193 0.10780474 -0.52924365 0.24789427 -0.27806678 -0.15363656 0.22649525 -0.04920298 0.4791244 0.0811379 0.17835623 0.054997243 0.05283459 -0.12865576 0.19482626 0.019380618 0.45876318 -0.17633586 -0.072223276 0.06600451 -0.22875795 -0.51491404 -0.19774447 -0.03891765 -0.10771007 0.08113943 0.3362043 0.2764153 -0.2508123 0.08951892 -0.08476137 -0.3587108 0.028129002 0.10481787 -0.08456739 0.13194394 -0.5559778 0.08866466 0.488039 0.057961505 0.3281878 -0.07958107 0.028787762 -0.028509475 0.028155655 -0.24474764 0.05348565 -0.2775163 0.15255721 -0.013498433 0.18062492 0.1569728 0.32891518 -0.353004 0.01293097 0.19684577 -0.11316605 -0.1276442 0.017460069 0.29434887 0.24668066 0.08828706 -0.09280539 -0.13921136 0.39798093 0.16287547 0.23215894 0.17805439 0.12936212 0.1211343 -0.1003307 -0.22991192 -0.10499798 -0.07750479 -0.02436253 -0.33616552 -0.10981604 -0.09569954 0.2896211 0.256529 0.1426963 -0.085594885 0.35663477 0.20418824 -0.092618294 0.2688047 0.27603486 -0.26396096 0.0941855 0.39385578 0.0023975272
with 0.089244895 0.09335304 0.2661022 -0.2352365 0.05791453 0.2873186 0.094233826 0.23646097 -0.10725342 -0.18813992 0.17901072 0.022592375 0.011088204 -0.008515356 0.25903675 0.07519219 -0.04687848 0.22687718 0.061871316 -0.1922953 -0.020575741 0.0178636 0.085521325 0.2810421 -0.077997334 0.0642063 -0.04848065 0.06914407 0.09416171 0.23575264 -0.10242 -0.014093459 -0.0489619 -0.3475923 0.090895474 0.18178466 0.07117647 -0.2609996 0.27633274 -0.08115244 -0.4242394 -0.10924988 -0.05190164 0.02653075 -0.1230294 0.07513347 0.10835591 0.37810472 0.26980934 0.2809236 0.19381797 0.13255101 -0.18701117 0.12714788 -0.2516712 -0.15565844 -0.0458553 0.11327109 -0.027435025 0.0120740365 0.19126153 0.18955858 -0.2704522 0.24181263 0.081904314 0.17556518 0.2717035 -0.06345283 -0.056739196 -0.091529764 0.26310018 0.027509341 -0.05439786 -0.22894433 0.37320662 0.24643987 0.17360093 -0.05695288 0.10171732 0.07175839 0.22897191 -0.027711263 0.020602051 0.12109597 -0.07809999 0.007259617 -0.026525922 0.00048919226 0.101178974 0.048854955 -0.15195948 -0.3112929 -0.022726707 0.38198408 0.21022086 -0.006075224 0.08319513 0.15906975 0.17856407 -0.030968616
which 0.14417604 -0.16423497 0.3890158 -0.4002351 0.12565301 0.18114176 0.3486065 -0.0085661225 -0.12578675 0.10937976 0.04536513 0.021195622 0.009916952 0.08985958 0.14470722 0.03186782 0.02568941 0.24478798 0.2951304 -0.24939393 0.2227728 -0.06956741 -0.2653511 0.054733824 -0.15045798 -0.2106687 -0.18821612 -0.05633472 -0.072936706 0.20678361 -0.22588246 0.05002523 -0.19091664 -0.44238862 -0.14594103 0.064619265 0.19922619 -0.09342328 -0.14383695 -0.27790266 -0.33597115 -0.19085918 -0.019673888 -0.17755319 -0.20160836 -0.066658296 0.01649496 0.43537012 -0.032430056 0.40934205 -0.15462337 -0.13962547 -0.13705754 -0.001910007 -0.3228472 -0.11514652 -0.28087556 0.10104948 -0.10318135 0.094992384 0.4431246 -0.051057626 -0.1138142 -0.15642835 0.32552344 0.45105803 0.1886708 0.041624483 0.22770917 0.29334873 -0.066706136 0.042146254 0.066116445 -0.08209989 -0.3460808 -0.021883518 -0.012438391 -0.18885699 -0.11145889 0.0155129945 -0.29867405 -0.21152379 0.034972016 -0.21342765 -0.13173708 -0.10666215 0.0062647387 -0.029444758 0.06575723 0.12033695 -0.016760329 -0.31516457 0.07419987 0.20782223 -0.03396229 0.08608605 -0.13765548 0.120626494 0.08615829 0.08610683
at 0.37443998 -0.20933574 -0.035419762 -0.3818226 0.14413081 0.47994304 0.020482093 0.051234882 -0.15541543 -0.3581831 0.02201874 -0.22495914 -0.10244331 0.1905997 -0.0026714848 0.32452163 -0.021564942 0.18009162 0.22837786 -0.113490805 0.02808664 -0.13197859 -0.04628435 -0.028921023 0.27580297 0.09705084 -0.18166241 0.281912 0.27996784 0.15931576 0.23073196 0.29121536 -0.25150532 -0.6240184 -0.1503462 0.14819773 0.16246745 -0.63373387 0.088705614 -0.124508716 -0.08495523 -0.19903804 0.09024108 0.17388748 -0.19168705 -0.46662486 -0.39398718 0.4884309 -0.015286865 -0.17810643 -0.048755888 0.009467941 0.15477736 0.013829845 -0.16248699 0.09746967 -0.2215239 0.14363144 -0.08179667 -0.01943994 -0.021856641 0.02472529 -0.46626505 0.09441451 0.19453673 0.23983252 0.1281906 -0.059852812 -0.1501843 0.30313206 0.22215247 0.16314963 -0.18964359 -0.22388557 0.43084925 0.07945477 0.03168856 -0.3466255 -0.0810352 0.07663344 0.010206638 -0.1874284 -0.08300563 0.07461155 0.19577727 -0.072075926 -0.08594852 0.01761259 -0.0439086 0.15265492 0.1327994 0.10437825 -0.18497765 0.21585993 0.21997961 -0.10747133 0.27489498 -0.053727638 0.20118836 0.25074714
? 0.17197418 0.14784811 0.046881586 -0.17928857 0.6780117 -0.10304661 0.012729553 -0.2375871 -0.029998157 -0.217658 0.17799549 -0.2524078 0.31471574 0.51436985 -0.24263567 0.31712055 -0.018193953 0.19384068 0.26574042 -0.3649895 0.43883273 -0.36732286 -0.6004579 0.5251677 -0.12946407 -0.066154875 -0.15277712 0.09090701 -0.4001697 -0.19259082 -0.10854545 0.4360209 0.3505606 -0.089752704 -0.21571803 0.33905557 -0.15541081 -0.20063165 0.14381419 -0.13227655 -0.46888703 -0.51076275 -0.2622378 -0.020198354 -0.13484564 -0.28840756 -0.2159431 0.19753459 0.27708122 0.30196074 0.057418566 -0.14722165 0.18148991 0.17638767 -0.030660728 -0.373231 -0.115762286 -0.02915519 0.29356462 -0.13821337 0.17657787 0.13455167 -0.27032125 -0.32840747 0.062362242 0.29720798 0.10955901 0.22053473 0.15594527 -0.34556583 0.3526606 -0.08758207 -0.12182673 0.23429035 0.41350964 0.043295003 0.22621444 0.19205612 0.27858588 0.58004236 0.044207525 -0.19710054 -0.28088596 0.17704129 0.2356488 0.16772537 -0.12305488 0.2851658 0.017435074 0.38837436 -0.08601227 0.3040468 0.28128922 0.18981099 0.48572856 -0.08887673 0.38384515 -0.31241682 0.05902289 -0.11489404
for 0.1215147 -0.2292071 0.06852334 -0.08886261 -0.02633783 0.19595875 0.124656014 -0.102520935 -0.008586745 -0.34721556 -0.08742504 -0.16015968 0.090270124 0.0205659 -0.2489542 0.18313648 0.037841573 0.065511964 0.2584388 -0.083481714 0.14504912 -0.23585564 -0.17031509 0.30075517 0.24595955 0.00243912 -0.06699774 0.055246662 0.49396756 0.1385499 0.08456372 0.19544376 0.010904921 -0.41273513 0.1608155 -0.24820134 0.0442495 -0.30867025 0.16053756 -0.0655515 -0.46523893 -0.13593453 -0.17147325 -0.10014229 -0.09736854 -0.31422123 -0.0053012134 0.3958929 0.17085378 0.26456702 -0.049841147 0.16233744 0.068991356 0.12358844 -0.38602066 -0.0823395 0.09081033 0.19582511 -0.04241289 0.08210737 0.1724661 0.20277627 0.04337607 0.06411053 0.032270443 -0.16582614 0.1717019 0.012443388 0.18774527 -0.0054661273 -0.18189918 0.074762404 -0.119743936 0.17728715 0.30164647 0.2628549 -0.012287303 0.05707291 -0.14206293 -0.027841115 0.053844653 -0.23463653 0.066690214 -0.036750667 -0.084912546 -0.10304703 -0.30608547 0.16428593 -0.05073435 0.03132614 -0.18961339 0.09967737 -0.062056083 0.24446623 0.04223643 0.033750087 -0.11860863 0.06092216 0.4225541 0.087228976
not -0.12709337 -0.01762528 -0.24975309 0.17745645 0.38380113 0.036443215 0.25460318 -0.06372869 0.057917614 -0.3091862 0.15074801 -0.18897748 0.10640484 0.07356154 -0.15927194 0.2887359 0.02832016 0.14210302 0.28751093 -0.07061824 0.12753312 -0.19793123 -0.48452204 0.08921154 0.09419878 -0.027732601 -0.15479937 0.04714718 0.3656949 -0.19338137 -0.15932567 0.27256194 0.1449179 -0.3161553 -0.121132 0.06452247 -0.10478215 -0.208684 0.06601752 0.124647476 -0.4792032 -0.21986923 0.076805264 -0.22915998 0.03830556 0.059691247 0.18568046 0.6391529 -0.06254547 0.52452374 -0.16358599 0.11995614 -0.43954906 0.244107 0.0067723617 0.12352396 -0.30357972 0.22919972 -0.06818389 0.073407315 0.46350676 0.16635184 -0.05433938 -0.4884961 0.0040904456 0.21926354 0.058851615 -0.05703668 0.27392626 -0.098813064 0.17342457 0.4676571 -0.17499547 0.30762807 0.01795384 0.049917355 -0.08497316 0.021911174 0.052093465 0.32040828 0.1694521 0.013568375 -0.10158723 0.06416855 0.1843392 -0.20050669 0.16708615 0.102703646 0.19109802 0.20590636 -0.19408041 -0.055451334 0.16809519 0.4163873 0.14467603 0.19273815 -0.06644558 -0.4334039 0.3305045 -0.11957476
but 0.25536144 -0.028751014 0.101136364 -0.1364824 0.07372381 0.20204407 -0.09219289 -0.032086987 -0.011826581 -0.18090506 -0.08249785 -0.025055239 -0.056002893 0.13468146 -0.19574517 0.09978474 -0.15076937 0.17338744 0.07127523 -0.011719125 -0.04355883 -0.3115785 -0.23618306 0.1695483 0.15458277 -0.13431627 -0.018354071 -0.0764898 -0.1476945 0.034681186 -0.002010029 0.1294475 -0.0040107556 -0.18768623 -0.085148625 -0.23833965 -0.0983771 -0.34342948 0.14824791 -0.14503193 -0.37694046 -0.2592209 -0.21288131 -0.050827354 -0.2265572 -0.5780405 -0.034654126 0.30518472 0.05372223 0.10038935 -0.28667542 -0.004254472 -0.122350484 0.0077261287 -0.37449002 -0.20788026 -0.30988145 0.15390597 0.013429672 0.115775995 0.3147108 0.39704046 -0.12550054 -0.14426915 -0.0057118074 -0.24172412 -0.059200723 -0.046657365 0.085038126 0.06214824 0.18124725 0.19026715 0.18534288 0.20472282 0.012754265 0.23428147 -0.12556492 -0.14095545 -0.19457069 0.17374642 0.002735737 -0.113303274 -0.3839868 -0.019727748 -0.17224745 -0.14850697 -0.20949039 0.13352552 0.25144312 0.24278304 -0.09650827 0.10826269 0.2849992 0.29183057 -0.051659033 -0.07561642 -0.21312474 -0.1691911 0.3744724 0.29118976
be -0.12208284 -0.2630106 -0.0575185 -0.09133322 -0.17009555 0.037700176 0.099363275 -0.15375279 0.079708055 -0.2509784 0.30086136 0.24268684 -0.116872676 -0.0040518525 -0.18731816 0.3135662 0.07570824 0.3407847 0.09701624 -0.27614975 0.100300744 -0.38678935 -0.21690074 -0.055590093 0.024842659 0.26435357 -0.0903652 0.18887188 -0.012752733 -0.446389 -0.044767063 -0.22605331 -0.15975758 -0.27977324 -0.059244055 0.022299485 -0.21413434 0.09326315 -0.15830941 0.11933506 -0.3420676 0.030074427 -0.15142012 -0.25494027 0.3642108 -0.16811812 0.19095816 0.33776632 0.12493798 -0.026487969 -0.1721645 -0.026928293 -0.11557878 0.17836003 -0.3133828 -0.12496154 -0.11333243 0.07592758 -0.19640893 0.12707472 0.48790482 -0.06805892 -0.21099328 -0.005294926 0.01931881 0.018155284 0.2307262 0.05069803 0.28596893 0.15751238 0.11561814 0.2608782 0.1344417 0.28088835 0.12200274 0.27932292 0.05874516 -0.59594285 0.07564648 -0.1305205 0.16828552 -0.44646755 -0.15491322 0.03697075 0.051854998 -0.027684871 -0.6011137 0.13219264 0.34107435 0.26924226 0.06341059 -0.13208449 -0.36768752 0.39514664 0.07711353 0.037869316 -0.023253206 -0.30275542 0.6585165 -0.025697123
me 0.19163719 -0.068691045 0.27887914 -0.21951762 0.26054177 0.36616457 0.20061815 -0.33131158 -0.06367623 0.0072479867 0.19162112 -0.133231 -0.044222496 -0.24243829 0.14851482 0.03624136 -0.12172616 0.12415068 0.1384904 -0.17915529 0.3305478 -0.21071157 -0.20597118 -0.14649084 0.24369378 0.07594127 -0.1085907 -0.28535515 0.20420383 -0.14932564 0.008636786 0.1324922 -0.21642077 -0.36713037 -0.15465127 0.041084107 0.29520997 -0.07635878 0.060695924 0.05807037 -0.33582804 -0.42150792 -0.04503195 -0.12187645 0.004916158 -0.3045331 0.15297909 0.29932317 -0.15291795 0.10976334 0.29284748 -0.0024682162 0.15164496 0.36464974 -0.46456903 -0.3111813 -0.28131053 0.2751924 -0.022026354 -0.07429886 0.47495106 0.114165805 -0.36201215 0.12162959 0.14013964 0.12121529 -0.2930249 0.09974815 0.12350702 -0.029704692 0.10628719 -0.15919738 -0.09872339 0.43091995 0.059108596 -0.15791117 -0.122094914 -0.05191508 0.009412462 0.16014539 0.010710306 -0.07994219 -0.34276944 -0.011741599 0.19041675 -0.18017538 -0.26762733 0.15327151 0.26080295 0.16919954 -0.23020609 0.09065443 -0.1229185 0.18144663 -0.11431598 -0.08526643 -0.5877327 -0.24923903 -0.010064327 -0.14287816
we 0.47652695 0.2743957 0.31798598 -0.02470733 -0.24258326 0.1498476 -0.103007056 -0.40743643 0.3678411 -0.13275695 -0.4099678 -0.43679583 0.051887076 0.18007496 -0.23764385 0.15528426 -0.28327575 0.05987199 -0.07938875 -0.10063328 0.5221214 -0.59954363 -0.095617265 -0.048703138 -0.23380005 0.43218115 0.10005177 0.21900532 0.22001027 -0.12773219 0.061409142 0.16619216 -0.2596253 -0.5607401 0.075747 -0.099104315 -0.37766546 -0.52351093 -0.050623685 0.14826295 -0.18322232 -0.15223034 0.24242246 0.1894698 0.1718433 -0.15452419 -0.40683448 0.074492194 0.37333018 -0.074419014 -0.22792706 0.27650452 0.025783049 0.42448145 -0.5095661 0.09829187 0.28964388 0.23611201 -0.2855631 0.38246548 0.43596822 0.4541477 -0.4701416 -0.15704839 -0.042915482 -0.19945075 0.17945142 -0.4929796 -0.1515836 0.37596625 -0.32800993 0.3267072 -0.0101234615 -0.090746775 0.3390329 0.25198272 0.17927738 -0.33224383 0.045625374 0.27887693 0.07529144 -0.18722956 -0.07131871 0.024473019 0.15198533 0.19062656 -0.2704162 -0.1049294 -0.19837625 0.24893555 0.28483766 -0.023395581 0.019268338 0.17226808 -0.012947435 0.1380429 -0.14700243 -0.5942242 0.14808603 -0.17309546
there 0.39744395 -0.08626101 0.039195165 0.017157298 0.3032418 0.29919922 0.10271198 -0.0860848 0.41915846 -0.13452707 -0.13361111 -0.49154928 0.007286394 0.17022884 -0.018621705 0.39189056 -0.16585669 0.1954124 -0.029883234 -0.20661713 0.1590542 -0.20000853 -0.20338006 0.46037394 -0.021202365 0.06408388 0.18965438 0.3907336 0.15687346 -0.05030706 -0.12722763 0.3956678 -0.31080732 -0.16067898 0.08116795 0.24177918 -0.1855341 -0.090608746 -0.04807986 -0.08124643 -0.4845033 -0.4389573 0.0037185538 -0.17143905 0.08359988 -0.13892871 0.34994364 0.1266864 0.13458766 -0.12703682 -0.03355857 -0.041538265 -0.4610345 0.14629993 -0.4041374 -0.1355169 0.20838697 0.24502759 -0.23423313 0.1566877 0.31161264 0.038573325 -0.093577355 0.1335435 0.15417701 0.09216578 -0.039050415 0.08448842 -0.14329445 -0.26924133 0.24166247 0.16784412 0.12409293 -0.07550611 0.32799697 0.38094229 0.044693924 0.17033736 -0.17999509 -0.030292723 -0.21269949 -0.26149434 0.050924364 -0.014953215 -0.027534932 -0.21940462 -0.2535921 0.14969611 0.06672817 0.15004331 0.07172189 -0.41912836 0.354763 0.06405357 -0.02925632 0.20022891 -0.02783342 0.037287757 0.27121246 0.01938407
from 0.26042095 0.100673586 0.23389764 -0.57680875 0.07858637 0.44005206 -0.082349345 0.26372993 -0.111223266 -0.17331347 0.31456134 -0.12937245 0.0038386714 -0.16359667 0.056205098 0.14397378 0.056277957 0.41502652 0.025837809 -0.08522497 0.17729414 0.00556918 -0.053714406 0.232571 -0.17178486 0.07006163 -0.19936146 0.09798056 -0.033952814 0.085240476 -0.18847133 -0.08051617 -0.11639278 -0.33339363 0.1124302 0.05293178 -0.08785188 -0.47717938 -0.12440008 0.0074145687 -0.13736057 -0.0016181704 -0.034542974 0.00020605416 -0.13521948 -0.18511581 -0.25107545 0.26822156 0.017099986 0.11590892 -0.022311993 0.011454669 -0.07906017 0.2505224 -0.18324406 -0.15217718 0.01982094 0.004442751 -0.0035319894 -0.031001708 0.34444985 0.29907638 -0.079500794 -0.16799575 -0.03824268 0.26827055 -0.018115912 -0.030811204 0.039979827 0.25111994 0.04090664 0.13778713 0.0681666 -0.09058473 0.35058156 -0.034410473 -0.075740285 -0.26440594 -0.074139595 0.2379962 -0.19163626 -0.08628376 -0.05224038 0.029168619 0.06012414 -0.08969362 -0.13103639 -0.03471952 0.15162441 0.1322916 -0.025611766 0.08655254 0.24319205 0.46935475 0.0771778 -0.009155477 -0.12394573 0.2091072 0.033122916 -0.027486594
said 0.1107393 -0.043507207 -0.27089962 0.25910434 0.41937682 0.010972895 0.14524056 -0.19334951 0.010027123 0.15783288 -0.21253493 0.11591461 -0.18990344 -0.06399632 0.0910409 0.07217977 -0.058535874 0.24094081 -0.0061992696 -0.12966326 0.44648618 0.29661506 -0.1407787 0.018293252 -0.105644606 -0.17187491 0.16616821 0.3817111 0.06012789 -0.40064314 -0.05527303 0.32298195 -0.008031404 -0.3692818 0.059999038 -0.4143928 0.15241723 -0.16892797 0.23280412 0.009319724 -0.47340688 -0.6084976 -0.31115308 0.08400154 -0.17327736 -0.3577092 -0.3611762 0.5886877 0.1102881 0.104522884 -0.040261377 -0.22562101 -0.012066591 0.28680283 -0.19619085 -0.40979427 -0.3010106 0.37748605 0.14939152 0.009360655 0.725616 0.6626746 -0.16524245 -0.053494997 -0.087493755 0.08244949 0.33867383 -0.09365686 0.13221914 0.10711533 0.22521794 -0.17330326 0.27720875 0.059623044 0.1927391 0.5306499 0.3415495 0.25947353 -0.028297123 0.2218991 0.19021322 -0.09484959 0.1659729 0.04450373 0.14538255 -0.32832646 -0.19682366 0.07488909 -0.02028444 0.062274713 -0.15852001 0.26442197 -0.20694894 0.107294895 0.473599 -0.13067794 -0.028231477 -0.75389856 0.31692156 0.015027424
this 0.38128272 0.0640852 0.11500493 0.0137131475 0.17075787 -0.26846346 0.1160936 -0.2830388 0.050076656 -0.008857027 0.14091955 -0.46414584 0.38889182 0.3135213 -0.2519725 0.011426801 0.28329298 0.080742896 0.16117685 -0.32207158 0.14121239 -0.10018059 0.08204763 0.15893629 -0.21893238 0.2196171 -0.065090284 0.14248519 0.20802243 0.035768755 -0.24016918 0.037006337 0.22439595 -0.37889364 0.047095023 0.20464821 -0.16802104 0.14638396 0.06642151 -0.061547156 -0.20279111 -0.27180067 -0.09493393 -0.023935843 0.0756113 -0.16246162 0.09112951 0.47020966 0.23612766 0.28238568 -0.15847658 0.253996 0.07796223 0.027262233 -0.26037222 -0.34695244 0.02198736 0.04279416 -0.077224545 0.15740092 0.55560106 0.08869028 -0.2594589 -0.06052859 -0.09991193 0.24418297 0.19843617 0.01876849 0.4186733 0.0073394827 -0.14872865 -0.2822911 0.19864537 -0.054549925 0.34761804 0.2515986 0.15671782 -0.29195485 0.050774097 -0.16271982 0.040179837 -0.14596206 -0.113766216 -0.017428992 0.022413958 -0.02092082 -0.11615036 0.104661785 0.077098005 0.4288033 -0.09773101 -0.0499345 0.123298965 0.30432475 -0.06731139 0.0904655 -0.08457097 -0.07939571 -0.21973744 0.22617078
upon 0.0022607336 0.077696584 -0.025541533 -0.42405277 -0.09363762 0.4621355 0.3561366 0.15689026 -0.13836932 -0.2564671 0.108637236 -0.22377755 0.041785076 0.005420973 0.30634373 0.093074135 0.18829603 0.08236462 -0.027788017 -0.14343373 -0.11535241 0.35673946 0.01048682 0.33498007 -0.035242617 -0.0040735146 -0.115407795 -0.07915419 -0.07625534 0.20048715 -0.14696711 0.25340888 -0.08396668 -0.5581794 0.2402056 0.03650217 0.0037148048 -0.22468777 -0.1487899 -0.17985816 -0.31971556 -0.002064367 0.008817457 -0.092910826 -0.24918316 0.19084053 0.12774482 0.412207 0.10046335 0.3375897 -0.15066732 0.1127066 0.160326 0.0971225 -0.3442133 -0.29702926 -0.29697084 -0.05870448 0.2173185 -0.13089387 0.20406048 0.19893691 -0.071984895 -0.1885008 0.027604718 0.44146082 0.36087707 0.3051006 -0.07259136 0.24533726 -0.17926571 0.14899118 0.16701192 -0.27424994 0.4068365 0.30829385 0.268203 -0.35420915 -0.25001046 -0.0622662 -0.0084232185 -0.04847566 0.12977374 -0.149375 0.041971285 0.04990591 -0.17291395 -0.15306944 -0.041916244 -0.09096421 -0.301042 -0.23573205 -0.023913732 0.3442326 0.11870549 0.038780972 -0.23595269 -0.18012452 -0.06880182 -0.22036996
holmes 0.08736976 0.07471904 0.16710046 -0.044444114 0.0067331805 0.3920493 -0.019014532 -0.012458476 -0.041007295 -0.16499387 -0.18610574 0.22233835 0.21821554 -0.20667873 0.10380631 -0.23117417 -0.49805313 0.07876706 0.2217272 -0.080176376 0.26291308 -0.25892216 -0.3549932 -0.09151987 0.11803309 0.29007736 -0.021168467 0.11442813 0.42212522 0.6113653 -0.28381577 0.0015945649 -0.034346376 -0.48321226 -0.23716862 -0.1173796 0.13380836 -0.07688457 0.26487422 -0.30049533 0.018473621 -0.2966577 -0.044696085 0.020762494 -0.13582924 -0.04233376 -0.24226429 0.65319437 0.44196266 0.24309957 0.26461223 0.011617305 -0.13845736 0.2956418 -0.087498784 0.099144965 -0.26500997 -0.034111258 -0.08405151 0.22352007 0.49886975 0.5468122 -0.39936736 -0.44762504 -0.056539286 0.33031604 -0.35226053 0.5011009 -0.13428646 -0.17337935 0.3603888 0.01457943 0.054702222 -0.1513523 -0.08144489 0.6212596 0.03420502 -0.106013976 0.01019721 -0.19028006 0.2511284 -0.076602384 -0.11347002 0.21641807 0.25045982 -0.44862482 -0.25284618 -0.07812725 -0.11310019 0.6203031 -0.20280053 0.18520355 0.08259119 0.21665494 0.108324446 0.17466938 0.0855463 -0.21805981 -0.08328844 -0.15915506
‘ 0.21324173 -0.28032488 0.16117555 -0.13236417 0.4615519 0.2386246 0.33484417 -0.014178649 0.42100734 -0.49590892 0.05145982 0.026064713 -0.0140312575 0.06146756 -0.4606903 0.15794289 0.5743279 0.08330432 -0.30554858 -0.033275 0.58968323 -0.10176132 -0.012197057 0.25633323 -0.14628787 0.13011132 -0.11732507 -0.039405078 0.08755851 -0.2907116 0.59737694 0.3827558 -0.29414243 -0.22610028 -0.25251642 -0.34237087 -0.12930705 -0.2916662 -0.27521938 0.12371915 -0.059155058 -0.6222907 -0.10931443 -0.10659616 -0.050189927 -0.46518764 0.04238559 0.86720073 0.3330922 0.13417009 0.015275582 -0.0017340662 0.09046054 0.10170524 -0.017375588 -0.32605243 -0.09040287 0.08444233 -0.04622882 -0.015246121 0.79469335 -0.18442783 0.23059511 0.32081467 0.09222064 0.36509407 -0.17820765 -0.3185454 0.63700354 -0.6456656 0.9009066 0.034224696 -0.12807319 -0.31618422 0.21622886 0.004024185 -0.46089152 -0.1518041 -0.2473917 0.23088565 0.1085186 -0.019911392 0.04956823 0.57125515 0.06871327 -0.1704748 -0.32804132 0.08484028 0.30600446 0.30967805 -0.097187825 0.20128891 -0.20921753 0.29503903 0.39832243 -0.24604622 0.25610006 -0.28015214 0.029751526 0.26621503
so 0.09398367 -0.04263463 0.11563231 -0.042522606 0.0807631 0.019258229 -0.044470545 0.043921765 0.18484765 -0.21027048 -0.058067985 -0.06379647 -0.26620254 0.15911624 -0.25879 0.1471313 0.012994616 0.1538732 0.06266195 -0.15774895 -0.058872044 -0.33625513 -0.001963452 -0.11358302 0.14717805 0.17737497 -0.11599437 0.10891071 0.057092126 -0.2795788 -0.12126548 0.13549343 -0.1818413 -0.44783157 -0.2644505 -0.24380678 0.027732173 -0.14462371 0.23592633 0.06482422 -0.47773662 -0.23515342 -0.16681667 0.104769796 0.015106174 -0.09105152 0.10693752 0.51880044 -0.0059640077 0.11725227 -0.045572694 0.07147399 -0.10313932 0.13756643 -0.2144787 -0.11033025 0.07179672 0.21400522 -0.10147583 0.23316315 0.33143842 0.18566522 -0.020865943 -0.31806666 0.21424808 0.06512696 -0.17040466 -0.18521939 0.10253809 0.07507111 -0.1944892 0.23361602 -0.17229824 0.2206412 0.065353744 0.15193895 -0.13370487 -0.1245998 0.035405926 0.2365153 0.2041409 -0.01161922 0.024044223 0.08495711 -0.092454985 -0.262971 -0.1086154 0.0010920845 -0.015679423 0.029267432 -0.05368037 -0.0903802 0.09464134 0.42499685 -0.04673004 0.24066617 -0.1583475 -0.25719842 0.6293781 -0.21523543
she -0.23892856 -0.16181809 0.46035716 -0.15810338 0.21119653 0.1733203 0.043224104 0.053178854 -0.05287642 -0.109243564 0.3571866 -0.7534499 -0.0027871423 0.6137598 -0.31651247 0.16110727 -0.393219 0.2767388 -0.42994156 -0.13677204 -0.17809324 -0.512847 0.018901039 0.22099715 0.22190075 0.24628903 0.32960626 -0.09738081 0.1287222 0.19259964 0.24830545 0.19233723 0.030717453 -0.3762787 -0.1621377 0.37144154 0.04832835 -0.2467843 0.21385548 0.2787224 -0.26116437 -0.20570472 -0.3221977 0.1897008 0.17436841 -0.38423628 0.1534035 -0.017692858 -0.043256063 0.47505623 0.109014526 -0.08717065 -0.0050691688 0.21006387 -0.5505534 -0.028001204 -0.124839514 0.28250518 -0.43419033 0.16755114 0.23406981 0.19971992 -0.29647347 -0.31017023 -0.026168013 0.19635561 -0.33503997 0.3257241 -0.2128288 -0.046394948 0.38195914 0.06503532 -0.4628507 0.30736598 0.24286501 -0.23870741 -0.17037335 -0.3128253 0.074987955 0.06372213 0.005492758 -0.18494195 -0.09188578 0.1821119 -0.004085445 -0.22352044 0.11743211 0.1829838 0.22508585 0.7255997 -0.32789463 -0.10314252 0.17648554 0.27780822 0.054513704 0.10507952 -0.2583134 -0.5236055 0.2521905 0.019100219
her -0.2872135 0.044103697 0.20996943 0.09704235 0.4247832 0.06606502 -0.24560721 -0.08450215 -0.21476728 0.46173564 0.2706844 -0.3588668 0.27986717 0.22488168 -0.055850603 -0.18472722 -0.40125453 -0.016899196 -0.49045578 0.15207611 -0.10754741 -0.21971877 0.25257438 -0.03660001 0.22803518 0.08910457 0.18474087 -0.36939654 -0.16125429 0.38531357 0.4624315 -0.041611236 -0.09869878 -0.66696954 -0.19838256 0.65472716 0.37623036 -0.02414189 0.3358683 0.07487995 -0.65153515 -0.117962666 -0.23914996 0.12247665 0.21314374 -0.43743753 0.079680525 0.074431576 0.03958934 0.3275256 0.1248081 0.29397333 0.3309862 0.13104112 -0.586306 0.014117428 -0.113037154 0.13347347 -0.5299092 0.092200615 0.3278794 0.37627727 -0.5336397 0.0016697556 0.22027336 0.12825598 -0.31081393 0.3690165 0.19386615 0.06167892 0.30347714 0.32982284 -0.50964826 0.5403041 0.354499 0.114697985 -0.16619298 -0.28741446 0.25527906 0.11807444 -0.25445324 -0.16456625 -0.26724893 0.34993583 -0.12122098 -0.20047386 0.24354574 0.41275895 0.24132147 0.6526232 -0.38647145 -0.3739736 -0.038461 0.5567414 0.091653116 -0.026749218 -0.09909172 -0.4722367 0.25580454 0.048384752
him 0.23928688 -0.050091185 0.07465672 -0.18304828 0.21606572 0.24340883 -0.18750328 0.19310161 -0.019862128 -0.087636545 0.42914155 -0.20022008 0.18809818 -0.3651539 -0.0665107 0.10004224 -0.000462911 -0.10713796 0.17281902 -0.14864141 0.29822773 -0.047149424 -0.19194931 -0.1497911 0.31977445 0.1287165 -0.09232281 -0.21848617 -0.108468585 -0.16049999 -0.46273232 0.0695649 -0.08478058 -0.37924573 -0.2715314 0.29713535 0.15722948 -0.14693442 0.33323577 0.11838543 -0.40060815 -0.24364017 -0.08736302 0.0449474 -0.103693016 -0.09811857 0.16240087 0.62885237 0.31014174 0.16933903 0.12070206 0.06517289 0.4272626 0.075273454 -0.5757736 -0.09615247 -0.31861365 0.20668991 -0.25121167 -0.18859963 0.3250294 -0.01543019 -0.24617918 0.07395182 -0.2764762 0.09410636 -0.32119057 0.015596533 0.21871333 -0.27177992 -0.16886501 -0.12646365 -0.16194722 0.18821235 0.12857105 -0.100233056 -0.20259625 -0.34100482 0.25101733 0.16407059 0.14212926 0.06566311 -0.31044853 -0.14959589 -0.23119661 0.12877858 0.014251952 0.07395081 0.13066849 0.23508032 -0.16654421 0.024736678 -0.01774118 0.06205167 0.23245801 0.24202092 -0.5983259 -0.15876698 0.16892578 -0.37585542
very 0.55829793 -6.828697e-06 0.23882492 0.13342719 0.109300345 -0.1728948 0.28193024 0.02831904 0.15482141 -0.07216887 -0.08567316 -0.16443568 -0.048081994 0.11916552 0.13572788 0.19311172 -0.0165429 0.37210333 0.1428516 -0.4148946 0.13264163 -0.15447137 0.03872352 0.1353521 -0.077797756 0.12252794 -0.14548394 0.15638225 0.28577986 -0.18227841 -0.2505685 0.07756661 -0.16874176 -0.29027975 -0.17675066 -0.16052009 -0.14237446 -0.22935666 0.2908092 -0.184766 -0.39576143 -0.29765305 -0.28010246 0.046014734 0.088763446 -0.0001986992 -0.14675725 0.29649982 0.13030003 0.25613436 -0.00149626 0.07040336 -0.053631146 0.13431092 -0.17181824 -0.39302555 0.009960814 0.1461087 0.10452713 0.124511406 0.21624438 0.22869146 -0.09407166 -0.16346149 0.24762984 0.26332295 -0.021820417 -0.083534606 0.30270407 -0.18117294 0.18182108 -0.08938739 -0.13358167 0.032160148 0.1259104 0.25050613 0.15917876 0.092825696 0.28080145 0.09083557 0.2633637 -0.11362861 0.19105755 -0.061717898 0.03343331 -0.36240408 -0.23739564 -0.15338562 0.15873118 0.15331903 0.05740362 -0.26167357 0.32719722 0.22716318 -0.07734091 0.45249024 -0.048815385 -0.15001571 0.3922151 -0.12800294
your -0.152226 -0.18982896 0.038086805 0.112446696 0.3274155 -0.1965568 0.2845741 -0.06834058 -0.09721095 -0.25184277 0.32416275 -0.32382426 0.8600036 0.2929862 -0.025183262 0.35192013 -0.06540225 -0.42386416 0.029031085 -0.007899824 0.009961982 0.18487398 -0.12461537 0.17377493 -0.00476636 -0.09676264 0.008701925 -0.4385596 -0.4831004 0.024525797 -0.2271293 0.10600588 -0.032183543 -0.18934488 -0.36495888 0.14689285 0.051046412 -0.20834614 -0.09828444 0.4238383 -0.082437515 -0.09479011 -0.36731544 0.023553832 0.20129332 -0.32610157 0.2653953 0.33462673 0.29297483 0.6245148 -0.1899895 0.1565189 0.36456016 0.23008381 -0.4368841 -0.28537607 -0.020792069 0.1588048 -0.12314166 0.10805221 0.74615324 0.29341963 -0.22836608 0.072008915 0.0906062 0.17439774 -0.42270267 0.11173369 0.01685882 -0.14477369 -0.4966966 0.10226845 0.12862344 0.017150156 0.2990431 0.3344865 0.3442664 -0.14410415 0.041854966 0.105039656 0.07315166 -0.53054 -0.078889474 0.2949817 0.21586847 0.1323097 -0.39794505 0.32221255 0.3271651 0.42512527 -0.2531233 -0.11896529 0.042297833 0.21840279 -0.061267674 -0.14662327 -0.1539676 -0.522301 0.25811175 0.11433986
been 0.11129953 -0.034227032 0.35890105 -0.27372676 -0.32962984 -0.13728088 0.1754295 0.11159005 -0.09090883 0.1555018 0.027220406 -0.31815678 0.12821683 -0.513081 -0.031891312 0.08165657 0.33559504 0.68539935 0.09222284 0.036943115 0.3721781 -0.26477826 -0.3633699 0.4636387 -0.07790435 0.3987875 -0.27915817 -0.20257497 0.14118028 -0.29160312 -0.35448328 0.027324194 0.028550785 -0.29241046 -0.08575429 0.22754653 0.27008283 0.05446872 -0.030071286 -0.033863287 -0.22576112 0.20679536 -0.29906932 -0.27306107 -0.021423995 -0.5434007 -0.08744144 0.059324056 -0.07716116 0.6079777 0.18476085 -0.41575962 -0.124023065 -0.35452202 -0.061342962 -0.032128386 -0.28718072 -0.23158176 -0.0044496753 0.48208115 0.4555296 0.093155235 -0.04585921 -0.24292019 -0.09796858 0.056278937 0.08166872 -0.16985624 0.22687143 0.30359015 0.24609698 -0.05429443 0.13595214 0.14351128 -0.3235163 0.36379904 0.25872546 -0.36133522 0.18643264 0.19826543 0.02395896 -0.25284544 0.06048336 0.029043319 -0.23631115 -0.011405045 -0.40698576 0.12600206 -0.105260134 0.39099422 -0.14192809 0.093536526 -0.12949839 0.0569429 0.10415133 0.26534992 -0.2933992 -0.22661252 0.54534227 -0.0066766767
what -0.00579686 0.18816714 0.109161794 -0.13262491 0.43208596 -0.062562525 -0.052012973 -0.37607667 0.06969815 -0.048167404 0.20156686 -0.0175697 0.27860105 0.30208725 -0.3385114 -0.042376045 -0.011455054 -0.097802594 0.1347649 -0.4483073 0.5048311 -0.32330674 -0.4922782 0.10890044 0.043791667 -0.17998497 -0.09285727 0.064030856 0.4226016 -0.17450479 0.042824827 0.06020724 0.456886 -0.1177152 -0.07483914 -0.05590401 -0.050781645 0.109016255 0.14204721 -0.110541865 -0.5396497 -0.39575282 -0.051198527 -0.15322216 0.03273453 0.026104523 0.17918353 0.56856614 0.13523723 0.3598599 -0.113985725 -0.04369036 -0.198829 0.26120946 -0.26033336 -0.2644488 -0.0495273 0.16341637 -0.18734013 -0.21020338 0.8201826 -0.105419055 -0.021810954 -0.5336195 -0.062436733 0.2653373 0.26911354 -0.03848946 0.3209356 -0.04837395 0.074213296 0.13942556 -0.19987713 0.17721914 -0.009372077 -0.03968128 -0.4953906 -0.007741751 0.03696398 0.28710887 -0.11656927 -0.030949382 -0.22929199 0.20070902 0.24725345 -0.027930208 -0.03446953 0.48720905 -0.08250498 0.44448578 -0.3554078 0.2114174 -0.16772956 0.30328658 0.3363025 -0.039168995 -0.24968687 -0.39290968 -0.06762321 -0.19419202
no 0.12467922 0.15139607 -0.25732788 -0.013952576 0.51478 -0.048102785 0.017298466 0.10983064 0.4293023 0.048666764 0.10074926 -0.25784314 0.38931146 0.20697203 -0.2240004 0.28106734 -0.14505059 0.02979682 0.21424976 -0.089681566 0.03149698 -0.1052667 -0.22296955 0.4093583 0.18920426 -0.2113582 0.011384513 0.03321903 -0.011253346 -0.06489419 -0.037907213 0.037475515 -0.075196505 0.09045167 -0.12926838 -0.3548391 -0.037173603 0.37752518 -0.06806718 0.15456417 -0.43622565 -0.28239268 -0.46493462 -0.28358725 0.07732182 -0.38807544 0.22210568 0.153207 0.19404839 0.34919903 -0.1188232 -0.2961594 -0.4071845 0.023618057 -0.16121984 -0.24688199 -0.2084946 0.2887006 -0.24487743 0.104309686 0.55305195 0.13451833 -0.11613212 -0.17719203 0.09981981 0.09342476 0.14308497 0.0110898735 -0.072551616 0.17965141 0.06588807 0.58226013 0.18210886 0.12284336 0.037044737 0.41587657 0.18075623 -0.086075075 -0.28742722 0.15389389 -0.44135642 -0.43765682 -0.35813105 0.15068594 0.24606055 0.19087748 -0.24025548 0.3491116 0.1630129 0.4944883 -0.3066376 -0.07369782 -0.16185686 0.061146528 0.41769812 0.15534122 -0.068837754 -0.26193058 0.5369373 0.14603572
on 0.1475388 0.071247526 -0.10864611 -0.56120545 0.04583732 0.33907995 0.048541997 0.08158722 0.04504605 -0.36575806 -0.09168227 -0.24698447 0.18603949 0.15773174 -0.039788567 0.08647297 -0.0400854 0.16369577 0.014631055 -0.21531461 0.19844125 0.109841354 -0.020221107 0.24653612 0.37423456 0.2800116 -0.08776351 -0.19356392 -0.053068914 0.05374279 -0.15250036 0.21511783 -0.07942535 -0.36061245 -0.35126033 -0.07283393 -0.20828857 -0.37298292 0.027082102 -0.22076689 -0.16238195 -0.32177606 0.0093662925 0.03527196 0.07909589 -0.19678271 -0.24260937 0.20487535 0.3927506 0.28743476 -0.4204757 0.023691852 0.21437255 -0.015564588 -0.18848029 -0.3122102 -0.05226232 -0.14277291 0.20794939 0.026132079 0.077656515 0.1297426 -0.1710369 -0.12722227 0.011510517 0.1686867 0.35159326 0.20771773 0.030449158 -0.20674771 -0.19056764 0.06683272 0.038015913 -0.31238994 0.7310095 0.100661494 0.2318643 -0.08975766 -0.29506296 -0.1272829 -0.19407237 0.052949436 0.2453395 -0.27251393 -0.091512434 -0.16669884 -0.3445299 -0.20870607 0.12317622 0.031836122 -0.03829509 0.08557634 0.13479348 0.3494125 0.04467995 0.27808818 -0.179055 -0.14769374 -0.108980305 -0.20435447
all 0.06443523 0.280882 0.20382513 -0.13230965 -0.009880968 0.048447438 -0.001010367 -0.24686386 0.035392854 -0.30051064 -0.06867896 -0.078085504 0.030564101 -0.08723085 -0.3114632 0.24933119 -0.2499147 0.023502512 0.198153 -0.46610594 -0.043836568 -0.10599653 -0.5200311 0.20789772 -0.026413027 0.20611006 -0.17220183 0.09328259 0.24159944 -0.086055934 -0.04973072 0.055147644 -0.013383266 -0.15430714 -0.010542234 -0.12146205 -0.39282495 0.0697423 -0.016680846 -0.37231296 -0.65571916 -0.31721738 0.19460903 0.21060964 0.023921864 -0.19540165 0.17815168 0.3431513 0.08577865 0.20996849 0.020118296 0.18457484 -0.2572607 -0.11250724 -0.055270318 -0.49869946 -0.09459837 0.06395669 -0.05138872 -0.051550597 0.3952828 0.13089816 -0.06971156 -0.15516768 0.00024772226 0.07765627 -0.16759242 0.21001129 0.12098841 -0.06550477 0.031808067 0.19795747 -0.039521433 -0.20981596 0.24496916 0.10337521 0.08842501 -0.16086182 -0.010599518 0.2542685 -0.07304614 0.18565415 0.1898042 0.05075295 -0.041260827 -0.00815795 -0.116771154 -0.18413869 -0.09823817 -0.05692437 0.0007237336 0.0039628204 -0.024896665 0.3652515 -0.14719328 0.18873657 -0.21443965 -0.3393096 0.29266208 -0.18180948
one 0.11200562 0.2127059 0.14186886 -0.45283747 -0.045940053 -0.058804046 0.06060468 0.17410633 0.020486895 -0.28420538 -0.081242904 0.22643742 0.21010186 0.048770107 -0.24718077 0.329141 -0.11588083 0.14400865 0.1833267 -0.10185898 0.14304322 0.1387812 -0.3709569 0.26616046 0.19614914 0.07124261 0.23725186 0.15409188 -0.15441309 -0.11040239 -0.28295204 0.4029391 -0.4127722 -0.198276 -0.38972697 0.3230214 0.03144619 0.053926837 0.03771316 -0.27009237 -0.40360358 -0.24226074 -0.21385808 0.0872834 -0.044151496 -0.27693683 0.04086489 0.11397635 0.036044557 0.37203732 -0.21487044 -0.15371658 -0.24908973 0.0043941247 -0.071884535 -0.4807927 -0.28729147 -0.075080015 0.0969217 0.11605114 0.08099189 0.10872271 0.008331464 0.119258575 -0.09789594 0.40144834 0.10142535 0.19960693 -0.06021516 -0.24984157 0.09512077 0.16007377 0.03492541 -0.43465397 0.29493243 0.03726863 0.024295587 -0.0796874 -0.33483157 0.33088958 -0.33106 -0.044064745 -0.14137417 -0.16947979 -0.11662805 -0.17973004 -0.12638034 -0.05570311 0.3258191 0.21172597 -0.16264068 -0.28180662 0.17229797 0.3102564 0.20744047 0.012636111 -0.050370507 -0.0229791 -0.10063756 0.16497447
then -0.12210286 0.034151934 0.3513401 -0.38909867 0.17061485 0.35291663 -0.12691058 0.12643296 -0.01614878 -0.025310753 0.48661128 -0.25045907 0.05559669 0.34157577 -0.18191136 0.10813333 -0.24886608 0.017027814 0.049490023 -0.13786083 0.19842754 -0.2605818 -0.029230993 0.36730897 -0.03442461 0.063206665 0.15863463 0.10138567 0.0069178496 -0.113017365 0.07253021 0.11467852 0.06342044 -0.23631032 0.029869763 -0.10061523 -0.09626847 -0.21182607 -0.09539586 -0.16299732 -0.48590484 -0.5575042 -0.12896603 0.12053814 -0.08657279 -0.29449594 0.03117127 0.4492833 0.2942631 0.17438954 -0.08318069 0.057841305 0.13874845 -0.020803912 -0.3454955 -0.4026846 0.20976605 0.17634404 0.13110445 0.0016495625 0.36267564 0.16500494 -0.17183615 -0.05752958 0.1211519 0.0030923132 -0.097023584 0.038157556 -0.3082821 -0.17378694 0.21379277 -0.07108788 0.13703749 -0.22576791 0.3935536 -0.0893327 -0.2728383 0.043809593 -0.032948982 0.09372768 0.065805994 -0.277751 -0.104493916 0.37808436 0.22237232 0.016503848 -0.32361332 0.10187816 0.008321576 0.39825004 -0.17525159 0.16255327 -0.053650867 0.08790884 -0.12789719 -0.23054133 0.08568588 -0.35874522 0.22573645 -0.09537402
s 0.02539009 -0.22039805 -0.06989377 -0.35976577 0.11635938 -0.23614165 -0.11433919 -0.15452693 0.17753801 -0.15326925 -0.0224555 -0.19082677 -0.041414287 0.10128418 -0.0777268 0.10461859 0.07485718 0.051792756 -0.11158156 0.11574782 0.22664365 0.030667253 0.1426326 0.44635263 -0.058993466 0.27904034 -0.34482065 -0.16627778 -0.3427197 -0.13850027 0.26224265 -0.088596396 -0.08357202 -0.6229949 -0.0063215396 0.00058405835 0.2609188 -0.2988257 0.050549686 0.16917254 -0.3170274 -0.21503793 -0.112055086 0.3151339 -0.28975776 -0.5133942 -0.26065394 0.30342272 -0.040742632 0.24147247 0.11798323 -0.4293352 0.06417977 0.23095901 -0.094730124 -0.12113851 0.09378107 -0.3755382 -0.05669043 0.13624845 0.39156112 0.26097208 -0.017958183 0.28862476 -0.28936335 0.33603066 0.2213896 -0.19802234 0.5576297 -0.100517295 0.41418442 0.41674057 -0.20681557 -0.38684934 0.080700055 0.46129227 -0.09477615 0.10835973 0.071866624 0.018263008 -0.21265325 -0.3972323 0.038457815 0.13756505 0.07163967 0.016298333 0.017638877 0.38651007 0.40405148 0.016319962 -0.2905204 -0.09413396 -0.10958484 0.22140029 0.6256817 -0.11716465 0.010540988 -0.12860753 -0.080687284 0.00081917964
were -0.11846549 0.16609769 0.057432126 0.03488383 -0.26022783 0.14847387 -0.21444596 -0.38571283 -0.12532021 -0.64155823 -0.20569552 0.21271509 0.25874668 -0.19329256 -0.23953898 0.49690372 -0.11445621 0.15652052 0.11421109 -0.058551107 -0.36671993 -0.2603802 -0.5875906 0.19799796 0.108257145 0.60901755 -0.00059844006 -0.115264475 -0.18834542 0.018114816 -0.14400308 0.047417242 -0.2489267 -0.22440258 -0.06465465 0.008535689 -0.0086753955 -0.010531669 0.23628706 -0.11806642 -0.883345 0.085366875 0.32384315 0.17880611 0.20503776 -0.24640276 0.04719406 0.20923309 -0.116447635 0.11232493 -0.16811314 -0.18851256 -0.7934974 -0.13714957 0.037685253 -0.0063258563 -0.060544867 -0.19403331 0.47202644 -0.043261603 0.26909593 0.15679461 -0.26704746 -0.12933591 0.22824964 0.058195956 -0.17149866 -0.049681492 0.012997067 -0.0123045975 0.15253659 0.30930266 0.25322855 -0.07252154 0.13474154 0.13644247 0.23456034 -0.45077044 0.0743165 0.2910608 -0.029663615 -0.16170761 0.44700012 0.5089511 -0.37033442 0.06623124 -0.37756428 0.12896642 0.30973276 -0.2547271 -0.19340219 -0.13294111 0.20262584 0.05583147 0.32477978 0.36405158 -0.0032563428 0.20916732 0.6527993 -0.12001227
by 0.23303372 0.18029004 0.22769882 -0.57061565 0.05815372 0.23042174 -0.0031059352 0.07013313 0.23001903 -0.073777854 0.20149438 -0.14617671 -0.04707644 0.020598808 -0.28109473 -0.07193561 0.07036734 0.35834143 0.34041366 -0.12546626 -0.03899326 0.17993082 -0.10774483 0.11071211 0.15305285 0.33473518 -0.20482413 0.3296233 0.1629287 -0.17381118 -0.440832 0.19051783 -0.070255026 -0.37157688 -0.044277865 0.2448458 0.0582779 -0.12207017 0.103809655 0.06459271 -0.17944519 0.22672777 0.13163179 -0.19995692 -0.10888089 -0.10365251 -0.042653173 0.38285163 0.0020452163 0.38097373 -0.2065589 0.025886005 -0.22790344 0.15215074 -0.18891124 -0.011018753 0.013551473 -0.12411283 -0.00417811 0.07357324 0.34265032 0.15186441 -0.18859152 -0.27684903 0.15275508 0.14992002 0.21353513 -0.067828625 0.06819097 0.33735192 -0.006677951 0.33047235 -0.042543225 0.0060311244 0.2002321 0.27095702 0.026189428 0.042172942 0.07223824 -0.11861102 -0.123623125 0.0029635946 -0.06946056 0.17867722 0.025287962 -0.16825628 -0.03042931 0.13147251 0.079942405 0.43827942 -0.18421166 0.12815545 0.050175726 0.046130523 0.017295454 0.037237655 0.07748895 0.30739072 0.2758652 0.064367436
! 0.42166796 0.07107215 0.30723295 -0.54126614 0.6991104 0.2731027 0.25617626 0.26069778 0.031883854 -0.22655568 0.17578335 -0.022189962 0.16486558 0.34385663 -0.3824076 0.25941882 0.06074802 0.59746337 0.36551857 -0.27117518 0.3926215 -0.2587536 -0.079247706 0.7831177 -0.046908244 0.2724076 -0.06939252 0.09032008 -0.27300876 -0.13804409 -0.091049396 0.23412846 0.025674837 -0.18614557 -0.047878113 -0.5178628 0.11003482 0.06916402 0.24791664 0.28587395 0.026575888 -0.58667225 -0.24204633 0.1126587 -0.281801 -0.15718403 -0.024129486 0.07971051 0.3668798 -0.035361208 0.2817573 -0.20737572 0.32196555 0.20937076 0.025646033 -0.18882747 -0.38784546 0.056393307 0.054327108 -0.052559562 0.2599514 0.7746906 -0.12684545 -0.17282026 0.10537108 0.06689024 -0.13637295 -0.109501235 0.11015217 -0.19408499 0.25552636 -0.19166678 0.13320129 0.47702658 0.31615824 0.26881725 -0.19976889 0.066894226 0.26644236 0.27524152 0.23389646 -0.11261294 0.06886793 0.28597605 -0.0059269317 -0.19142726 0.11688385 0.18724297 -0.03810673 0.30005848 -0.018379169 0.21218827 -0.019325871 0.70774597 0.41725835 -0.09142726 0.38828328 -0.36973658 -0.1533506 0.33300048
are 0.13649994 0.053727604 0.28381318 0.2000029 0.13253331 -0.16506717 0.17488636 -0.32192466 0.09906292 -0.4989395 -0.29621083 0.3125732 0.32613838 -0.0990332 -0.33920473 0.17202702 -0.00016211356 0.29103106 0.2061345 -0.007392176 0.22744082 -0.12196213 -0.7229379 0.3864102 0.13301846 0.5350817 0.06991638 0.26007712 0.07990156 -0.03129963 0.07226955 0.26992813 -0.024196997 -0.5951684 0.038385056 -0.108322985 -0.11392113 0.22360292 -0.085214995 -0.038401145 -0.6445987 -0.30412668 -0.12466965 -0.17800163 0.48651704 -0.13363652 0.24770497 0.14481837 -0.2317252 0.11890954 -0.007766629 -0.16036329 -0.61018956 -0.15811084 -0.11635121 -0.10078354 0.26789737 -0.05406605 0.6087133 0.3177279 0.37901476 0.19570263 0.19799067 -0.18342258 0.0407055 0.42994204 0.12605058 -0.046026435 0.34168005 -0.3451342 0.15178032 -0.05256419 0.20727149 -0.18497188 -0.058682926 0.37801588 0.22854567 -0.5306382 -0.10639942 0.4160963 0.020126514 -0.13918163 0.42594177 0.5211895 -0.44336382 -0.14296411 -0.6148051 -0.11989795 -0.04631984 -0.2857793 -0.54829365 -0.23571111 0.19330019 0.077886075 0.08706883 -0.041181248 0.13768259 -0.0022283958 0.49749005 0.0545718
an 0.057668865 -0.24429408 -0.14329718 -0.15769024 -0.32183152 -0.35468784 -0.16850857 -0.0104363235 -0.24938034 -0.07551905 0.2233802 0.083742656 0.28369138 0.13842486 -0.05012914 0.44679132 0.30838624 0.19836555 0.5133023 0.049544975 -0.21405293 0.035487503 0.1762383 -0.0038009055 0.12982704 -0.21331665 -0.16056646 0.08937417 -0.12312135 0.15714376 -0.3817701 -0.011704218 -0.5296626 -0.6844635 -0.0647205 0.28178954 -0.110855445 -0.18494068 -0.111283585 0.119883314 -0.17447093 -0.3886665 -0.14934036 0.21216154 -0.14323044 -0.44787404 -0.0033367942 0.4300555 0.27681285 0.5075731 0.0037612927 -0.26194438 0.1416927 0.30156392 -0.6315435 -0.11761826 0.14958031 0.036904488 -0.12343038 -0.10817107 0.12872559 0.08354726 -0.18835911 -0.03711083 0.06240413 0.050059848 0.1005742 -0.16876532 0.2679674 -0.20541829 0.060289547 -0.06672104 0.08172942 -0.116094835 -0.09201458 0.42293054 -0.15444995 -0.46446726 -0.09686563 -0.2077628 -0.19712408 -0.28421617 -0.26150978 -0.03329729 0.06842943 0.16426283 -0.21720187 0.22233196 0.25196594 0.24270472 -0.19371831 -0.21607059 0.048729118 0.38749248 0.024237031 -0.12765339 -0.2694766 0.08574166 -0.14149891 -0.15007012
would -0.01428543 -0.14616053 -0.11230016 -0.41062388 0.350483 -0.107024655 -0.046026245 -0.4146167 0.07609003 -0.7103961 -0.23324542 -0.29900137 0.14947364 -0.18717606 -0.10819469 0.5118791 -0.1597916 0.088268675 0.23464814 0.2840665 0.3342559 -0.21730204 -0.014397219 0.06775704 -0.048109263 0.07964115 -0.06744138 -0.28267807 0.008314934 -0.18618892 -0.065415464 0.0042270697 -0.144531 0.006420003 -0.20936361 -0.1119258 0.14948294 -0.11458396 -0.026816212 0.13359912 -0.73649514 -0.5731033 -0.310798 -0.38748437 0.20722716 -0.39624405 0.097852446 0.45619726 -0.08946509 0.40110093 -0.21203904 0.0012499386 0.03385417 0.08764247 -0.30242446 -0.2962071 0.020564884 0.30272233 -0.042184155 0.20539145 0.2634026 -0.09242095 -0.3269232 0.18020041 0.113187686 0.19248286 0.0520578 -0.16348639 0.087133974 -0.025643418 0.051034573 0.13247985 -0.38396463 0.21519655 -0.025107535 -0.15004656 0.071551345 -0.05811861 0.03160416 0.33036238 0.16734546 0.1483603 -0.38603342 -0.07668012 0.27852392 0.1595306 -0.34967452 0.06786047 0.22158459 -0.04748424 -0.06009603 -0.12043658 -0.26794744 0.3849769 0.16940436 -0.12400023 -0.48879147 0.08237398 0.32861543 -0.06385073
when 0.08311528 -0.16789012 0.14531587 -0.4269885 0.37011236 0.035525315 -0.073062226 0.17302024 -0.16501251 0.13944902 -0.020109154 -0.374736 0.0709456 -0.055580568 -0.22622573 0.20893049 -0.21211222 0.17930624 0.18224597 -0.45946297 0.10939296 -0.23632555 0.020807527 -0.11044415 0.26949605 0.021299828 0.025473502 0.09501818 0.086618334 -0.2857033 -0.11609046 -0.17031197 0.24419835 -0.110107474 -0.24148686 0.06648979 0.112528354 -0.20778778 0.3228683 -0.2797832 -0.081755586 -0.25814003 -0.08965721 -0.007735661 -0.21285279 -0.48347434 0.15183246 0.45473015 0.24412304 0.39310026 0.03156054 -0.09054615 -0.11026497 0.5733169 -0.4743468 -0.092153125 -0.012690758 0.08635024 0.03830764 -0.15903 0.041173603 0.23233585 -0.6311 -0.0014989043 0.28714883 0.0017715321 0.07671802 -0.15356503 0.15599382 0.3374945 0.24215196 0.09944952 -0.1110196 0.0042665033 0.24506484 0.3667905 -0.15578966 -0.09326113 -0.017377596 0.24183166 -0.2551711 0.026923439 -0.24314576 -0.12460442 -0.23721558 0.08997636 -0.013135732 0.35319868 0.17548843 0.35103562 -0.024748132 0.3097374 0.10890243 0.19954117 -0.31169966 -0.2438063 0.19046453 -0.1252283 0.34491834 -0.046865918
out 0.2422606 0.35425738 0.27559575 -0.45659584 -0.06172111 0.4456461 -0.023077304 0.22985512 0.10944109 -0.001120299 0.122101285 0.2838443 0.13427211 0.20216367 -0.16527778 0.2514069 -0.04529452 0.2868289 0.24614485 -0.006334371 0.28548738 -0.033260893 0.011160667 0.088737406 -0.24509603 -0.12321887 -0.2731643 -0.32700038 -0.06943409 0.14816995 -0.2222034 0.13681641 -0.25373745 -0.4345749 -0.17658067 -0.02377536 0.07638756 -0.24044202 -0.086766675 -0.023070598 -0.33764538 -0.42179728 0.10469077 0.07467731 -0.15637076 0.19720656 -0.03925417 0.3781569 0.3471689 0.26409125 -0.24004689 0.08050893 0.1514201 -0.021792267 -0.35979232 -0.34164298 -0.04267002 0.39180046 0.14792249 0.14426972 0.2056776 -0.019569611 -0.015945474 -0.025801614 0.12939526 -0.12909614 0.034540426 -0.019946313 -0.021676345 0.15216808 -0.18944989 0.023136584 0.37677854 0.03974662 0.5746876 -0.10305475 -0.24476035 -0.07003117 -0.030080091 0.04730525 -0.060776718 0.18334137 -0.07451045 0.17807482 -0.014685698 0.068030514 -0.093857996 -0.012430819 0.27830806 0.061800826 -0.21370015 -0.28139135 0.11520197 0.3164857 0.13898134 -0.03447272 -0.4399459 -0.3004634 -0.12162361 -0.3912623
man 0.38434413 0.18442279 0.113812864 -0.15476488 -0.2443317 0.14252448 0.21151754 0.35360542 0.214487 -0.29361877 0.1900364 0.018449696 -0.016573628 -0.062895134 0.031704646 0.05895933 0.08895002 -0.050093394 -0.20893882 -0.03990678 0.18867277 0.30683476 -0.4040586 0.07617802 0.013064319 0.18724872 -0.06670798 0.29754987 0.08086837 -0.21115847 -0.2068138 0.116300695 -0.47695765 -0.04936973 -0.1674786 0.47932845 -0.18940759 -0.29298502 0.43216154 0.1069074 -0.24861501 0.014276777 -0.048813634 -0.030240046 -0.089756325 -0.07990435 0.17396824 0.55902 -0.008212714 0.11974697 -0.28563896 -0.0814105 0.12137102 0.34762186 -0.54828495 -0.16697566 -0.13793142 0.14564805 -0.13555168 -0.40450472 0.2722601 0.28376687 -0.018504262 0.12485323 -0.17172319 0.13841486 0.043914113 0.07640815 0.11967741 -0.4416427 0.51164544 -0.019508919 -0.35430744 -0.14606392 -0.096479066 0.15380691 -0.21281683 0.22762328 0.265031 0.2669838 0.24351805 -0.13901849 -0.23311788 -0.16265759 -0.10236444 -0.276751 -0.06616489 0.13570598 0.38728914 0.08197132 -0.043411124 -0.3514565 -0.0057813604 0.45318 0.29240862 0.015085887 -0.4466554 0.14412086 0.34360558 0.06554801
up 0.33466312 0.25918823 0.4584045 -0.5364956 0.32406116 0.2584516 -0.01335872 0.3956236 -0.29871476 0.04048281 0.13714367 0.2125788 -0.13904195 -0.031048616 0.2417132 0.08077509 0.06574712 0.20732534 0.057402294 -0.26540697 0.20178252 -0.03876684 -0.0006859992 0.14061444 -0.08195683 -0.001416471 -0.41785538 -0.20286644 -0.27948737 -0.14171425 -0.18980928 -0.03795216 -0.4330963 -0.6061615 -0.19200371 -0.019719893 0.23087183 -0.22453713 0.098379165 0.17967391 -0.15970543 -0.3627303 0.049818274 0.29813397 -0.080194876 0.03367675 0.060442057 0.11494892 0.33637437 0.15480691 0.048879214 0.026642056 0.015688706 0.19555831 -0.2519994 -0.19784833 -0.06310734 0.25998488 0.23917869 0.27581304 0.24648735 0.5592823 -0.012683432 0.080469675 -0.08230133 0.08075328 -0.039329432 -0.262226 -0.0077066952 0.037385557 -0.27544567 -0.01261459 0.21741207 0.03024949 0.22852442 0.19756663 -0.15579958 -0.23407228 -0.004922595 0.20267192 -0.14685161 0.13544013 -0.010668468 -0.049397465 -0.33285743 0.011708873 -0.19753398 -0.21837923 -0.059382536 0.039742094 -0.2790233 -0.3329695 0.13361152 0.26159957 -0.04624051 -0.114017464 -0.13074838 -0.45597604 0.019113723 -0.32070056
could 0.284364 0.08005691 -0.45161572 -0.35195795 0.3009925 0.11827362 -0.20013721 -0.570374 -0.11403358 -0.31843612 0.15250672 -0.21682885 0.33684716 -0.022222478 -0.4864573 0.4735228 -0.058731902 0.0979154 0.39233637 0.35488763 -0.021534048 -0.24697603 -0.12321697 0.3349819 -0.15714145 0.23254071 0.1716407 -0.15168065 -0.13281073 -0.15072624 -0.2888502 0.25020725 -0.069857724 0.101906724 0.014322419 0.06935559 0.027760249 0.011336429 -0.23523481 0.13412653 -0.74108976 -0.23790248 0.11787488 -0.34030166 -0.2868579 -0.40931228 -0.0621727 0.79422736 -0.33010098 0.34211087 -0.54429156 -0.06639013 -0.14758912 0.009902246 -0.113778636 0.1073485 0.011307659 0.08841264 0.32480475 0.25361854 0.09872308 0.37837976 -0.2909049 -0.19847058 0.030183146 0.28521836 -3.211909e-05 -0.13420856 0.10337813 0.03770445 0.46488038 0.16534044 -0.3611072 0.22249193 -0.05395733 -0.14529683 -0.13140455 -0.41261175 0.27619717 -0.05124375 0.06329269 0.19815436 -0.396498 0.46525854 -0.10929063 -0.14831495 0.13470277 0.3494097 0.08109385 0.14614116 0.048394777 -0.25429893 0.22993904 0.37061656 0.33144063 0.015433323 -0.48365572 0.18426697 0.15951951 -0.13742705
has 0.1812429 -0.057397727 0.46411893 0.06601458 0.22713125 -0.01967095 -0.008923599 0.41754356 0.3341783 -0.03558485 0.06021407 -0.67392796 0.27633622 0.10584379 -0.061408434 0.12645243 0.23859362 0.760582 -0.078631096 0.028777977 0.16852166 0.5125177 -0.09851575 0.7190598 -0.42656025 0.3785222 -0.51196945 0.3496622 0.14055915 -0.38431633 -0.32689 -0.18356042 0.22136489 -0.18487826 0.1210418 0.10429578 0.43128216 -0.05148413 -0.058513876 0.1858343 -0.34868908 -0.36869282 -0.2822187 -0.27957323 0.6206728 -0.423937 0.16023949 0.37316847 -0.20580481 0.46245137 0.06177015 0.27935383 0.13520704 -0.04566026 -0.2513557 -0.054478776 -0.20756511 -0.0022859117 -0.260067 0.24009117 0.39346686 0.3836257 -0.35747272 -0.06674219 0.10570435 -0.059124205 -0.15999128 -0.13674898 0.34695962 0.035534177 -0.1287956 -0.17412058 -0.017883927 0.5917775 -0.30477118 0.37122303 0.11749909 0.2673589 0.21720883 -0.07353237 0.020672219 -0.07910063 -0.076903746 -0.09604646 0.07240004 -0.17639914 -0.5412756 0.1605241 0.3017412 0.07391099 -0.41546392 0.14187612 -0.09058379 0.099556394 0.08006776 0.14013231 -0.2451716 -0.0423013 0.10471025 0.31658575
do 0.40985912 0.03539558 0.1755426 -0.0123831825 0.44034415 0.33282334 0.037846457 -0.45623475 0.00216811 -0.4674132 0.22637147 -0.08340099 0.19732843 0.5668863 -0.19415738 0.046329644 -0.021155924 -0.09718048 0.27949798 -0.25824496 0.34537032 -0.3793163 -0.5825678 0.113340855 0.11450238 0.22701299 -0.07216024 0.1270807 0.0017374277 -0.40142444 -0.17591201 0.40142447 0.17739911 -0.14053418 -0.07275039 -0.31321082 -0.37224877 -0.076186344 -0.042793408 -0.03276178 -0.77816135 -0.31362936 -0.37502936 -0.1288439 -0.028443327 -0.21252911 -0.20235132 0.63239837 -0.0065003284 0.01658298 -0.08175357 0.103137225 -0.1907352 0.28310803 -0.29414123 0.002440753 0.015395234 0.043321162 0.30393693 0.0030642375 0.28922534 -0.14340203 -0.04584405 -0.14280398 -0.24751946 0.33502594 0.15562652 0.057335865 0.39940894 -0.09014673 0.257455 -0.11425854 -0.17013447 0.07379841 -0.17947501 0.25712413 0.007542913 -0.5619585 0.035080962 0.20632657 0.24815957 -0.073582165 -0.16556647 0.17478739 0.2601305 -0.047358025 -0.122942425 0.06575779 -0.09787585 -0.012865992 -0.28656387 0.12062164 -0.08396034 0.039613105 0.08372434 -0.09359046 -0.1060035 -0.570593 0.4280627 -0.18069717
into 0.21147245 0.31705162 0.15737858 -0.75304383 0.28111696 0.7872813 0.28564176 0.37504137 -0.06180858 -0.08213453 0.16295916 -0.04702994 0.014236632 0.27137557 0.07845149 -0.0751087 -0.11015733 0.2896201 0.28818032 -0.109801084 0.31181812 -0.10254551 0.036305115 0.22789536 0.112980664 0.40846935 -0.1445377 -0.1544616 -0.040621243 0.11445895 -0.26932207 -0.04764392 -0.12927827 -0.5047002 0.06650668 0.15970975 0.14355518 -0.15869771 -0.11320718 0.27107015 -0.017292496 0.11116643 0.072350115 -0.17850626 -0.2861356 0.15315306 -0.11831013 0.34226066 0.30588248 -0.026923284 -0.11597924 -0.03495124 0.22418891 0.27290648 -0.3849885 -0.07374106 0.10742445 0.21735765 0.026685257 0.17477253 0.0052539445 0.049362585 -0.41277564 -0.039275065 0.19561414 0.046538737 0.20396306 -0.20110503 -0.05294956 0.08767029 -0.18343608 -0.017772473 0.02375175 0.23574607 0.75322694 0.093831785 0.01708769 -0.25138843 0.11580839 -0.11898585 -0.19179492 -0.032908626 0.019664537 0.45586422 -0.041644078 0.31275985 -0.069733985 0.050034273 -0.12075155 0.1323054 -0.15772067 -0.3171292 -0.3616049 0.23811273 0.2930012 -0.15366521 0.16745937 -0.010974521 0.13289414 -0.45955682
who 0.46458057 0.16173092 0.7170354 -0.20814794 -0.15506221 -0.23673353 -0.024358297 0.19578189 0.14682607 -0.06563731 -0.0074536633 0.030735435 -0.10935368 0.12734096 -0.06744914 -0.01820131 0.33307114 0.049143743 -0.17584789 -0.33472675 0.08943723 0.019813461 -0.1846634 0.2783025 -0.12272083 0.001157545 -0.29443222 0.3278731 0.03720205 0.11142018 -0.1388247 -0.07438721 -0.10727791 -0.027503872 -0.2545112 0.21486145 -0.06180738 -0.21730702 0.14910011 -0.13349852 -0.16476911 -0.22631136 -0.22844857 -0.1024592 -0.08703427 -0.12134613 0.043441195 0.34375364 0.10575621 0.5567204 -0.22672445 -0.15441456 -0.35242042 0.19911402 -0.5501436 -0.13539346 -0.010436496 -0.048864115 -0.31450328 -0.30252925 0.3706206 0.013230435 -0.052116495 -0.03398859 -0.19595195 0.023280144 0.24819769 -0.41262907 0.2991827 0.078246996 0.36716378 -0.014927647 -0.2182497 -0.405297 -0.1972882 0.18469277 -0.13320003 0.01896109 0.062374514 0.23218521 -0.10797357 0.09306465 -0.3381202 -0.19349337 0.0044487105 0.03876414 -0.23108348 0.2796091 0.42024833 0.38017398 -0.3901896 -0.14703947 -0.15582679 0.24688256 0.29710355 0.016940307 -0.02326292 0.24601178 0.19362538 0.2715455
little 0.10999089 0.17126225 0.23730692 -0.08969146 -0.1017937 0.14816207 0.4805233 0.21491279 -0.10537945 -0.19611217 0.025945824 -0.080457225 -0.09379609 0.042800654 0.071964756 -0.09763704 0.14833008 0.09589367 0.010463744 -0.035032805 0.055608574 -0.32099712 -0.092135265 0.3970726 -0.044540394 0.25971106 -0.08284441 -0.05085258 0.112911366 -0.049265455 0.21309856 0.44122228 0.0022552153 -0.59061223 -0.2177876 -0.007304595 -0.0034752667 -0.1139121 0.17666648 -0.008597005 -0.4051199 0.058234844 -0.28566962 0.059160735 -0.11016546 -0.060184635 0.06754947 0.31254956 0.15436183 0.23195934 -0.16846702 0.12438751 0.041465506 0.1926945 -0.19351187 -0.18612343 -0.0707606 0.10496346 -0.0039887466 0.035258934 0.25143003 0.17174016 -0.26454192 -0.10507364 -0.04471553 -0.024798531 0.11282113 -0.11756659 0.28831056 -0.05480144 -0.08127293 0.11322475 0.06868462 0.013757836 0.10094924 -0.014563277 -0.053490926 -0.20249167 0.037657347 0.44591773 0.09137163 0.05486794 -0.050071135 0.00032288727 -0.020084053 -0.029148867 -0.14806956 -0.048929363 0.13404942 -0.21190834 -0.20570505 -0.40821636 -0.046757493 0.29434767 0.08348184 -0.09250507 0.24408805 -0.23154378 0.15994774 0.13012946
mr. 0.22980408 0.38666314 0.28111562 0.108168036 0.42646524 -0.037322037 0.20900428 -0.18013391 -0.1769272 0.15143979 -0.30545625 0.17934695 -0.08069177 0.106405094 -0.1652766 0.24866118 0.11830055 0.25654516 -0.17641546 -0.29297644 0.58393174 0.1317939 -0.16367872 -0.42592612 0.25266978 0.523428 0.12978248 0.7596189 0.15736286 -0.27033052 -0.3009691 -0.18616484 0.0033622119 -0.3377248 -0.06764339 -0.040529802 -0.01881601 0.12667146 0.2178032 -0.058149245 0.093736775 -0.10617214 0.17055032 -0.07160459 0.0186298 -0.408541 0.37220147 0.47488087 0.41983235 0.052513473 -0.12497167 0.17044513 -0.2591663 0.3422851 -0.26140416 -0.78779167 -0.48501626 -0.03074195 -0.07781033 -0.567553 0.61272067 0.5148365 -0.49844995 0.17842267 -0.5291816 -0.040714093 0.09270286 -0.39041376 0.0032050922 -0.13714856 0.34569746 -0.093634486 -0.53294027 -0.2851667 0.2655835 0.31996056 0.6256556 0.27705008 -0.38283446 -0.032121427 0.21889286 0.42235193 -0.0115021365 0.042213585 0.050821073 -0.41619638 -0.37705293 0.27668405 0.1071313 0.3511584 -0.3700412 0.59928614 -0.11058592 0.04653583 0.53299975 0.076559976 -0.30786768 -0.43868482 0.22531976 -0.0016104871
will -0.04959172 0.09179816 0.20708276 -0.1492142 0.4228607 -0.042902064 0.31036404 -0.41961393 -0.105441295 -0.77591 -0.16332428 -0.24682917 0.19709794 0.22030894 -0.10410575 0.4353069 -0.080155335 0.15526828 0.38426733 0.09184665 0.22018215 0.105334274 -0.32667848 0.04453202 0.13351104 0.20379524 0.055412676 0.055126395 0.21232381 -0.117791794 0.15632221 0.26712883 0.040650588 -0.29869068 0.076029055 -0.56845033 0.2645616 -0.10690023 -0.19511876 0.112798296 -0.6848022 -0.62649405 -0.35838425 -0.29988867 0.32374358 -0.04363835 0.24051662 0.3771922 -0.0067753415 0.27394104 -0.23241289 0.13455112 0.19669023 0.02831774 -0.3311444 -0.28613043 0.3431739 0.2845565 0.118308894 0.34063 0.6374959 0.27712965 -0.25062457 -0.16505212 0.25137603 0.2495352 0.013211465 -0.009264504 -0.08567428 -0.14935452 -0.15134901 -0.2913967 0.09022433 0.3613991 -0.043631475 0.3264014 0.17206685 -0.6255643 -0.22126926 0.015076762 0.2851296 0.156102 -0.02559367 0.30386502 0.18028153 0.07828867 -0.4575159 0.05280836 -0.15774974 0.059554946 -0.26745272 -0.047483366 0.0558915 0.09755273 -0.05052797 -0.3459492 0.067521535 -0.44715923 0.12694407 0.19272645
if -0.1338112 -0.267357 0.2683581 -0.06585173 0.20547877 0.086234756 0.34571916 -0.35474524 0.44228768 -0.14523219 0.09055932 -0.1733119 0.060069583 0.16040646 -0.22336896 0.30246145 0.29123425 -0.2975259 -0.12695204 -0.15205544 -0.058494404 -0.12682576 -0.024466999 0.12558 0.027090905 -0.090804294 0.05085111 -0.19056205 -0.018208921 -0.28585342 0.033839718 -0.0060497173 -0.013219247 -0.14243749 -0.124580696 -0.37471876 0.04961518 -0.46285778 0.12855381 0.0057616616 -0.20673898 -0.21081638 0.052387964 -0.26070505 0.089995176 -0.44464934 0.022785818 0.48038566 0.057915803 0.59460586 -0.08909004 0.024282303 0.0020344176 0.3894029 -0.44812268 -0.16967534 0.011048209 0.41901308 -0.020557154 -0.009711114 0.62464947 0.19450362 -0.07497782 -0.09247511 0.26336792 0.11817921 0.29445663 -0.31302905 0.20904662 -0.044551212 -0.17735913 0.24093963 -0.13690887 -0.11598519 0.053710062 0.22375868 0.3563872 0.026325185 -0.088662155 0.32763186 0.15114968 -0.15636043 -0.19131689 0.041451443 0.26318038 0.061746944 -0.18729459 0.07378591 0.17128383 0.17520793 -0.075233206 0.21931733 -0.16810186 0.4730125 0.053948767 -0.081724636 0.02936736 -0.20795268 0.7213363 -0.15513384
some 0.16018254 0.15296176 0.39995393 0.07931318 -0.33422092 -0.031572986 -0.006152733 0.044730313 0.0045321044 0.08718185 -0.04844146 -0.39808005 0.017980726 0.081033185 -0.24889636 0.20537211 0.15337117 0.38157305 0.17732269 -0.07443483 0.013693228 -0.10791064 -0.17235342 0.32679296 -0.25412974 0.15105394 -0.056536175 -0.07528476 0.6565533 0.07511636 0.08754392 0.04989852 -0.073983274 -0.30484596 -0.09526491 -0.10110513 -0.10315799 0.2680331 0.0712884 -0.14624475 -0.474872 -0.3897165 -0.054105416 0.08765915 0.26071635 -0.10662876 0.33621216 0.30621073 0.21701385 0.45814618 -0.15435925 0.033496246 0.027236573 -0.3775038 -0.27608848 -0.3531346 -0.28549245 0.1545258 -0.17848238 0.3624003 0.33274022 0.012337402 -0.08988877 -0.09751908 0.019676471 0.13643341 0.17870809 -0.05316072 -0.02296939 0.0947302 -0.13198738 -0.0526263 0.19665442 0.39732507 -0.102774166 0.16263944 -0.05185413 -0.29999393 -0.029794537 -0.012767977 -0.1735307 -0.19282924 -0.10071939 0.17291369 -0.16491872 -0.04776824 -0.36916023 0.14030129 0.14718167 0.077419505 -0.047546275 0.0046353866 0.02040735 0.33961335 0.23535194 0.19316998 -0.13803059 -0.15172592 -0.035982005 0.27616507
can 0.49891964 0.0041883094 -0.2221171 -0.26884723 0.36006773 0.12092739 0.1261423 -0.44772932 0.2605074 -0.54214865 0.04205779 -0.14967774 0.27293798 0.26723167 -0.32666013 0.25476542 -0.11979095 -0.15385142 0.55478245 0.08732299 0.13496737 -0.029954204 -0.4488412 0.17216246 -0.03613326 0.19446088 0.14553589 0.073742576 -0.32728353 -0.18521993 -0.1739414 0.23152205 0.010600282 0.07017639 0.2006192 -0.32621983 -0.009975291 0.0059205797 -0.37429702 0.10709251 -0.61573213 -0.4898568 -0.070066355 -0.3594404 -0.23662332 -0.3573521 0.015317318 0.63533527 -0.09621607 -0.070424825 -0.22069032 -0.069662206 -0.043679733 0.045471933 -0.23240119 0.034045395 0.2369019 -0.055278786 0.24287963 0.33879578 0.38113794 0.2645326 -0.014391728 -0.21843505 -0.10185337 0.4836745 -0.07714552 -0.029252319 0.22476378 -0.23412828 0.22217454 -0.0043076505 -0.164263 -0.1476228 -0.14881514 0.48725864 -0.03040843 -0.67332006 -0.027463371 0.026027264 -0.104440644 -0.09686338 -0.28656656 0.41067708 0.018735535 0.047587235 -0.15558964 0.31800818 -0.2808417 0.14539549 -0.18117292 -0.031569935 0.15464006 0.27211967 0.27810827 -0.08751454 -0.18263538 -0.13033073 0.1786513 -0.064852096
down 0.118873924 0.38704658 0.37482518 -0.43128976 0.053199735 0.3299038 -0.004176563 0.49303457 -0.28824925 -0.02777292 -0.026549028 0.31160897 0.10002052 0.00065708754 -0.0059506386 0.07382812 -0.2614511 0.15892304 0.050991487 -0.45172763 0.42356977 0.033199452 -0.19441412 0.056488793 0.04875984 0.1760722 -0.24576424 -0.0025494792 0.12193488 0.10961707 -0.116351195 -0.15572849 -0.17457259 -0.82613975 -0.10829921 -0.12817985 0.048507825 -0.3118442 0.1065965 -0.31780985 -0.16049191 -0.024207383 0.09672861 0.25166455 -0.082372315 0.150525 -0.20870489 0.49492922 0.30450615 0.033083092 -0.08283653 -0.083051085 0.023444047 0.59887516 -0.16333622 -0.120559365 0.25620595 0.3593585 0.12695698 0.08843604 0.028317053 0.2699938 -0.27518946 -0.09241187 0.10312386 -0.024650276 0.16185832 0.14889893 -0.12544249 0.23162389 -0.2843715 -0.021327749 0.24862204 -0.3298341 0.5044012 0.046701353 -0.15639953 -0.09206137 -0.056024358 0.1145445 -0.2769475 -0.039254725 0.08198211 0.09020053 -0.2848177 -0.06252679 -0.08382326 -0.17538713 0.1321462 -0.0230478 -0.15465711 -0.23211958 0.18139395 0.08814849 0.15709926 -0.047036167 -0.25453547 -0.2561707 0.123713225 -0.51630056
see 0.18677665 0.41384006 0.33305728 -0.09583471 0.34562165 0.26893044 0.062598154 0.08367465 0.25364137 -0.058118023 0.26357967 -0.23610686 0.22932063 0.47315598 -0.04843941 0.16466479 0.08171406 0.021340126 0.1087624 0.008698589 0.046358887 -0.14084502 -0.24033569 -0.022500211 -0.07646412 0.13238536 0.076770954 -0.045578964 -0.18173751 0.013171379 -0.3193876 0.13591388 0.025269516 -0.32765156 0.10680688 -0.025248775 -0.11845751 -0.38150245 0.086192794 -0.2029239 -0.27799276 -0.2641382 0.07109277 -0.060816117 0.032226562 -0.11700381 -0.11775781 0.5087225 0.19948372 0.13129121 -0.123621434 0.18672387 -0.25562695 0.369759 -0.18835415 0.11907084 -0.078775615 0.3370449 0.13315095 -0.017985666 0.19992888 -0.0101242885 0.14028586 -0.1370913 -0.2072967 0.306517 0.22591464 0.112682186 0.2200865 -0.1067091 -0.008872799 0.24424008 0.032807324 -0.21787167 0.24023178 0.19452713 0.12608027 -0.1785821 0.024329955 0.32868397 0.05281891 -0.07942639 -0.23071662 0.055249564 0.11548919 -0.36816308 -0.0121198 0.13358381 0.037983116 0.22796428 -0.19886151 -0.008539258 0.23691861 0.12740558 0.19575495 0.07899137 -0.14218529 -0.4947798 0.4792796 -0.13850462
now 0.20449162 0.08376096 0.43921942 0.08752172 0.095963575 0.034441195 0.18795656 0.06078382 0.37172046 -0.15428789 0.0009873081 -0.045555435 0.18905613 0.039098606 -0.14287652 -0.011328526 -0.045197543 0.14097317 -0.10576733 -0.0024664016 0.23074058 0.10688919 -0.071971364 0.22241813 -0.12035615 0.39941096 0.095962144 0.29699093 0.14040247 -0.2627874 -0.09249205 0.03176189 -0.03564677 -0.35912427 -0.012082533 -0.18455495 0.10830752 -0.25850308 -0.06457718 0.033644542 -0.20540465 -0.2540857 -0.025694866 -0.08917261 0.13764049 -0.21700445 -0.11726266 0.44886833 0.07862054 0.4018437 0.10342594 0.3424868 0.21661846 0.18345329 -0.40883932 -0.20328197 -0.06198953 0.13326362 -0.32361907 -0.009623094 0.4636143 0.34470606 -0.18241863 -0.110399365 -0.0033978028 0.08857942 -0.06322756 -0.07925288 0.21860045 -0.1275749 -0.09643808 -0.13555716 0.02257938 -0.10544038 0.084310845 0.31113413 0.08608352 -0.40587172 -0.081281796 0.06428637 0.05044814 0.12325475 0.020659527 0.09520043 0.06113068 -0.19921747 -0.17923965 -0.067294955 0.051521614 0.31997406 -0.22214025 0.004813036 0.06001749 0.064210385 0.06296922 0.031153336 -0.18564692 -0.43649447 0.12541424 -0.059275016
should -0.10202898 -0.021468615 -0.017903846 -0.18174231 0.33855027 -0.12021083 0.047897924 -0.4229083 -0.02315234 -0.82394034 0.03139725 -0.104864396 0.114607766 0.15334897 -0.28415915 0.29681125 0.0031082605 -0.44456297 0.21099916 0.081020646 0.10149826 0.0441986 -0.095924914 0.04414916 -0.08212951 0.3039686 0.059805248 -0.10288798 0.106997706 -0.39243534 -0.022974595 -0.012666431 -0.02936496 -0.060825102 -0.32836515 -0.4810894 -0.07545853 -0.107744746 0.06458489 0.27155796 -0.6290812 -0.18339041 -0.15623967 -0.07506619 -0.010440258 -0.14015327 0.084234916 0.50524104 -0.10116277 0.47449005 -0.3265343 0.067672886 0.033350695 0.3501038 -0.16859326 -0.15496413 0.20792463 0.13127574 -0.051487736 -0.0003342505 0.4589111 0.3416931 -0.13873088 0.09925947 -0.04568426 0.2709752 -0.01550646 -0.31618562 0.49296293 -0.21830994 -0.24984454 0.10876022 -0.45775262 0.14489707 0.13586575 0.21126342 0.006588489 -0.3043049 0.16630425 0.25635472 0.14208882 0.06918189 -0.05712308 0.09449391 -0.038570903 -0.0503252 -0.24933511 0.20452432 0.02871263 -0.33329144 0.014280914 0.03222261 -0.044038728 0.7636278 0.39271873 -0.21785942 -0.21372406 -0.03180197 0.5489774 -0.12868075
our 0.13804118 0.07976137 0.4184946 0.35531676 -0.14847463 0.43225232 0.27125558 -0.29971987 0.42470667 0.18205988 -0.37662363 0.09863563 0.23751475 0.19363019 -0.18033953 0.2097589 -0.06682621 0.16771005 0.24590398 -0.19314118 -0.07814994 -0.21993391 -0.05952204 -0.049699638 -0.30187008 0.45293784 0.16844678 0.13406219 0.20424815 0.12969759 -0.16591454 0.29873863 -0.28947875 -0.69000804 -0.10740681 -0.22948729 0.07794722 -0.25592342 0.29672694 0.20842718 -0.24758643 0.13071929 0.3383403 0.27041078 0.07310451 -0.10240285 0.13285448 0.25286123 0.26071686 0.004543692 0.25728717 -0.05655855 -0.00524255 0.23786543 -0.45561823 0.040231384 0.19014116 0.16538459 -0.3686673 0.37213287 0.30855677 0.52764964 -0.32403475 -0.09538919 0.16064247 -0.06409271 -0.093564816 -0.23783678 0.00052846613 -0.09771308 -0.41396567 0.04529794 0.19885574 0.19646206 -0.027854167 0.6156742 0.46962583 -0.52165157 0.12083622 0.13585137 0.0063891844 -0.39485526 -0.15639757 0.26922384 0.0535164 -0.022473613 0.14604516 0.20069349 -0.083668314 -0.0057528946 -0.018179582 -0.043449603 0.21077019 0.4115974 0.19691093 0.1726735 0.08128933 -0.28782788 0.013726503 0.14571087
; 0.09743013 -0.015713234 -0.003962032 -0.1359704 0.41861832 -0.024127705 0.27972814 -0.020128207 0.25623927 -0.21279466 -0.17365 -0.25794446 -0.011550506 -0.18321227 -0.18040143 0.32175824 0.20075925 0.11128123 -0.1490013 -0.4013083 0.3768169 -0.11520015 -0.111847386 0.3244835 0.29339206 0.26230705 -0.095067404 -0.09483366 0.021803563 -0.17160398 0.07076653 0.15088648 -0.09471913 0.08411707 -0.23258008 -0.1360222 0.200284 0.035241522 0.08633191 0.07349536 -0.1255839 -0.42753518 -0.06597609 -0.08956497 0.0853672 -0.37374324 0.110423446 0.23814408 0.33222285 0.4547765 0.1604481 -0.12618455 -0.14189498 0.33850744 -4.8579946e-05 -0.024339747 -0.14884695 0.39832368 0.066467255 -0.023959547 0.3066316 0.29732624 -0.04128554 0.2899209 0.008878604 -0.16349883 -0.0064339447 -0.17593263 0.0074482053 -0.2149053 -0.008505704 0.38165182 0.06351548 -0.027965251 0.4489213 0.3046663 0.01691407 -0.3114191 -0.15812773 0.07571594 -0.07028498 -0.08333453 -0.18938297 -0.06944127 -0.1764743 -0.29232386 -0.14367697 0.3359958 0.09487636 0.30099943 0.041959707 -0.029694054 -0.16432634 0.4270655 0.10713661 0.046102308 -0.07963312 -0.38351446 0.56439745 0.035874017
they 0.13279375 -0.21227662 0.3417379 -0.2787772 0.007954496 0.2886256 -0.3949404 -0.46354848 -0.0075308075 -0.28916463 -0.20856242 -0.25572613 0.22774406 -0.22289588 -0.20664454 0.16515617 -0.08544081 0.2770862 0.43353164 0.015510455 0.36254779 -0.7004271 -0.3614635 0.13372958 0.018212683 0.31474817 0.02670455 0.057403393 -0.053280566 0.19115774 -0.07405658 0.19173318 -0.16490337 -0.25042978 -0.098602414 0.065200865 -0.31286448 -0.17367288 0.044116534 0.1808495 -0.59732115 -0.5424227 0.20520431 -0.17897454 0.014070514 -0.17002487 -0.09829533 0.07581056 0.3362164 0.0530497 -0.08676476 -0.086584255 -0.40786982 -0.22449714 -0.4031693 0.097750604 0.11131053 -0.10513178 -0.033206824 -0.18922874 0.38545996 -0.063548654 -0.12090559 -0.109508656 -0.08315215 0.021446127 -0.35673556 -0.08175577 0.074171424 0.123864606 0.031619206 0.43454158 -0.082175285 0.17490107 0.38020325 -0.15346272 -0.19515291 0.13199739 0.15354545 0.3118183 0.026943281 -0.12629777 0.398702 0.41206393 -0.06604556 0.094759345 -0.712157 0.22871149 -0.04784541 0.018299133 0.00335883 0.027673405 -0.23908813 0.5265029 -0.06788111 0.33947358 -0.13737005 -0.055376947 0.51992244 -0.2685769
may 0.054597065 0.06370204 0.36074236 -0.1341866 0.19854951 -0.10790304 0.367039 -0.34552744 0.20573469 -0.4520892 -0.30278197 -0.42604378 0.20746692 0.15777989 -0.18556206 0.2952395 -0.03638372 0.2320581 0.29728183 0.15963385 0.121507764 0.10520712 -0.21309905 0.15590802 -0.1718434 0.6073408 0.2396817 0.24495856 0.2564603 -0.34516057 -0.17024094 0.2875387 0.016179161 -0.22093743 -0.1979728 -0.27585694 0.09098044 0.076758854 -0.2313374 -0.046038616 -0.7322531 -0.42163768 -0.44004232 -0.4316868 0.32665342 -0.053912573 0.21400854 0.3812768 -0.09419705 0.7156562 -0.21722437 0.048453715 0.23380375 0.05793649 -0.28328174 -0.30551228 0.27785784 0.10534144 -0.07604187 0.41383508 0.22322711 0.072845034 -0.281867 -0.19830646 0.30794016 0.38714582 0.24231775 0.035667773 -0.008085295 -0.26511306 -0.22294225 -0.2570794 -0.10747397 0.1890817 0.029554375 0.24566601 0.32417879 -0.40527752 -0.2294712 0.18873546 0.043924276 0.15961553 -0.21568349 0.2683086 0.23702629 0.11533152 -0.26558807 0.0057774964 -0.0095357625 -0.12827902 0.11400135 0.03804746 0.1349198 0.20248306 0.049057584 -0.2509136 -0.010498296 0.023651354 0.1843476 0.02596079
or -0.1782002 -0.23931597 -0.20970523 -0.08823686 -0.27510262 0.057105374 -0.16856048 -0.25150108 0.0023948867 -0.33474985 0.063298345 -0.10038685 -0.2562865 -0.042005852 -0.033716816 0.08902983 0.19891326 -0.051529024 -0.22042371 0.087162204 0.022441283 -0.1362541 0.07315782 0.1540792 -0.0041831774 -0.17127496 -0.14006595 0.046501443 0.032836083 -0.09426376 0.20525984 0.35658884 -0.07481538 -0.37274596 -0.29751265 0.18536668 -0.1398649 -0.256038 -0.20223965 -0.1799001 -0.74809945 -0.116048604 -0.19538778 -0.30638587 0.06782192 -0.24627951 -0.082218036 0.77721715 0.27920255 0.39512378 -0.4695667 0.02909186 -0.22064134 -0.017902393 -0.35147583 -0.25937018 -0.085588895 0.34702617 0.17445424 0.3373378 0.49353296 -0.23521166 -0.40066862 0.07803995 0.040168304 0.37442553 0.17763898 -0.06939419 -0.108456105 0.03081041 0.2232933 0.16795912 0.14061017 0.013408574 0.14110906 -0.113762885 -0.103258476 -0.14790916 -0.19114625 0.060432877 0.10576923 -0.20303468 -0.23320189 -0.09049032 -0.14268948 0.024554987 -0.546282 -0.10274491 0.32306653 0.15682636 0.06891214 -0.082348935 -0.100283846 0.09585782 0.16425355 -0.1953149 0.14783749 0.26648048 0.4248519 0.15014565
am 0.18427575 0.043946546 -0.019977741 0.07162254 0.51411533 -0.052204505 0.016280595 -0.05860478 0.020450652 -0.37684828 -0.011038994 -0.106879145 0.1917762 0.15704168 -0.037507135 0.048239365 0.06015028 0.009641227 -0.0059232125 0.07507263 0.17724687 0.19649102 -0.16784516 0.12783606 0.023166243 0.27769834 -0.40570128 0.25653613 -0.35378268 -0.44572696 -0.31810084 0.5299422 0.015838917 -0.16767396 -0.30724287 -0.17239963 0.14838772 0.005498162 0.234068 0.24964109 -0.41553912 -0.13676164 -0.3140694 0.05409165 0.23730125 0.026093831 0.32055077 0.6008462 0.17448194 0.50226784 -0.22608277 -0.14075059 -0.15892892 -0.14315327 0.07622154 0.0493908 -0.32575154 0.108150214 0.19604334 0.21456969 0.61779356 0.17493261 -0.028219396 -0.2887545 0.14586619 0.35462838 -0.02531156 -0.14113443 0.32045302 -0.19323355 0.13470508 0.18731835 -0.1508325 0.09994376 -0.23384751 0.7554256 0.18653077 -0.4819288 0.032912333 0.11014336 0.18037637 0.1881707 0.18185276 -0.12802605 0.16717197 -0.43017426 -0.3274718 0.23817243 -0.187035 -0.036088802 -0.12560546 0.04975445 0.0870662 0.09744982 0.07916115 0.19000247 0.06193628 -0.68536365 0.66582006 -0.115879595
us 0.39774704 0.18562385 0.34936458 0.051410966 0.16876239 0.3959564 0.34932178 -0.45379016 0.029342743 -0.19898653 -0.30946547 0.0499255 0.18956243 -0.134197 0.047351867 0.45556793 -0.23113604 0.123988055 0.2862383 -0.17388575 0.4195905 -0.52287436 -0.22149949 -0.018924825 -0.04902076 0.48655742 0.28025946 -0.008842824 0.2787138 -0.040567033 -0.048661035 -0.0018188629 -0.22621568 -0.71219033 0.10305248 -0.15426823 -0.0779104 -0.31435168 -0.071698286 0.082239255 -0.29476598 -0.26634285 0.33383828 -0.09919337 0.109744966 -0.025098328 -0.35313198 0.23842423 -0.104228094 -0.14092082 0.089316 0.4407925 0.2767613 0.3104693 -0.5324505 -0.2678561 -0.103151694 0.11184461 -0.41690296 -0.049475238 0.07692533 0.08625288 -0.41211605 0.010370268 -0.12008362 0.16187087 -0.050211273 -0.22956027 0.09311329 0.11256207 -0.34045622 0.043182343 -0.05889483 0.0035130046 0.3180802 -0.14409232 0.21731268 -0.41767377 0.050083432 0.4062435 0.0018336676 0.00021382567 -0.163025 0.109959476 0.13022594 0.11072563 -0.09749683 -0.13038391 0.41962555 0.13682061 -0.09949596 -0.029208744 0.031544864 0.12779221 0.24150337 -0.05590226 -0.29102916 -0.20499696 0.008631978 -0.17419253
